{"learner":{"attributes":{"best_iteration":"199","best_ntree_limit":"200"},"feature_names":[],"feature_types":[],"gradient_booster":{"model":{"gbtree_model_param":{"num_parallel_tree":"1","num_trees":"200","size_leaf_vector":"0"},"tree_info":[0,0,0,0,0,0,0,0,0,0,0,0,0,0,0,0,0,0,0,0,0,0,0,0,0,0,0,0,0,0,0,0,0,0,0,0,0,0,0,0,0,0,0,0,0,0,0,0,0,0,0,0,0,0,0,0,0,0,0,0,0,0,0,0,0,0,0,0,0,0,0,0,0,0,0,0,0,0,0,0,0,0,0,0,0,0,0,0,0,0,0,0,0,0,0,0,0,0,0,0,0,0,0,0,0,0,0,0,0,0,0,0,0,0,0,0,0,0,0,0,0,0,0,0,0,0,0,0,0,0,0,0,0,0,0,0,0,0,0,0,0,0,0,0,0,0,0,0,0,0,0,0,0,0,0,0,0,0,0,0,0,0,0,0,0,0,0,0,0,0,0,0,0,0,0,0,0,0,0,0,0,0,0,0,0,0,0,0,0,0,0,0,0,0,0,0,0,0,0,0],"trees":[{"base_weights":[1.8357576E0,2.7216666E0,1.6238532E0,3.1194444E0,1.31E0,1.7393618E0,8.4375E-1,1.8903947E0,1.0436842E0,1.033E0,4.5285714E-1,2.0255384E0,1.0008333E0,1.2021428E0,5E-1],"categories":[],"categories_nodes":[],"categories_segments":[],"categories_sizes":[],"default_left":[1,1,1,0,0,1,1,1,1,0,0,0,0,0,0],"id":0,"left_children":[1,3,5,-1,-1,7,9,11,13,-1,-1,-1,-1,-1,-1],"loss_changes":[2.0360535E1,9.390244E0,8.354248E0,0E0,0E0,7.9036255E0,7.158222E-1,7.1094055E0,1.0358086E0,0E0,0E0,0E0,0E0,0E0,0E0],"parents":[2147483647,0,0,1,1,2,2,5,5,6,6,7,7,8,8],"right_children":[2,4,6,-1,-1,8,10,12,14,-1,-1,-1,-1,-1,-1],"split_conditions":[-1.4009454E-2,-6.3216565E-3,2.0485885E-2,1.5597223E-1,6.55E-2,-1.2245992E-2,-6.4166514E-3,-2.6423993E-2,-7.462427E-3,5.165E-2,2.2642856E-2,1.0127693E-1,5.0041664E-2,6.010714E-2,2.5E-2],"split_indices":[53,836,1371,0,0,807,1207,1501,1024,0,0,0,0,0,0],"split_type":[0,0,0,0,0,0,0,0,0,0,0,0,0,0,0],"sum_hessian":[1.31E2,2.3E1,1.08E2,1.7E1,6E0,9.3E1,1.5E1,7.5E1,1.8E1,9E0,6E0,6.4E1,1.1E1,1.3E1,5E0],"tree_param":{"num_deleted":"0","num_feature":"1536","num_nodes":"15","size_leaf_vector":"0"}},{"base_weights":[1.7480015E0,1.5224078E0,2.5689247E0,1.6685427E0,9.225058E-1,3.079509E0,1.2055886E0,8.4720737E-1,1.7680852E0,1.3151582E0,6.25414E-1,4.0536004E-1,1.3763167E0,8.841924E-1,2.3867857E-1,1.075187E0,1.8981261E0,7.1028143E-1,3.797326E-1],"categories":[],"categories_nodes":[],"categories_segments":[],"categories_sizes":[],"default_left":[1,1,1,1,1,0,1,1,1,0,1,0,0,0,0,0,0,0,0],"id":1,"left_children":[1,3,5,7,9,-1,11,13,15,-1,17,-1,-1,-1,-1,-1,-1,-1,-1],"loss_changes":[2.053479E1,7.753433E0,1.5082031E1,5.3697357E0,1.8605194E0,0E0,6.7169E-1,3.6533356E-2,4.6269073E0,0E0,4.303789E-2,0E0,0E0,0E0,0E0,0E0,0E0,0E0,0E0],"parents":[2147483647,0,0,1,1,2,2,3,3,4,4,6,6,7,7,8,8,10,10],"right_children":[2,4,6,8,10,-1,12,14,16,-1,18,-1,-1,-1,-1,-1,-1,-1,-1],"split_conditions":[1.7196298E-2,3.8483823E-3,-1.573744E-2,-8.255504E-3,-1.4943326E-2,1.5397546E-1,-1.4810089E-2,-1.6997714E-2,-1.6132037E-3,6.5757915E-2,3.0956414E-2,2.0268003E-2,6.8815835E-2,4.420962E-2,1.1933929E-2,5.3759348E-2,9.490631E-2,3.551407E-2,1.8986631E-2],"split_indices":[752,127,1322,777,444,0,43,8,1106,0,706,0,0,0,0,0,0,0,0],"split_type":[0,0,0,0,0,0,0,0,0,0,0,0,0,0,0,0,0,0,0],"sum_hessian":[1.31E2,1.05E2,2.6E1,8.3E1,2.2E1,1.8E1,8E0,1E1,7.3E1,8E0,1.4E1,2E0,6E0,9E0,1E0,1.3E1,6E1,9E0,5E0],"tree_param":{"num_deleted":"0","num_feature":"1536","num_nodes":"19","size_leaf_vector":"0"}},{"base_weights":[1.6649053E0,1.4246919E0,2.3710508E0,1.5353608E0,6.878322E-1,3.0074384E0,1.5466985E0,1.1880728E0,1.7804399E0,9.212618E-1,4.2985E-1,3.0907168E0,8.3749324E-1,1.8920374E0,8.3240014E-1,1.4290824E0,6.556213E-1,1.0489196E0,1.9411138E0],"categories":[],"categories_nodes":[],"categories_segments":[],"categories_sizes":[],"default_left":[1,1,1,1,1,1,1,1,1,0,0,0,0,0,0,0,0,0,0],"id":2,"left_children":[1,3,5,7,9,11,13,15,17,-1,-1,-1,-1,-1,-1,-1,-1,-1,-1],"loss_changes":[1.9012573E1,7.180252E0,1.2135834E1,5.2895203E0,5.073056E-1,4.8361206E-1,2.371872E0,4.067768E0,3.7232056E0,0E0,0E0,0E0,0E0,0E0,0E0,0E0,0E0,0E0,0E0],"parents":[2147483647,0,0,1,1,2,2,3,3,4,4,5,5,6,6,7,7,8,8],"right_children":[2,4,6,8,10,12,14,16,18,-1,-1,-1,-1,-1,-1,-1,-1,-1,-1],"split_conditions":[-1.4640313E-3,2.9179204E-2,1.8567584E-2,-2.2627456E-2,-2.228769E-2,3.0852281E-3,2.8779965E-2,-1.629399E-2,-3.432345E-2,4.606309E-2,2.1492502E-2,1.5453584E-1,4.1874662E-2,9.460187E-2,4.162001E-2,7.145412E-2,3.2781065E-2,5.2445978E-2,9.7055696E-2],"split_indices":[350,607,367,943,506,1,741,614,1212,0,0,0,0,0,0,0,0,0,0],"split_type":[0,0,0,0,0,0,0,0,0,0,0,0,0,0,0,0,0,0,0],"sum_hessian":[1.31E2,1E2,3.1E1,8.6E1,1.4E1,1.6E1,1.5E1,3.8E1,4.8E1,6E0,8E0,1.5E1,1E0,9E0,6E0,2.5E1,1.3E1,1E1,3.8E1],"tree_param":{"num_deleted":"0","num_feature":"1536","num_nodes":"19","size_leaf_vector":"0"}},{"base_weights":[1.5866141E0,1.3799032E0,2.3393824E0,7.723521E-1,1.5122132E0,2.6875937E0,9.6055114E-1,8.826312E-1,3.4954923E-1,1.6571425E0,8.264921E-1,4.6422654E-1,2.7755508E0,1.1222852E0,3.7081054E-1,5.320936E-1,1.0397444E0,1.7766144E0,7.626495E-1,4.3699777E-1,9.9921644E-1],"categories":[],"categories_nodes":[],"categories_segments":[],"categories_sizes":[],"default_left":[1,1,1,1,1,1,1,1,0,1,1,0,0,0,0,0,0,0,0,0,0],"id":3,"left_children":[1,3,5,7,9,11,13,15,-1,17,19,-1,-1,-1,-1,-1,-1,-1,-1,-1,-1],"loss_changes":[1.7311798E1,7.352844E0,1.038179E1,6.7062855E-1,7.17717E0,2.8182983E0,2.51513E-1,3.2794285E-1,0E0,6.1257477E0,7.0702267E-1,0E0,0E0,0E0,0E0,0E0,0E0,0E0,0E0,0E0,0E0],"parents":[2147483647,0,0,1,1,2,2,3,3,4,4,5,5,6,6,7,7,9,9,10,10],"right_children":[2,4,6,8,10,12,14,16,-1,18,20,-1,-1,-1,-1,-1,-1,-1,-1,-1,-1],"split_conditions":[1.7196298E-2,9.927601E-3,3.48456E-2,1.3334238E-2,1.7235897E-4,-2.0292304E-2,4.5729637E-2,-5.523625E-3,1.7477462E-2,5.423692E-3,3.4914166E-2,2.3211328E-2,1.3877754E-1,5.6114264E-2,1.8540528E-2,2.660468E-2,5.198722E-2,8.8830724E-2,3.8132474E-2,2.184989E-2,4.9960822E-2],"split_indices":[752,543,706,108,880,64,50,1089,0,127,432,0,0,0,0,0,0,0,0,0,0],"split_type":[0,0,0,0,0,0,0,0,0,0,0,0,0,0,0,0,0,0,0,0,0],"sum_hessian":[1.31E2,1.05E2,2.6E1,2E1,8.5E1,2E1,6E0,1.5E1,5E0,6.9E1,1.6E1,1E0,1.9E1,4E0,2E0,6E0,9E0,6E1,9E0,6E0,1E1],"tree_param":{"num_deleted":"0","num_feature":"1536","num_nodes":"21","size_leaf_vector":"0"}},{"base_weights":[1.5113097E0,1.3136895E0,2.2311778E0,1.0448296E0,1.605122E0,2.5149243E0,8.1891125E-1,1.3245729E0,7.761452E-1,1.1479744E0,1.9980646E0,8.180314E-1,2.643712E0,9.595292E-1,3.584502E-1,1.5924256E0,7.9020303E-1,9.5302194E-1,4.0193212E-1,1.4093369E0,6.872096E-1,2.1146107E0,4.3852404E-1],"categories":[],"categories_nodes":[],"categories_segments":[],"categories_sizes":[],"default_left":[1,1,1,1,1,1,1,1,1,1,1,0,0,0,0,0,0,0,0,0,0,0,0],"id":4,"left_children":[1,3,5,7,9,11,13,15,17,19,21,-1,-1,-1,-1,-1,-1,-1,-1,-1,-1,-1,-1],"loss_changes":[1.5847321E1,6.6284943E0,8.760086E0,3.3313751E0,6.508278E0,2.645218E0,4.4551373E-2,2.6062317E0,1.7350178E0,2.0421562E0,3.6166458E0,0E0,0E0,0E0,0E0,0E0,0E0,0E0,0E0,0E0,0E0,0E0,0E0],"parents":[2147483647,0,0,1,1,2,2,3,3,4,4,5,5,6,6,7,7,8,8,9,9,10,10],"right_children":[2,4,6,8,10,12,14,16,18,20,22,-1,-1,-1,-1,-1,-1,-1,-1,-1,-1,-1,-1],"split_conditions":[1.7196298E-2,2.1472223E-2,-1.0826511E-2,3.8404353E-3,1.2005787E-2,7.838182E-3,-2.4919348E-2,-2.5820566E-2,1.4296168E-2,9.442128E-3,1.9679692E-2,4.0901568E-2,1.3218561E-1,4.797646E-2,1.7922511E-2,7.962128E-2,3.9510153E-2,4.7651097E-2,2.0096606E-2,7.0466846E-2,3.436048E-2,1.0573053E-1,2.1926202E-2],"split_indices":[752,1293,1263,7,770,197,9,872,925,641,237,0,0,0,0,0,0,0,0,0,0,0,0],"split_type":[0,0,0,0,0,0,0,0,0,0,0,0,0,0,0,0,0,0,0,0,0,0,0],"sum_hessian":[1.31E2,1.05E2,2.6E1,5.7E1,4.8E1,2.1E1,5E0,2.6E1,3.1E1,2.4E1,2.4E1,2E0,1.9E1,3E0,2E0,1.6E1,1E1,2E1,1.1E1,1.4E1,1E1,2.2E1,2E0],"tree_param":{"num_deleted":"0","num_feature":"1536","num_nodes":"23","size_leaf_vector":"0"}},{"base_weights":[1.4407318E0,1.2287612E0,2.064741E0,1.4290255E0,9.3685013E-1,1.401015E0,2.7235627E0,5.7185084E-1,1.5354642E0,7.400973E-1,1.4598271E0,6.320112E-1,1.6481695E0,1.106156E0,2.8873055E0,6.6548026E-1,1.6155608E0,1.0108484E0,4.098845E-1,5.321499E-1,1.9139069E0],"categories":[],"categories_nodes":[],"categories_segments":[],"categories_sizes":[],"default_left":[1,1,1,1,1,1,1,0,1,1,1,0,0,0,0,0,0,0,0,0,0],"id":5,"left_children":[1,3,5,7,9,11,13,-1,15,17,19,-1,-1,-1,-1,-1,-1,-1,-1,-1,-1],"loss_changes":[1.492276E1,4.565628E0,1.0177109E1,4.413658E0,3.4470634E0,2.3794708E0,7.787781E-1,0E0,2.4786835E0,2.6254559E0,3.6151485E0,0E0,0E0,0E0,0E0,0E0,0E0,0E0,0E0,0E0,0E0],"parents":[2147483647,0,0,1,1,2,2,3,3,4,4,5,5,6,6,8,8,9,9,10,10],"right_children":[2,4,6,8,10,12,14,-1,16,18,20,-1,-1,-1,-1,-1,-1,-1,-1,-1,-1],"split_conditions":[-1.4640313E-3,-3.3229857E-3,-6.9648623E-3,-2.3088844E-2,-1.3130294E-3,1.8236332E-2,-2.2725135E-2,2.8592542E-2,-9.406908E-3,9.815335E-3,-1.1381375E-3,3.160056E-2,8.240848E-2,5.53078E-2,1.4436528E-1,3.3274014E-2,8.077804E-2,5.054242E-2,2.0494226E-2,2.6607497E-2,9.569535E-2],"split_indices":[350,941,865,1041,969,393,89,0,1370,925,176,0,0,0,0,0,0,0,0,0,0],"split_type":[0,0,0,0,0,0,0,0,0,0,0,0,0,0,0,0,0,0,0,0,0],"sum_hessian":[1.31E2,1E2,3.1E1,5.7E1,4.3E1,1.7E1,1.4E1,7E0,5E1,3.3E1,1E1,5E0,1.2E1,2E0,1.2E1,5E0,4.5E1,1.7E1,1.6E1,4E0,6E0],"tree_param":{"num_deleted":"0","num_feature":"1536","num_nodes":"21","size_leaf_vector":"0"}},{"base_weights":[1.3736169E0,1.1934392E0,2.0301065E0,1.7804674E0,1.0771108E0,5.166924E-1,2.270844E0,1.8468509E0,3.9235792E-1,1.3408828E0,8.4393895E-1,2.5825102E0,1.4990844E0,9.3850046E-1,1.7574043E0,1.7167518E0,7.536225E-1],"categories":[],"categories_nodes":[],"categories_segments":[],"categories_sizes":[],"default_left":[1,1,1,1,1,0,1,0,0,1,1,0,0,0,0,0,0],"id":6,"left_children":[1,3,5,7,9,-1,11,-1,-1,13,15,-1,-1,-1,-1,-1,-1],"loss_changes":[1.3190796E1,5.3207703E0,8.663727E0,7.4972916E-1,4.4652634E0,0E0,1.6608276E0,0E0,0E0,5.2223206E0,2.726513E0,0E0,0E0,0E0,0E0,0E0,0E0],"parents":[2147483647,0,0,1,1,2,2,3,3,4,4,6,6,9,9,10,10],"right_children":[2,4,6,8,10,-1,12,-1,-1,14,16,-1,-1,-1,-1,-1,-1],"split_conditions":[1.7196298E-2,-3.3836283E-2,-2.568838E-2,8.615494E-3,6.425201E-3,2.583462E-2,2.7199816E-2,9.234255E-2,1.9617897E-2,-2.8173309E-2,-2.6720406E-2,1.2912552E-1,7.495422E-2,4.6925023E-2,8.787022E-2,8.5837595E-2,3.7681125E-2],"split_indices":[752,1329,889,42,799,0,26,0,0,583,601,0,0,0,0,0,0],"split_type":[0,0,0,0,0,0,0,0,0,0,0,0,0,0,0,0,0],"sum_hessian":[1.31E2,1.05E2,2.6E1,1.5E1,9E1,4E0,2.2E1,1.4E1,1E0,4E1,5E1,1.4E1,8E0,2.2E1,1.8E1,3E0,4.7E1],"tree_param":{"num_deleted":"0","num_feature":"1536","num_nodes":"17","size_leaf_vector":"0"}},{"base_weights":[1.3094829E0,1.1132667E0,1.8878694E0,8.541938E-1,1.3229376E0,1.3287168E0,2.6028836E0,1.4925826E0,7.0879614E-1,6.105232E-1,1.4709744E0,7.03034E-1,1.6115433E0,9.0912694E-1,4.7471315E-1,2.67968E-1,7.054854E-1,1.6749177E0,9.143162E-1,7.4447644E-1,2.064684E-1],"categories":[],"categories_nodes":[],"categories_segments":[],"categories_sizes":[],"default_left":[1,1,1,1,1,1,0,0,1,1,1,1,0,0,0,0,0,0,0,0,0],"id":7,"left_children":[1,3,5,7,9,11,-1,-1,13,15,17,19,-1,-1,-1,-1,-1,-1,-1,-1,-1],"loss_changes":[1.2878815E1,4.3562775E0,9.335167E0,3.3974342E0,4.7969666E0,2.4062233E0,0E0,0E0,1.4910812E0,1.6878033E-1,3.4637756E0,1.0920286E-2,0E0,0E0,0E0,0E0,0E0,0E0,0E0,0E0,0E0],"parents":[2147483647,0,0,1,1,2,2,3,3,4,4,5,5,8,8,9,9,10,10,11,11],"right_children":[2,4,6,8,10,12,-1,-1,14,16,18,20,-1,-1,-1,-1,-1,-1,-1,-1,-1],"split_conditions":[-1.4640313E-3,-2.2627456E-2,1.5230733E-3,-1.884877E-2,-8.017903E-4,2.0818215E-2,1.3014418E-1,7.462913E-2,-1.2674324E-2,-1.9613821E-2,-1.4738494E-3,1.7038327E-2,8.0577165E-2,4.5456346E-2,2.3735657E-2,1.33984005E-2,3.527427E-2,8.374589E-2,4.571581E-2,3.7223823E-2,1.032342E-2],"split_indices":[350,943,708,1462,1007,393,0,0,350,20,816,0,0,0,0,0,0,0,0,0,0],"split_type":[0,0,0,0,0,0,0,0,0,0,0,0,0,0,0,0,0,0,0,0,0],"sum_hessian":[1.31E2,1E2,3.1E1,4.7E1,5.3E1,1.9E1,1.2E1,7E0,4E1,1E1,4.3E1,7E0,1.2E1,2E1,2E1,3E0,7E0,3E1,1.3E1,6E0,1E0],"tree_param":{"num_deleted":"0","num_feature":"1536","num_nodes":"21","size_leaf_vector":"0"}},{"base_weights":[1.2484045E0,2.2274318E0,1.1409935E0,2.3112926E0,6.524802E-1,7.76243E-1,1.2924163E0,5.932662E-1,1.0475413E0,1.629774E0,9.921609E-1,9.037408E-1,4.476563E-1,1.1018617E0,1.7068815E-1,2.0523598E0,1.1468288E0,7.2591466E-1,1.4193064E0],"categories":[],"categories_nodes":[],"categories_segments":[],"categories_sizes":[],"default_left":[1,1,1,0,0,1,1,1,1,1,1,0,0,0,0,0,0,0,0],"id":8,"left_children":[1,3,5,-1,-1,7,9,11,13,15,17,-1,-1,-1,-1,-1,-1,-1,-1],"loss_changes":[1.1339401E1,7.684708E-2,5.6797943E0,0E0,0E0,1.2648983E0,6.8916626E0,7.2563934E-1,4.787588E-1,5.4015503E0,4.314823E0,0E0,0E0,0E0,0E0,0E0,0E0,0E0,0E0],"parents":[2147483647,0,0,1,1,2,2,5,5,6,6,7,7,8,8,9,9,10,10],"right_children":[2,4,6,-1,-1,8,10,12,14,16,18,-1,-1,-1,-1,-1,-1,-1,-1],"split_conditions":[-1.9512512E-2,-2.4473522E-2,-1.0341264E-2,1.1556464E-1,3.262401E-2,9.210702E-3,-8.945182E-3,-3.964469E-2,5.0648116E-2,-4.042502E-3,1.2801258E-2,4.518704E-2,2.2382816E-2,5.5093087E-2,8.534408E-3,1.02617994E-1,5.7341438E-2,3.6295734E-2,7.096532E-2],"split_indices":[941,8,1028,0,0,232,880,583,5,316,752,0,0,0,0,0,0,0,0],"split_type":[0,0,0,0,0,0,0,0,0,0,0,0,0,0,0,0,0,0,0],"sum_hessian":[1.31E2,1.1E1,1.2E2,1E1,1E0,3.7E1,8.3E1,2.4E1,1.3E1,3.7E1,4.6E1,6E0,1.8E1,1.2E1,1E0,1.8E1,1.9E1,3E1,1.6E1],"tree_param":{"num_deleted":"0","num_feature":"1536","num_nodes":"19","size_leaf_vector":"0"}},{"base_weights":[1.1901252E0,1.0100124E0,1.7214149E0,1.5922183E0,8.556937E-1,2.0703707E0,8.67011E-1,1.6549101E0,2.0053726E-1,6.730475E-1,1.1065003E0,2.4147391E0,1.3046453E0,1.0189818E0,3.4631673E-1,1.0538802E0,1.8512409E0,8.3031934E-1,4.3514147E-1,6.2391603E-1,1.3525524E0],"categories":[],"categories_nodes":[],"categories_segments":[],"categories_sizes":[],"default_left":[1,1,1,1,1,1,1,1,0,1,1,0,0,0,0,0,0,0,0,0,0],"id":9,"left_children":[1,3,5,7,9,11,13,15,-1,17,19,-1,-1,-1,-1,-1,-1,-1,-1,-1,-1],"loss_changes":[1.08927E1,7.7119217E0,7.745743E0,1.4130669E0,3.0115967E0,2.6508484E0,5.1754284E-1,2.9102707E-1,0E0,1.509489E0,3.0745735E0,0E0,0E0,0E0,0E0,0E0,0E0,0E0,0E0,0E0,0E0],"parents":[2147483647,0,0,1,1,2,2,3,3,4,4,5,5,6,6,7,7,9,9,10,10],"right_children":[2,4,6,8,10,12,14,16,-1,18,20,-1,-1,-1,-1,-1,-1,-1,-1,-1,-1],"split_conditions":[-1.4640313E-3,-1.3962184E-3,1.4396407E-2,2.2034768E-3,1.5397022E-2,-9.029845E-3,2.8253604E-2,2.0840941E-2,1.0026864E-2,1.2827474E-2,-3.7444634E-3,1.2073696E-1,6.523227E-2,5.0949093E-2,1.7315837E-2,5.269401E-2,9.256204E-2,4.151597E-2,2.1757074E-2,3.1195803E-2,6.762762E-2],"split_indices":[350,717,1517,33,1192,121,160,1177,0,1182,1066,0,0,0,0,0,0,0,0,0,0],"split_type":[0,0,0,0,0,0,0,0,0,0,0,0,0,0,0,0,0,0,0,0,0],"sum_hessian":[1.31E2,1E2,3.1E1,1.9E1,8.1E1,2.1E1,1E1,1.8E1,1E0,4.9E1,3.2E1,1.3E1,8E0,7E0,3E0,6E0,1.2E1,2.8E1,2.1E1,1.2E1,2E1],"tree_param":{"num_deleted":"0","num_feature":"1536","num_nodes":"21","size_leaf_vector":"0"}},{"base_weights":[1.1349493E0,9.4218194E-1,1.5870007E0,1.049671E0,4.8661414E-1,1.2239938E0,2.1218703E0,7.626992E-1,1.2760446E0,6.1856884E-1,2.9280257E-1,4.98368E-1,1.3804817E0,5.8708185E-1,2.1947708E0,1.0276808E0,4.0609154E-1,4.2802736E-1,1.4091897E0,5.530337E-1,1.1251974E-1,1.4801898E0,6.1160195E-1],"categories":[],"categories_nodes":[],"categories_segments":[],"categories_sizes":[],"default_left":[1,1,1,1,1,1,1,1,1,0,0,1,1,0,0,0,0,0,0,0,0,0,0],"id":10,"left_children":[1,3,5,7,9,11,13,15,17,-1,-1,19,21,-1,-1,-1,-1,-1,-1,-1,-1,-1,-1],"loss_changes":[1.00073395E1,4.1412277E0,4.780983E0,3.9639359E0,3.3036852E-1,2.1508064E0,2.779045E-1,2.9844685E0,4.026108E0,0E0,0E0,6.432879E-2,6.279831E-1,0E0,0E0,0E0,0E0,0E0,0E0,0E0,0E0,0E0,0E0],"parents":[2147483647,0,0,1,1,2,2,3,3,4,4,5,5,6,6,7,7,8,8,11,11,12,12],"right_children":[2,4,6,8,10,12,14,16,18,-1,-1,20,22,-1,-1,-1,-1,-1,-1,-1,-1,-1,-1],"split_conditions":[-4.0931986E-3,1.7235897E-4,1.005183E-2,2.434045E-2,-2.3818683E-2,5.928036E-3,-1.6243984E-3,1.1645523E-2,-1.2314223E-2,3.0928442E-2,1.4640129E-2,1.4238622E-2,1.2260562E-2,2.9354094E-2,1.0973854E-1,5.138404E-2,2.0304577E-2,2.1401368E-2,7.0459485E-2,2.7651686E-2,5.625987E-3,7.400949E-2,3.0580098E-2],"split_indices":[1254,880,1262,924,964,881,2,116,1481,0,0,0,580,0,0,0,0,0,0,0,0,0,0],"split_type":[0,0,0,0,0,0,0,0,0,0,0,0,0,0,0,0,0,0,0,0,0,0,0],"sum_hessian":[1.31E2,9.4E1,3.7E1,7.5E1,1.9E1,2.4E1,1.3E1,3.5E1,4E1,1E1,9E0,5E0,1.9E1,1E0,1.2E1,1.9E1,1.6E1,6E0,3.4E1,4E0,1E0,1.6E1,3E0],"tree_param":{"num_deleted":"0","num_feature":"1536","num_nodes":"23","size_leaf_vector":"0"}},{"base_weights":[1.0818843E0,1.8421971E0,9.6866304E-1,5.048211E-1,1.9971921E0,1.5053253E0,8.064686E-1,2.1914123E-1,1.6033764E0,5.211163E-1,9.4294083E-1,8.54907E-1,1.710325E0,6.1830634E-1,2.040411E-1,1.3218542E0,7.6650035E-1],"categories":[],"categories_nodes":[],"categories_segments":[],"categories_sizes":[],"default_left":[1,1,1,0,0,1,1,0,1,1,1,0,0,0,0,0,0],"id":11,"left_children":[1,3,5,-1,-1,7,9,-1,11,13,15,-1,-1,-1,-1,-1,-1],"loss_changes":[9.5785675E0,2.308361E0,8.9701E0,0E0,0E0,2.9275436E0,3.091343E0,0E0,4.5897675E-1,8.5996914E-1,3.064991E0,0E0,0E0,0E0,0E0,0E0,0E0],"parents":[2147483647,0,0,1,1,2,2,5,5,6,6,8,8,9,9,10,10],"right_children":[2,4,6,-1,-1,8,10,-1,12,14,16,-1,-1,-1,-1,-1,-1],"split_conditions":[1.4424755E-2,1.6611241E-4,-9.372107E-4,2.5241056E-2,9.985961E-2,-1.26402285E-2,5.4390877E-3,1.0957061E-2,-8.88799E-3,4.4741137E-3,1.4689601E-2,4.2745348E-2,8.551625E-2,3.0915318E-2,1.0202055E-2,6.6092715E-2,3.832502E-2],"split_indices":[111,31,717,0,0,485,1049,0,1306,1532,1022,0,0,0,0,0,0],"split_type":[0,0,0,0,0,0,0,0,0,0,0,0,0,0,0,0,0],"sum_hessian":[1.31E2,1.5E1,1.16E2,2E0,1.3E1,2.5E1,9.1E1,2E0,2.3E1,3.1E1,6E1,4E0,1.9E1,2.3E1,8E0,1.7E1,4.3E1],"tree_param":{"num_deleted":"0","num_feature":"1536","num_nodes":"17","size_leaf_vector":"0"}},{"base_weights":[1.030895E0,1.5267656E0,8.82711E-1,3.968681E-1,1.6418742E0,1.9727833E0,7.83708E-1,9.612163E-1,1.7980107E0,5.034944E-1,9.0769476E-1,3.5156667E-1,8.5269105E-1,1.004452E0,3.8858292E-1],"categories":[],"categories_nodes":[],"categories_segments":[],"categories_sizes":[],"default_left":[1,1,1,0,1,0,1,0,0,1,1,0,0,0,0],"id":12,"left_children":[1,3,5,-1,7,-1,9,-1,-1,11,13,-1,-1,-1,-1],"loss_changes":[8.3517E0,3.120163E0,9.677635E0,0E0,1.0348892E0,0E0,2.9130287E0,0E0,0E0,1.3979073E0,2.9247208E0,0E0,0E0,0E0,0E0],"parents":[2147483647,0,0,1,1,2,2,4,4,6,6,9,9,10,10],"right_children":[2,4,6,-1,8,-1,10,-1,-1,12,14,-1,-1,-1,-1],"split_conditions":[-9.372107E-4,-2.3510681E-2,-3.36729E-2,1.9843405E-2,-2.1693848E-2,9.863917E-2,2.3869602E-2,4.8060816E-2,8.990054E-2,-1.0078235E-2,-1.0486275E-3,1.7578334E-2,4.2634554E-2,5.02226E-2,1.9429145E-2],"split_indices":[717,114,395,0,796,0,71,0,0,1282,1011,0,0,0,0],"split_type":[0,0,0,0,0,0,0,0,0,0,0,0,0,0,0],"sum_hessian":[1.31E2,2.8E1,1.03E2,3E0,2.5E1,7E0,9.6E1,6E0,1.9E1,3.1E1,6.5E1,2.3E1,8E0,5.4E1,1.1E1],"tree_param":{"num_deleted":"0","num_feature":"1536","num_nodes":"15","size_leaf_vector":"0"}},{"base_weights":[9.8227686E-1,1.6877409E0,8.774076E-1,4.679228E-1,1.8285775E0,6.359109E-1,1.0249137E0,4.2639527E-1,8.5461533E-1,1.5037385E0,8.463256E-1,7.15929E-1,2.8204447E-1,9.4795036E-1,1.9761999E-1,1.6754938E0,4.837214E-1,5.653792E-1,1.0870123E0],"categories":[],"categories_nodes":[],"categories_segments":[],"categories_sizes":[],"default_left":[1,1,1,0,0,1,1,1,1,1,1,0,0,0,0,0,0,0,0],"id":13,"left_children":[1,3,5,-1,-1,7,9,11,13,15,17,-1,-1,-1,-1,-1,-1,-1,-1],"loss_changes":[8.284721E0,1.8930893E0,3.5160522E0,0E0,0E0,1.7892323E0,4.7987366E0,8.847313E-1,1.1617203E0,2.34301E0,3.036911E0,0E0,0E0,0E0,0E0,0E0,0E0,0E0,0E0],"parents":[2147483647,0,0,1,1,2,2,5,5,6,6,7,7,8,8,9,9,10,10],"right_children":[2,4,6,-1,-1,8,10,12,14,16,18,-1,-1,-1,-1,-1,-1,-1,-1],"split_conditions":[1.4424755E-2,1.6611241E-4,-1.2151787E-2,2.339614E-2,9.1428876E-2,-1.2022885E-2,-7.451988E-4,-5.0880257E-3,2.7101958E-2,1.9200303E-2,-9.251089E-3,3.579645E-2,1.4102223E-2,4.739752E-2,9.881E-3,8.377469E-2,2.4186071E-2,2.8268961E-2,5.4350615E-2],"split_indices":[111,31,1276,0,0,167,1146,603,1371,1371,1426,0,0,0,0,0,0,0,0],"split_type":[0,0,0,0,0,0,0,0,0,0,0,0,0,0,0,0,0,0,0],"sum_hessian":[1.31E2,1.5E1,1.16E2,2E0,1.3E1,4.6E1,7E1,2.5E1,2.1E1,1.7E1,5.3E1,7E0,1.8E1,1.8E1,3E0,1.4E1,3E0,2.6E1,2.7E1],"tree_param":{"num_deleted":"0","num_feature":"1536","num_nodes":"19","size_leaf_vector":"0"}},{"base_weights":[9.362886E-1,1.400927E0,7.9772323E-1,1.906132E-1,1.4835202E0,1.2406275E0,6.0140216E-1,1.0493048E0,1.7164615E0,6.7613745E-1,1.5615615E0,4.8246497E-1,8.6059624E-1,1.8209924E0,6.5649766E-1,7.226728E-1,5.8856487E-2,1.8355639E0,9.553627E-1,7.200902E-1,3.7869975E-1,3.088558E-1,1.0481954E0],"categories":[],"categories_nodes":[],"categories_segments":[],"categories_sizes":[],"default_left":[1,1,1,0,1,1,1,0,1,1,1,1,1,0,0,0,0,0,0,0,0,0,0],"id":14,"left_children":[1,3,5,-1,7,9,11,-1,13,15,17,19,21,-1,-1,-1,-1,-1,-1,-1,-1,-1,-1],"loss_changes":[7.3809814E0,2.616169E0,8.296829E0,0E0,9.298706E-1,4.560253E0,1.8660526E0,0E0,5.7730484E-1,3.308959E-1,1.4022713E0,1.0341349E0,1.953392E0,0E0,0E0,0E0,0E0,0E0,0E0,0E0,0E0,0E0,0E0],"parents":[2147483647,0,0,1,1,2,2,4,4,5,5,6,6,8,8,9,9,10,10,11,11,12,12],"right_children":[2,4,6,-1,8,10,12,-1,14,16,18,20,22,-1,-1,-1,-1,-1,-1,-1,-1,-1,-1],"split_conditions":[-9.372107E-4,-1.2898685E-2,-8.057376E-3,9.53066E-3,-1.8685194E-2,-3.189644E-3,1.8052612E-2,5.246524E-2,9.241582E-3,2.2262119E-2,-1.50839295E-2,-2.5365457E-2,-2.117408E-2,9.104962E-2,3.2824885E-2,3.6133643E-2,2.9428245E-3,9.17782E-2,4.7768135E-2,3.600451E-2,1.8934987E-2,1.544279E-2,5.2409768E-2],"split_indices":[717,485,30,0,185,896,1436,0,49,69,1411,234,1480,0,0,0,0,0,0,0,0,0,0],"split_type":[0,0,0,0,0,0,0,0,0,0,0,0,0,0,0,0,0,0,0,0,0,0,0],"sum_hessian":[1.31E2,2.8E1,1.03E2,2E0,2.6E1,3E1,7.3E1,1.1E1,1.5E1,1.2E1,1.8E1,5.2E1,2.1E1,1.3E1,2E0,1.1E1,1E0,1.1E1,7E0,1.4E1,3.8E1,6E0,1.5E1],"tree_param":{"num_deleted":"0","num_feature":"1536","num_nodes":"23","size_leaf_vector":"0"}},{"base_weights":[8.9316577E-1,1.5408435E0,7.9696053E-1,5.9999573E-1,1.7118087E0,9.33098E-1,5.3164124E-1,3.1310287E-1,1.0117078E0,3.13933E-1,7.3440033E-1,1.5168238E-1,4.441869E-1,1.2340266E0,6.136656E-1,3.9239088E-1,1.275829E-1,3.5463518E-1,8.989518E-1],"categories":[],"categories_nodes":[],"categories_segments":[],"categories_sizes":[],"default_left":[1,1,1,0,0,1,1,1,1,1,1,0,0,0,0,0,0,0,0],"id":15,"left_children":[1,3,5,-1,-1,7,9,11,13,15,17,-1,-1,-1,-1,-1,-1,-1,-1],"loss_changes":[6.9969254E0,1.5465584E0,3.7299576E0,0E0,0E0,3.387291E0,1.6234255E0,1.4422113E-1,5.1716995E0,2.7159166E-1,9.9350834E-1,0E0,0E0,0E0,0E0,0E0,0E0,0E0,0E0],"parents":[2147483647,0,0,1,1,2,2,5,5,6,6,7,7,8,8,9,9,10,10],"right_children":[2,4,6,-1,-1,8,10,12,14,16,18,-1,-1,-1,-1,-1,-1,-1,-1],"split_conditions":[1.4424755E-2,-1.4667068E-2,2.4098357E-2,2.9999787E-2,8.559044E-2,-7.4964017E-3,-1.9953256E-2,-9.517502E-3,1.3808761E-2,1.2286169E-2,-1.963573E-2,7.5841187E-3,2.2209344E-2,6.1701328E-2,3.0683279E-2,1.9619545E-2,6.3791447E-3,1.773176E-2,4.494759E-2],"split_indices":[111,36,607,0,0,794,874,46,306,856,437,0,0,0,0,0,0,0,0],"split_type":[0,0,0,0,0,0,0,0,0,0,0,0,0,0,0,0,0,0,0],"sum_hessian":[1.31E2,1.5E1,1.16E2,3E0,1.2E1,7.5E1,4.1E1,9E0,6.6E1,2.1E1,2E1,5E0,4E0,4.1E1,2.5E1,1.4E1,7E0,7E0,1.3E1],"tree_param":{"num_deleted":"0","num_feature":"1536","num_nodes":"19","size_leaf_vector":"0"}},{"base_weights":[8.509805E-1,6.951683E-1,1.2181169E0,1.219712E0,5.6520736E-1,1.6239697E0,8.82823E-1,1.4453268E0,6.586993E-1,2.2578175E-1,6.424391E-1,1.7735217E0,7.3193324E-1,1.0015515E0,2.5508985E-1,7.3182005E-1,1.0998741E-1,3.051075E-1,8.020473E-2,7.458973E-1,3.4235483E-1,4.5897144E-1,1.0745996E0,3.3572733E-2,3.0207595E-1],"categories":[],"categories_nodes":[],"categories_segments":[],"categories_sizes":[],"default_left":[1,1,1,1,1,1,1,0,1,1,1,0,0,1,1,0,0,0,0,0,0,0,0,0,0],"id":16,"left_children":[1,3,5,7,9,11,13,-1,15,17,19,-1,-1,21,23,-1,-1,-1,-1,-1,-1,-1,-1,-1,-1],"loss_changes":[6.70417E0,5.7867813E0,3.737358E0,1.3262749E0,1.8996735E0,8.363991E-1,1.4587002E0,0E0,2.0036459E-1,1.6029698E-1,1.7005482E0,0E0,0E0,2.5984383E-1,4.189962E-2,0E0,0E0,0E0,0E0,0E0,0E0,0E0,0E0,0E0,0E0],"parents":[2147483647,0,0,1,1,2,2,3,3,4,4,5,5,6,6,8,8,9,9,10,10,13,13,14,14],"right_children":[2,4,6,8,10,12,14,-1,16,18,20,-1,-1,22,24,-1,-1,-1,-1,-1,-1,-1,-1,-1,-1],"split_conditions":[-4.0931986E-3,-8.952776E-4,-2.3527496E-2,1.0728577E-2,-3.1709E-3,-6.360175E-3,1.0423768E-2,7.226634E-2,4.4724263E-2,-3.3560214E-3,1.17898565E-2,8.867609E-2,3.6596663E-2,-2.5695607E-2,-9.309121E-4,3.6591005E-2,5.4993704E-3,1.5255376E-2,4.010237E-3,3.7294865E-2,1.7117742E-2,2.2948572E-2,5.372998E-2,1.6786366E-3,1.5103797E-2],"split_indices":[1254,717,364,1190,1190,39,361,0,5,284,1331,0,0,523,4,0,0,0,0,0,0,0,0,0,0],"split_type":[0,0,0,0,0,0,0,0,0,0,0,0,0,0,0,0,0,0,0,0,0,0,0,0,0],"sum_hessian":[1.31E2,9.4E1,3.7E1,1.7E1,7.7E1,1.5E1,2.2E1,1.1E1,6E0,1.5E1,6.2E1,1.2E1,3E0,1.8E1,4E0,5E0,1E0,9E0,6E0,4.5E1,1.7E1,3E0,1.5E1,1E0,3E0],"tree_param":{"num_deleted":"0","num_feature":"1536","num_nodes":"25","size_leaf_vector":"0"}},{"base_weights":[8.115131E-1,6.756898E-1,1.2148457E0,1.1084604E0,5.6189585E-1,8.238558E-1,1.7229189E0,1.2712427E0,6.245441E-1,6.5468633E-1,2.7907258E-1,9.540481E-1,2.4246944E-1,1.4017415E-1,6.819101E-1,5.096031E-1,9.067685E-1,6.2257665E-1,1.6815074E-1,1.1035163E0,6.042294E-1],"categories":[],"categories_nodes":[],"categories_segments":[],"categories_sizes":[],"default_left":[1,1,1,1,1,1,0,0,1,1,1,1,0,0,0,0,0,0,0,0,0],"id":17,"left_children":[1,3,5,7,9,11,-1,-1,13,15,17,19,-1,-1,-1,-1,-1,-1,-1,-1,-1],"loss_changes":[6.4103622E0,4.351074E0,4.9374084E0,7.815132E-1,1.969244E0,1.2825127E0,0E0,0E0,9.891868E-2,1.7688541E0,7.335596E-1,1.6981125E-1,0E0,0E0,0E0,0E0,0E0,0E0,0E0,0E0,0E0],"parents":[2147483647,0,0,1,1,2,2,3,3,4,4,5,5,8,8,9,9,10,10,11,11],"right_children":[2,4,6,8,10,12,-1,-1,14,16,18,20,-1,-1,-1,-1,-1,-1,-1,-1,-1],"split_conditions":[-1.4640313E-3,-1.3962184E-3,1.5230733E-3,2.8293017E-2,-9.980246E-3,-3.5475278E-3,8.6145945E-2,6.356214E-2,-3.1840313E-2,1.4150208E-2,1.9909613E-2,-1.955883E-3,1.2123472E-2,7.0087076E-3,3.4095507E-2,2.5480155E-2,4.5338426E-2,3.1128833E-2,8.407537E-3,5.517582E-2,3.021147E-2],"split_indices":[350,717,708,91,117,708,0,0,29,699,693,1,0,0,0,0,0,0,0,0,0],"split_type":[0,0,0,0,0,0,0,0,0,0,0,0,0,0,0,0,0,0,0,0,0],"sum_hessian":[1.31E2,1E2,3.1E1,1.9E1,8.1E1,1.9E1,1.2E1,1.3E1,6E0,6E1,2.1E1,1.5E1,4E0,1E0,5E0,4E1,2E1,4E0,1.7E1,9E0,6E0],"tree_param":{"num_deleted":"0","num_feature":"1536","num_nodes":"21","size_leaf_vector":"0"}},{"base_weights":[7.739577E-1,1.1727408E0,6.553167E-1,1.5856387E-1,1.2419924E0,1.3981061E0,5.702303E-1,1.3638574E0,6.989697E-1,4.3795374E-1,7.844771E-1,8.0476654E-1,1.4882753E0,3.6228704E-1,7.4895805E-1,1.0150156E0,5.3691757E-1],"categories":[],"categories_nodes":[],"categories_segments":[],"categories_sizes":[],"default_left":[1,1,1,0,1,0,1,1,0,1,1,0,0,0,0,0,0],"id":18,"left_children":[1,3,5,-1,7,-1,9,11,-1,13,15,-1,-1,-1,-1,-1,-1],"loss_changes":[5.476677E0,1.8398285E0,5.775692E0,0E0,8.334427E-1,0E0,2.3487206E0,2.6306534E-1,0E0,1.164155E0,1.4525394E0,0E0,0E0,0E0,0E0,0E0,0E0],"parents":[2147483647,0,0,1,1,2,2,4,4,6,6,7,7,9,9,10,10],"right_children":[2,4,6,-1,8,-1,10,12,-1,14,16,-1,-1,-1,-1,-1,-1],"split_conditions":[-9.372107E-4,-1.8399557E-2,8.420647E-3,7.928194E-3,-7.5870706E-3,6.99053E-2,-6.2654396E-3,-2.280667E-3,3.4948487E-2,5.949801E-3,5.2644707E-2,4.023833E-2,7.441377E-2,1.8114353E-2,3.7447903E-2,5.075078E-2,2.6845878E-2],"split_indices":[717,1102,1378,0,123,0,587,1513,0,142,228,0,0,0,0,0,0],"split_type":[0,0,0,0,0,0,0,0,0,0,0,0,0,0,0,0,0],"sum_hessian":[1.31E2,2.8E1,1.03E2,2E0,2.6E1,9E0,9.4E1,2E1,6E0,6E1,3.4E1,5E0,1.5E1,5E1,1E1,1.6E1,1.8E1],"tree_param":{"num_deleted":"0","num_feature":"1536","num_nodes":"17","size_leaf_vector":"0"}},{"base_weights":[7.3799163E-1,8.769726E-1,4.400985E-1,1.425545E0,7.5556517E-1,2.4333268E-1,5.799072E-1,3.4835112E-1,1.4776052E0,1.1525813E0,6.283645E-1,1.1029377E-1,3.9368093E-1,3.098483E-1,7.392899E-1,4.0319633E-1,1.284364E0,4.0413952E-1,8.178535E-1,1.5547302E-1,-7.706833E-2,4.3716735E-1,1.7464207E-1,7.67497E-1,1.721949E-1],"categories":[],"categories_nodes":[],"categories_segments":[],"categories_sizes":[],"default_left":[1,1,1,1,1,1,1,0,0,1,1,1,0,1,1,0,0,0,0,0,0,0,0,0,0],"id":19,"left_children":[1,3,5,7,9,11,13,-1,-1,15,17,19,-1,21,23,-1,-1,-1,-1,-1,-1,-1,-1,-1,-1],"loss_changes":[5.079033E0,4.85038E0,1.0693111E0,3.2645988E-1,3.0633125E0,3.5662282E-1,8.470001E-1,0E0,0E0,1.1609993E0,2.1762772E0,1.1356062E-1,0E0,1.1300981E-1,1.0778332E-1,0E0,0E0,0E0,0E0,0E0,0E0,0E0,0E0,0E0,0E0],"parents":[2147483647,0,0,1,1,2,2,3,3,4,4,5,5,6,6,9,9,10,10,11,11,13,13,14,14],"right_children":[2,4,6,8,10,12,14,-1,-1,16,18,20,-1,22,24,-1,-1,-1,-1,-1,-1,-1,-1,-1,-1],"split_conditions":[2.4098357E-2,-2.2498656E-2,3.0590888E-4,1.5757235E-2,-2.0112943E-2,9.880381E-3,1.9337931E-3,1.7417556E-2,7.388026E-2,-1.8033074E-2,-1.2406802E-2,7.702707E-5,1.9684047E-2,2.3189215E-2,2.2311121E-2,2.0159816E-2,6.42182E-2,2.0206977E-2,4.0892676E-2,7.7736513E-3,-3.8534165E-3,2.1858368E-2,8.732104E-3,3.8374852E-2,8.609745E-3],"split_indices":[607,1305,1062,16,734,513,1163,0,0,1209,1326,39,0,203,7,0,0,0,0,0,0,0,0,0,0],"split_type":[0,0,0,0,0,0,0,0,0,0,0,0,0,0,0,0,0,0,0,0,0,0,0,0,0],"sum_hessian":[1.31E2,8.8E1,4.3E1,1.4E1,7.4E1,1.9E1,2.4E1,1E0,1.3E1,1.6E1,5.8E1,1.1E1,8E0,1E1,1.4E1,3E0,1.3E1,2.8E1,3E1,9E0,2E0,4E0,6E0,1.3E1,1E0],"tree_param":{"num_deleted":"0","num_feature":"1536","num_nodes":"25","size_leaf_vector":"0"}},{"base_weights":[7.036523E-1,1.0546894E0,5.90066E-1,5.0162214E-1,1.2941681E0,1.381618E0,5.2620214E-1,5.8092767E-1,9.649813E-2,1.4188292E0,6.114866E-1,6.192086E-1,3.0094773E-1,-7.409513E-3,1.5215671E-1,1.4295961E-1,7.0025295E-1,6.1275524E-1,2.14076E-1],"categories":[],"categories_nodes":[],"categories_segments":[],"categories_sizes":[],"default_left":[1,1,1,1,1,0,1,0,1,0,0,1,1,0,0,0,0,0,0],"id":20,"left_children":[1,3,5,7,9,-1,11,-1,13,-1,-1,15,17,-1,-1,-1,-1,-1,-1],"loss_changes":[4.6408997E0,3.4566956E0,4.429249E0,2.9735613E-1,9.195862E-1,0E0,1.8248634E0,0E0,1.8477462E-2,0E0,0E0,2.4859104E0,6.8144155E-1,0E0,0E0,0E0,0E0,0E0,0E0],"parents":[2147483647,0,0,1,1,2,2,3,3,4,4,6,6,8,8,11,11,12,12],"right_children":[2,4,6,8,10,-1,12,-1,14,-1,-1,16,18,-1,-1,-1,-1,-1,-1],"split_conditions":[-2.141622E-2,2.094047E-2,-2.4735559E-2,1.0549046E-2,8.473635E-3,6.9080904E-2,-5.2563744E-3,2.9046385E-2,-2.0674568E-2,7.094146E-2,3.0574331E-2,-3.0750271E-2,-1.952276E-2,-3.7047567E-4,7.607836E-3,7.1479804E-3,3.5012648E-2,3.0637762E-2,1.07038E-2],"split_indices":[1465,135,1011,190,455,0,574,0,3,0,0,1391,279,0,0,0,0,0,0],"split_type":[0,0,0,0,0,0,0,0,0,0,0,0,0,0,0,0,0,0,0],"sum_hessian":[1.31E2,3E1,1.01E2,1E1,2E1,6E0,9.5E1,8E0,2E0,1.6E1,4E0,6.6E1,2.9E1,1E0,1E0,1E1,5.6E1,5E0,2.4E1],"tree_param":{"num_deleted":"0","num_feature":"1536","num_nodes":"19","size_leaf_vector":"0"}},{"base_weights":[6.7066956E-1,1.0288715E0,5.643376E-1,2.3657009E-1,1.1111921E0,9.122048E-1,4.1098326E-1,6.6727465E-1,1.2396208E0,1.1740539E0,4.593327E-1,8.5778236E-1,3.5150003E-1,1.3744549E0,7.184048E-1,7.37115E-1,1.3675086E0,5.616257E-1,1.833388E-1,1.7895281E-1,9.291933E-1,1.1593366E-1,4.1722238E-1],"categories":[],"categories_nodes":[],"categories_segments":[],"categories_sizes":[],"default_left":[1,1,1,0,1,1,1,0,1,1,1,1,1,0,0,0,0,0,0,0,0,0,0],"id":21,"left_children":[1,3,5,-1,7,9,11,-1,13,15,17,19,21,-1,-1,-1,-1,-1,-1,-1,-1,-1,-1],"loss_changes":[4.447029E0,1.628582E0,5.1731834E0,0E0,6.551361E-1,3.1368275E0,1.6651917E0,0E0,3.4786224E-1,5.9801674E-1,2.6405144E-1,2.2152519E-1,9.8892117E-1,0E0,0E0,0E0,0E0,0E0,0E0,0E0,0E0,0E0,0E0],"parents":[2147483647,0,0,1,1,2,2,4,4,5,5,6,6,8,8,9,9,10,10,11,11,12,12],"right_children":[2,4,6,-1,8,10,12,-1,14,16,18,20,22,-1,-1,-1,-1,-1,-1,-1,-1,-1,-1],"split_conditions":[-9.372107E-4,-1.565032E-2,-8.057376E-3,1.18285045E-2,-3.1604744E-2,-6.1150496E-3,-3.418474E-2,3.3363733E-2,-2.1836333E-2,1.437064E-2,-1.33878235E-2,8.569844E-3,-1.585159E-2,6.872275E-2,3.5920244E-2,3.6855754E-2,6.837543E-2,2.8081287E-2,9.16694E-3,8.947641E-3,4.6459667E-2,5.796683E-3,2.0861119E-2],"split_indices":[717,56,30,0,1075,1424,1329,0,249,594,614,11,548,0,0,0,0,0,0,0,0,0,0],"split_type":[0,0,0,0,0,0,0,0,0,0,0,0,0,0,0,0,0,0,0,0,0,0,0],"sum_hessian":[1.31E2,2.8E1,1.03E2,3E0,2.5E1,3E1,7.3E1,7E0,1.8E1,1.8E1,1.2E1,7E0,6.6E1,1.3E1,5E0,7E0,1.1E1,8E0,4E0,1E0,6E0,1.5E1,5.1E1],"tree_param":{"num_deleted":"0","num_feature":"1536","num_nodes":"23","size_leaf_vector":"0"}},{"base_weights":[6.399723E-1,7.910537E-1,4.1407555E-1,6.61282E-1,1.252589E0,6.4874476E-1,2.8237852E-1,3.367316E-1,7.556887E-1,1.4508226E0,6.803959E-1,8.415117E-1,2.785012E-1,1.2554848E-1,4.5949927E-1,1.3945337E-1,4.4115323E-1,5.6138784E-1,9.996406E-1,9.562214E-3,3.6655384E-1,-3.0998617E-2,2.0603622E-1,2.1747458E-1,6.5046847E-1],"categories":[],"categories_nodes":[],"categories_segments":[],"categories_sizes":[],"default_left":[1,1,1,1,1,1,1,1,1,0,0,0,1,1,1,0,0,0,0,0,0,0,0,0,0],"id":22,"left_children":[1,3,5,7,9,11,13,15,17,-1,-1,-1,19,21,23,-1,-1,-1,-1,-1,-1,-1,-1,-1,-1],"loss_changes":[4.1774445E0,3.8434372E0,1.5165958E0,1.6758385E0,8.27713E-1,1.1216822E0,9.700911E-1,2.6808167E-1,1.7140179E0,0E0,0E0,0E0,1.8594116E-1,2.7098942E-1,6.442671E-1,0E0,0E0,0E0,0E0,0E0,0E0,0E0,0E0,0E0,0E0],"parents":[2147483647,0,0,1,1,2,2,3,3,4,4,5,5,6,6,7,7,8,8,12,12,13,13,14,14],"right_children":[2,4,6,8,10,12,14,16,18,-1,-1,-1,20,22,24,-1,-1,-1,-1,-1,-1,-1,-1,-1,-1],"split_conditions":[-3.8415978E-3,2.230661E-2,-2.0825282E-2,2.424274E-2,-2.2772431E-2,-9.428724E-3,2.1112971E-2,1.4503566E-2,6.6163614E-3,7.254113E-2,3.4019794E-2,4.2075586E-2,4.765735E-3,5.0085345E-3,1.6467886E-2,6.972668E-3,2.2057662E-2,2.8069392E-2,4.998203E-2,4.781107E-4,1.8327693E-2,-1.5499309E-3,1.0301812E-2,1.0873729E-2,3.2523423E-2],"split_indices":[941,340,107,706,702,370,1510,655,12,0,0,0,15,94,245,0,0,0,0,0,0,0,0,0,0],"split_type":[0,0,0,0,0,0,0,0,0,0,0,0,0,0,0,0,0,0,0,0,0,0,0,0,0],"sum_hessian":[1.31E2,7.7E1,5.4E1,6.2E1,1.5E1,1.8E1,3.6E1,1.5E1,4.7E1,1E1,5E0,1.1E1,7E0,2E1,1.6E1,6E0,9E0,2.8E1,1.9E1,2E0,5E0,7E0,1.3E1,8E0,8E0],"tree_param":{"num_deleted":"0","num_feature":"1536","num_nodes":"25","size_leaf_vector":"0"}},{"base_weights":[6.104485E-1,9.4420904E-1,5.115109E-1,1.0193812E0,2.1953797E-1,1.1993446E0,4.3372306E-1,6.737226E-1,1.2279493E0,2.4973886E-1,6.446767E-2,4.946072E-1,1.8067715E-1,3.6001706E-1,1.2642289E0,2.3327446E-1,5.776256E-1,5.6665048E-2,2.9902273E-1],"categories":[],"categories_nodes":[],"categories_segments":[],"categories_sizes":[],"default_left":[1,1,1,1,1,0,1,0,1,0,0,1,1,0,0,0,0,0,0],"id":23,"left_children":[1,3,5,7,9,-1,11,-1,13,-1,-1,15,17,-1,-1,-1,-1,-1,-1],"loss_changes":[3.8758583E0,1.3559837E0,5.044348E0,1.0471306E0,2.6329458E-3,0E0,1.3742542E0,0E0,1.7177582E-2,0E0,0E0,1.5141048E0,2.765816E-1,0E0,0E0,0E0,0E0,0E0,0E0],"parents":[2147483647,0,0,1,1,2,2,3,3,4,4,6,6,8,8,11,11,12,12],"right_children":[2,4,6,8,10,-1,12,-1,14,-1,-1,16,18,-1,-1,-1,-1,-1,-1],"split_conditions":[-9.372107E-4,4.4362443E-3,-1.9512512E-2,-1.8685194E-2,1.09493425E-2,5.996723E-2,2.011382E-3,3.368613E-2,-3.3558287E-2,1.2486943E-2,3.2233836E-3,9.927601E-3,2.468222E-2,1.8000854E-2,6.321145E-2,1.1663723E-2,2.888128E-2,2.8332525E-3,1.4951137E-2],"split_indices":[717,1047,941,185,0,0,357,0,9,0,0,543,453,0,0,0,0,0,0],"split_type":[0,0,0,0,0,0,0,0,0,0,0,0,0,0,0,0,0,0,0],"sum_hessian":[1.31E2,2.8E1,1.03E2,2.5E1,3E0,9E0,9.4E1,1.1E1,1.4E1,2E0,1E0,7.5E1,1.9E1,1E0,1.3E1,1.9E1,5.6E1,1E1,9E0],"tree_param":{"num_deleted":"0","num_feature":"1536","num_nodes":"19","size_leaf_vector":"0"}},{"base_weights":[5.8181167E-1,4.9295944E-1,9.2509544E-1,3.535185E-1,6.448518E-1,1.1533561E0,3.657859E-1,4.299085E-1,5.6021594E-2,7.162385E-1,1.04013525E-1,1.3168241E0,7.0836E-1,1.49438E-1,5.089766E-1,2.13437E-1,5.494457E-1,-2.636187E-2,1.9310752E-1,3.435047E-1,8.300739E-1,1.2640893E-1,-1.5179455E-2],"categories":[],"categories_nodes":[],"categories_segments":[],"categories_sizes":[],"default_left":[1,1,1,1,1,1,1,1,1,1,1,0,0,0,0,0,0,0,0,0,0,0,0],"id":24,"left_children":[1,3,5,7,9,11,13,15,17,19,21,-1,-1,-1,-1,-1,-1,-1,-1,-1,-1,-1,-1],"loss_changes":[3.5701675E0,2.0382957E0,2.8974934E0,1.2940111E0,1.8559322E0,3.765812E-1,2.0275068E-1,1.0730429E0,1.5190765E-1,1.5817986E0,2.0604454E-2,0E0,0E0,0E0,0E0,0E0,0E0,0E0,0E0,0E0,0E0,0E0,0E0],"parents":[2147483647,0,0,1,1,2,2,3,3,4,4,5,5,6,6,7,7,8,8,9,9,10,10],"right_children":[2,4,6,8,10,12,14,16,18,20,22,-1,-1,-1,-1,-1,-1,-1,-1,-1,-1,-1,-1],"split_conditions":[1.7565008E-2,2.1472223E-2,-1.573744E-2,-1.5680157E-2,3.8607284E-2,1.3460824E-3,-1.0380672E-2,1.6272169E-2,2.867581E-2,-1.12279225E-2,-2.5795974E-2,6.5841205E-2,3.5418E-2,7.4719E-3,2.5448829E-2,1.067185E-2,2.7472286E-2,-1.3180935E-3,9.655376E-3,1.7175235E-2,4.1503694E-2,6.3204467E-3,-7.589728E-4],"split_indices":[752,1293,1322,614,667,527,76,521,916,65,3,0,0,0,0,0,0,0,0,0,0,0,0],"split_type":[0,0,0,0,0,0,0,0,0,0,0,0,0,0,0,0,0,0,0,0,0,0,0],"sum_hessian":[1.31E2,1.06E2,2.5E1,5.7E1,4.9E1,1.7E1,8E0,4.5E1,1.2E1,4.3E1,6E0,1.1E1,6E0,4E0,4E0,1.7E1,2.8E1,8E0,4E0,1.1E1,3.2E1,5E0,1E0],"tree_param":{"num_deleted":"0","num_feature":"1536","num_nodes":"23","size_leaf_vector":"0"}},{"base_weights":[5.5457646E-1,8.667584E-1,4.6219322E-1,5.717157E-1,1.1420387E0,1.0899539E0,3.9124796E-1,9.7147785E-2,6.32572E-1,6.4000523E-1,1.2788516E0,6.611644E-1,3.2394356E-1,3.1781387E-1,9.040634E-1,4.0860516E-1,1.6680482E-1],"categories":[],"categories_nodes":[],"categories_segments":[],"categories_sizes":[],"default_left":[1,1,1,1,1,0,1,0,0,0,0,1,1,0,0,0,0],"id":25,"left_children":[1,3,5,7,9,-1,11,-1,-1,-1,-1,13,15,-1,-1,-1,-1],"loss_changes":[3.4063148E0,1.7024441E0,4.20537E0,4.006343E-1,1.4311409E-1,0E0,1.5116425E0,0E0,0E0,0E0,0E0,1.2138672E0,9.6952534E-1,0E0,0E0,0E0,0E0],"parents":[2147483647,0,0,1,1,2,2,3,3,4,4,6,6,11,11,12,12],"right_children":[2,4,6,8,10,-1,12,-1,-1,-1,-1,14,16,-1,-1,-1,-1],"split_conditions":[-9.372107E-4,-9.367196E-3,-1.9512512E-2,8.400475E-3,3.6008872E-2,5.4497696E-2,-9.4991205E-3,4.8573893E-3,3.16286E-2,3.2000262E-2,6.394258E-2,8.368524E-3,2.666419E-2,1.5890693E-2,4.520317E-2,2.0430258E-2,8.340241E-3],"split_indices":[717,286,941,120,5,0,1424,0,0,0,0,181,687,0,0,0,0],"split_type":[0,0,0,0,0,0,0,0,0,0,0,0,0,0,0,0,0],"sum_hessian":[1.31E2,2.8E1,1.03E2,1.5E1,1.3E1,9E0,9.4E1,2E0,1.3E1,4E0,9E0,1.7E1,7.7E1,8E0,9E0,4.9E1,2.8E1],"tree_param":{"num_deleted":"0","num_feature":"1536","num_nodes":"17","size_leaf_vector":"0"}},{"base_weights":[5.289445E-1,8.2798696E-1,4.4047168E-1,5.0851417E-1,9.9496955E-1,1.040906E0,3.7263152E-1,5.820441E-1,9.39095E-2,1.2359078E0,7.292899E-1,6.0385895E-1,2.9038027E-1,3.9023975E-1,8.6390185E-1,3.5940042E-1,1.37365E-1],"categories":[],"categories_nodes":[],"categories_segments":[],"categories_sizes":[],"default_left":[1,1,1,1,1,0,1,0,0,0,0,1,1,0,0,0,0],"id":26,"left_children":[1,3,5,7,9,-1,11,-1,-1,-1,-1,13,15,-1,-1,-1,-1],"loss_changes":[3.127636E0,1.0410881E0,3.8484154E0,3.111713E-1,2.5088882E-1,0E0,1.6314306E0,0E0,0E0,0E0,0E0,9.960747E-1,7.1103287E-1,0E0,0E0,0E0,0E0],"parents":[2147483647,0,0,1,1,2,2,3,3,4,4,6,6,11,11,12,12],"right_children":[2,4,6,8,10,-1,12,-1,-1,-1,-1,14,16,-1,-1,-1,-1],"split_conditions":[-9.372107E-4,1.33987535E-2,-1.9512512E-2,9.536702E-3,-1.110986E-2,5.2045297E-2,-8.057376E-3,2.9102206E-2,4.695475E-3,6.179539E-2,3.6464494E-2,1.6035102E-2,-1.1377993E-2,1.9511988E-2,4.3195095E-2,1.7970022E-2,6.86825E-3],"split_indices":[717,1124,941,132,1002,0,30,0,0,0,0,1192,117,0,0,0,0],"split_type":[0,0,0,0,0,0,0,0,0,0,0,0,0,0,0,0,0],"sum_hessian":[1.31E2,2.8E1,1.03E2,1.1E1,1.7E1,9E0,9.4E1,9E0,2E0,7E0,1E1,2.3E1,7.1E1,1.4E1,9E0,4.8E1,2.3E1],"tree_param":{"num_deleted":"0","num_feature":"1536","num_nodes":"17","size_leaf_vector":"0"}},{"base_weights":[5.045552E-1,4.0018103E-1,7.52213E-1,1.5622744E-1,4.7594082E-1,9.5363885E-1,4.1565E-1,2.127961E-1,-1.0129273E-1,3.288795E-1,6.5983224E-1,4.37282E-1,1.0393307E0,5.327276E-1,1.8901776E-1,1.414357E-1,3.557311E-1,-1.2767214E-1,2.1124482E-3,1.9180578E-1,5.3963643E-1,7.946228E-1,2.9730988E-1,1.5821338E-1,5.56761E-1,2.2474736E-1,-1.26799345E-2],"categories":[],"categories_nodes":[],"categories_segments":[],"categories_sizes":[],"default_left":[1,1,1,1,1,1,1,1,1,1,1,0,0,1,1,0,0,0,0,0,0,0,0,0,0,0,0],"id":27,"left_children":[1,3,5,7,9,11,13,15,17,19,21,-1,-1,23,25,-1,-1,-1,-1,-1,-1,-1,-1,-1,-1,-1,-1],"loss_changes":[3.1110573E0,1.6814213E0,2.1797333E0,3.7117642E-1,1.730114E0,5.6321526E-1,3.238418E-1,1.5368491E-1,1.3908535E-2,1.1098423E0,1.278553E0,0E0,0E0,1.9216537E-3,5.329582E-2,0E0,0E0,0E0,0E0,0E0,0E0,0E0,0E0,0E0,0E0,0E0,0E0],"parents":[2147483647,0,0,1,1,2,2,3,3,4,4,5,5,6,6,7,7,8,8,9,9,10,10,13,13,14,14],"right_children":[2,4,6,8,10,12,14,16,18,20,22,-1,-1,24,26,-1,-1,-1,-1,-1,-1,-1,-1,-1,-1,-1,-1],"split_conditions":[-4.0931986E-3,-3.1253293E-2,2.619735E-2,-9.373949E-3,3.0123563E-2,-1.7166033E-2,-6.7397645E-3,-3.853325E-3,1.3628704E-2,2.5535896E-3,-3.2657973E-2,2.18641E-2,5.1966537E-2,-7.1703508E-3,1.4238622E-2,7.071785E-3,1.7786555E-2,-6.3836067E-3,1.05622414E-4,9.59029E-3,2.6981821E-2,3.973114E-2,1.4865494E-2,7.910669E-3,2.7838051E-2,1.1237368E-2,-6.3399674E-4],"split_indices":[1254,342,1165,1068,71,210,482,143,0,1317,866,0,0,7,0,0,0,0,0,0,0,0,0,0,0,0,0],"split_type":[0,0,0,0,0,0,0,0,0,0,0,0,0,0,0,0,0,0,0,0,0,0,0,0,0,0,0],"sum_hessian":[1.31E2,9.4E1,3.7E1,2.3E1,7.1E1,2.2E1,1.5E1,1.9E1,4E0,4.1E1,3E1,4E0,1.8E1,9E0,6E0,1.4E1,5E0,3E0,1E0,2.6E1,1.5E1,2.1E1,9E0,1E0,8E0,5E0,1E0],"tree_param":{"num_deleted":"0","num_feature":"1536","num_nodes":"27","size_leaf_vector":"0"}},{"base_weights":[4.8106942E-1,8.748955E-1,4.2310116E-1,2.244515E-1,9.5178384E-1,7.3414E-1,3.6655897E-1,2.1980798E-1,7.880637E-1,3.2824874E-1,9.184294E-1,4.5354706E-1,2.1350503E-1,1.004943E0,2.4293047E-1],"categories":[],"categories_nodes":[],"categories_segments":[],"categories_sizes":[],"default_left":[1,1,1,0,0,1,1,0,0,1,1,0,0,0,0],"id":28,"left_children":[1,3,5,-1,-1,7,9,-1,-1,11,13,-1,-1,-1,-1],"loss_changes":[2.6433125E0,5.865555E-1,1.7885513E0,0E0,0E0,2.982664E-1,1.8338966E0,0E0,0E0,1.2833757E0,1.06508255E-1,0E0,0E0,0E0,0E0],"parents":[2147483647,0,0,1,1,2,2,5,5,6,6,9,9,10,10],"right_children":[2,4,6,-1,-1,8,10,-1,-1,12,14,-1,-1,-1,-1],"split_conditions":[1.4424755E-2,-1.7994449E-2,-3.39481E-2,1.1222575E-2,4.7589194E-2,-1.1576437E-2,3.0258417E-2,1.0990399E-2,3.9403185E-2,-6.849702E-3,3.1496868E-2,2.2677353E-2,1.06752515E-2,5.024715E-2,1.2146524E-2],"split_indices":[111,62,1329,0,0,446,968,0,0,1243,2,0,0,0,0],"split_type":[0,0,0,0,0,0,0,0,0,0,0,0,0,0,0],"sum_hessian":[1.31E2,1.5E1,1.16E2,2E0,1.3E1,1.6E1,1E2,2E0,1.4E1,9.5E1,5E0,4.4E1,5.1E1,4E0,1E0],"tree_param":{"num_deleted":"0","num_feature":"1536","num_nodes":"15","size_leaf_vector":"0"}},{"base_weights":[4.585686E-1,5.566114E-1,2.4983267E-1,7.981277E-1,3.9279905E-1,1.1338162E-1,3.8113E-1,3.8891104E-1,9.947229E-1,4.8894906E-1,1.6799359E-1,1.9950831E-1,1.7806461E-2,4.942696E-2,4.5209587E-1,-1.5482068E-2,4.2390063E-1,1.5575731E-1,1.0257778E0,1.4089127E-1,5.770681E-1,4.7727793E-2,3.5016444E-1,8.6045876E-2,2.9862976E-1,-8.74604E-2,4.7605872E-2,1.12080365E-1,-1.0059333E-1,1.7926648E-1,4.9471065E-1],"categories":[],"categories_nodes":[],"categories_segments":[],"categories_sizes":[],"default_left":[1,1,1,1,1,1,1,1,1,1,1,1,1,1,1,0,0,0,0,0,0,0,0,0,0,0,0,0,0,0,0],"id":29,"left_children":[1,3,5,7,9,11,13,15,17,19,21,23,25,27,29,-1,-1,-1,-1,-1,-1,-1,-1,-1,-1,-1,-1,-1,-1,-1,-1],"loss_changes":[2.5623283E0,3.2076378E0,7.450762E-1,2.4288921E0,1.1066866E0,1.8577358E-1,4.9552536E-1,1.9050705E-1,4.394703E-1,1.0841761E0,3.77648E-1,1.0926288E-1,4.1806318E-2,5.8270946E-2,1.2059307E-1,0E0,0E0,0E0,0E0,0E0,0E0,0E0,0E0,0E0,0E0,0E0,0E0,0E0,0E0,0E0,0E0],"parents":[2147483647,0,0,1,1,2,2,3,3,4,4,5,5,6,6,7,7,8,8,9,9,10,10,11,11,12,12,13,13,14,14],"right_children":[2,4,6,8,10,12,14,16,18,20,22,24,26,28,30,-1,-1,-1,-1,-1,-1,-1,-1,-1,-1,-1,-1,-1,-1,-1,-1],"split_conditions":[2.4098357E-2,-6.567863E-3,-1.9953256E-2,2.934698E-2,1.0845205E-2,-2.3904847E-2,-1.9636514E-2,-5.7515996E-3,-3.0832242E-2,-6.675912E-3,-1.1389646E-2,-3.2161525E-4,-1.3646698E-2,9.741677E-3,-2.440313E-2,-7.741034E-4,2.1195032E-2,7.7878656E-3,5.128889E-2,7.0445635E-3,2.8853405E-2,2.3863898E-3,1.7508222E-2,4.302294E-3,1.4931488E-2,-4.37302E-3,2.3802936E-3,5.6040185E-3,-5.0296667E-3,8.963324E-3,2.4735533E-2],"split_indices":[607,1185,874,869,1508,709,1325,17,76,446,143,96,36,0,857,0,0,0,0,0,0,0,0,0,0,0,0,0,0,0,0],"split_type":[0,0,0,0,0,0,0,0,0,0,0,0,0,0,0,0,0,0,0,0,0,0,0,0,0,0,0,0,0,0,0],"sum_hessian":[1.31E2,8.8E1,4.3E1,3.4E1,5.4E1,2.2E1,2.1E1,1.2E1,2.2E1,3.7E1,1.7E1,1.1E1,1.1E1,4E0,1.7E1,1E0,1.1E1,1E0,2.1E1,8E0,2.9E1,1.1E1,6E0,6E0,5E0,2E0,9E0,3E0,1E0,3E0,1.4E1],"tree_param":{"num_deleted":"0","num_feature":"1536","num_nodes":"31","size_leaf_vector":"0"}},{"base_weights":[4.3705538E-1,3.5166064E-1,6.9292456E-1,6.118588E-1,2.8390914E-1,4.3423423E-1,9.57158E-1,7.11975E-1,3.2421798E-1,5.2635264E-1,2.2177473E-1,5.2447474E-1,9.471395E-2,9.9790376E-1,1.933586E-1,3.5756567E-1,6.206584E-2,3.0041143E-1,8.5285276E-1,4.3460575E-1,1.6248937E-1,6.153004E-1,3.4574896E-1],"categories":[],"categories_nodes":[],"categories_segments":[],"categories_sizes":[],"default_left":[1,1,1,1,1,1,1,0,1,1,1,1,0,0,0,0,0,0,0,0,0,0,0],"id":30,"left_children":[1,3,5,7,9,11,13,-1,15,17,19,21,-1,-1,-1,-1,-1,-1,-1,-1,-1,-1,-1],"loss_changes":[2.6405087E0,1.6067982E0,1.771719E0,3.4511566E-1,1.1185231E0,5.018177E-1,2.738695E-1,0E0,3.9002597E-2,9.241104E-1,7.7477074E-1,1.4520884E-2,0E0,0E0,0E0,0E0,0E0,0E0,0E0,0E0,0E0,0E0,0E0],"parents":[2147483647,0,0,1,1,2,2,3,3,4,4,5,5,6,6,8,8,9,9,10,10,11,11],"right_children":[2,4,6,8,10,12,14,-1,16,18,20,22,-1,-1,-1,-1,-1,-1,-1,-1,-1,-1,-1],"split_conditions":[-1.4640313E-3,-1.3962184E-3,-6.9648623E-3,2.8293017E-2,-9.4991205E-3,1.00591965E-2,3.0852281E-3,3.559875E-2,-2.5740918E-2,-2.6166018E-2,-1.9355617E-2,-5.143095E-3,4.7356975E-3,4.989519E-2,9.66793E-3,1.7878285E-2,3.103292E-3,1.5020572E-2,4.2642638E-2,2.1730287E-2,8.124469E-3,3.0765021E-2,1.7287448E-2],"split_indices":[350,717,865,91,1424,1269,1,0,3,583,1180,764,0,0,0,0,0,0,0,0,0,0,0],"split_type":[0,0,0,0,0,0,0,0,0,0,0,0,0,0,0,0,0,0,0,0,0,0,0],"sum_hessian":[1.31E2,1E2,3.1E1,1.9E1,8.1E1,1.7E1,1.4E1,1.3E1,6E0,1.5E1,6.6E1,1.3E1,4E0,1.3E1,1E0,5E0,1E0,1E1,5E0,1.3E1,5.3E1,7E0,6E0],"tree_param":{"num_deleted":"0","num_feature":"1536","num_nodes":"23","size_leaf_vector":"0"}},{"base_weights":[4.171454E-1,3.3550432E-1,6.6178924E-1,5.840948E-1,2.7078098E-1,3.219125E-1,8.496197E-1,3.0954483E-1,6.796488E-1,2.1490951E-1,5.26806E-1,9.092538E-2,4.144706E-1,5.151632E-1,1.0296605E0,3.4096423E-1,6.051421E-2,1.2834302E-1,3.7187403E-1,6.4457136E-1,1.8591395E-1],"categories":[],"categories_nodes":[],"categories_segments":[],"categories_sizes":[],"default_left":[1,1,1,1,1,1,1,1,0,1,1,0,0,0,0,0,0,0,0,0,0],"id":31,"left_children":[1,3,5,7,9,11,13,15,-1,17,19,-1,-1,-1,-1,-1,-1,-1,-1,-1,-1],"loss_changes":[2.4144E0,1.4668894E0,1.769351E0,3.1430483E-1,1.059753E0,2.4025059E-1,6.73872E-1,3.4137547E-2,0E0,8.898356E-1,4.4219923E-1,0E0,0E0,0E0,0E0,0E0,0E0,0E0,0E0,0E0,0E0],"parents":[2147483647,0,0,1,1,2,2,3,3,4,4,5,5,6,6,7,7,9,9,10,10],"right_children":[2,4,6,8,10,12,14,16,-1,18,20,-1,-1,-1,-1,-1,-1,-1,-1,-1,-1],"split_conditions":[-1.4640313E-3,-1.3962184E-3,-2.8492432E-2,-2.5529673E-3,2.4119964E-2,-4.0296923E-2,3.6675893E-2,-2.5740918E-2,3.398244E-2,-2.3335006E-2,8.297059E-3,4.5462693E-3,2.0723531E-2,2.575816E-2,5.1483024E-2,1.7048212E-2,3.0257106E-3,6.417151E-3,1.8593702E-2,3.222857E-2,9.295697E-3],"split_indices":[350,717,620,299,1373,3,1017,3,0,501,200,0,0,0,0,0,0,0,0,0,0],"split_type":[0,0,0,0,0,0,0,0,0,0,0,0,0,0,0,0,0,0,0,0,0],"sum_hessian":[1.31E2,1E2,3.1E1,1.9E1,8.1E1,1.2E1,1.9E1,6E0,1.3E1,6.8E1,1.3E1,4E0,8E0,8E0,1.1E1,5E0,1E0,4.5E1,2.3E1,9E0,4E0],"tree_param":{"num_deleted":"0","num_feature":"1536","num_nodes":"21","size_leaf_vector":"0"}},{"base_weights":[3.979783E-1,3.120827E-1,5.948041E-1,1.8737982E-1,4.276859E-1,7.292148E-1,1.8637568E-1,1.3125733E-1,3.5912097E-1,4.943092E-1,8.4061705E-2,3.8654274E-1,8.413497E-1,2.8393465E-1,-5.5336148E-2,3.240226E-1,7.547801E-2,8.7870754E-2,4.0963537E-1,1.7386949E-1,5.817314E-1,1.4308183E-1,-2.5483906E-2,4.104022E-1,9.7833455E-2,2.3736095E-1,8.9243484E-1,2.9515564E-2,-9.345857E-2],"categories":[],"categories_nodes":[],"categories_segments":[],"categories_sizes":[],"default_left":[1,1,1,1,1,1,1,1,1,1,1,1,1,0,1,0,0,0,0,0,0,0,0,0,0,0,0,0,0],"id":32,"left_children":[1,3,5,7,9,11,13,15,17,19,21,23,25,-1,27,-1,-1,-1,-1,-1,-1,-1,-1,-1,-1,-1,-1,-1,-1],"loss_changes":[2.0460262E0,1.2749691E0,2.0050812E0,4.0587437E-1,1.0573301E0,7.891216E-1,2.7510452E-1,3.7337905E-1,1.147275E-1,1.0193968E0,6.1834835E-2,2.1844983E-2,4.3612194E-1,0E0,1.5697494E-2,0E0,0E0,0E0,0E0,0E0,0E0,0E0,0E0,0E0,0E0,0E0,0E0,0E0,0E0],"parents":[2147483647,0,0,1,1,2,2,3,3,4,4,5,5,6,6,7,7,8,8,9,9,10,10,11,11,12,12,14,14],"right_children":[2,4,6,8,10,12,14,16,18,20,22,24,26,-1,28,-1,-1,-1,-1,-1,-1,-1,-1,-1,-1,-1,-1,-1,-1],"split_conditions":[1.5390597E-2,-6.008573E-3,2.5156787E-5,2.2087883E-2,2.7255496E-2,1.1588357E-2,2.6818419E-2,-5.242373E-3,-1.594267E-2,-3.1579375E-2,1.2894984E-2,-3.948277E-3,-2.0483885E-2,1.4196733E-2,2.9711522E-2,1.620113E-2,3.7739004E-3,4.393538E-3,2.0481769E-2,8.693474E-3,2.908657E-2,7.1540917E-3,-1.2741954E-3,2.0520112E-2,4.8916726E-3,1.18680475E-2,4.4621743E-2,1.4757783E-3,-4.6729287E-3],"split_indices":[54,497,1127,829,560,1488,231,533,14,670,69,14,46,0,5,0,0,0,0,0,0,0,0,0,0,0,0,0,0],"split_type":[0,0,0,0,0,0,0,0,0,0,0,0,0,0,0,0,0,0,0,0,0,0,0,0,0,0,0,0,0],"sum_hessian":[1.31E2,9.3E1,3.8E1,4.6E1,4.7E1,2.8E1,1E1,3.6E1,1E1,3.9E1,8E0,8E0,2E1,7E0,3E0,7E0,2.9E1,2E0,8E0,9E0,3E1,5E0,3E0,7E0,1E0,2E0,1.8E1,1E0,2E0],"tree_param":{"num_deleted":"0","num_feature":"1536","num_nodes":"29","size_leaf_vector":"0"}},{"base_weights":[3.794537E-1,4.8091033E-1,2.2867061E-1,6.774257E-1,3.2174516E-1,4.006758E-1,1.3416333E-1,7.880367E-1,2.8261313E-1,5.090425E-1,2.2974803E-1,6.0574364E-2,4.8733124E-1,3.891788E-1,6.1687097E-2,8.492714E-1,2.3892784E-1,4.171425E-2,5.417821E-1,3.027925E-1,6.277294E-2,-3.4692567E-2,1.3564985E-1,6.1002177E-1,3.3775735E-1,1.9167137E-1,-1.2888608E-2],"categories":[],"categories_nodes":[],"categories_segments":[],"categories_sizes":[],"default_left":[1,1,1,1,1,1,1,1,0,1,1,1,1,0,1,0,0,0,0,0,0,0,0,0,0,0,0],"id":33,"left_children":[1,3,5,7,9,11,13,15,-1,17,19,21,23,-1,25,-1,-1,-1,-1,-1,-1,-1,-1,-1,-1,-1,-1],"loss_changes":[1.9093571E0,2.221758E0,8.4030986E-1,1.2620926E0,6.5843534E-1,5.304413E-1,6.5984756E-1,6.7132187E-1,0E0,1.9160175E-1,3.7128413E-1,4.046709E-2,6.923032E-2,0E0,2.9328048E-1,0E0,0E0,0E0,0E0,0E0,0E0,0E0,0E0,0E0,0E0,0E0,0E0],"parents":[2147483647,0,0,1,1,2,2,3,3,4,4,5,5,6,6,7,7,9,9,10,10,11,11,12,12,14,14],"right_children":[2,4,6,8,10,12,14,16,-1,18,20,22,24,-1,26,-1,-1,-1,-1,-1,-1,-1,-1,-1,-1,-1,-1],"split_conditions":[-3.8415978E-3,-6.4230068E-3,-2.0825282E-2,1.2178994E-2,-1.0206472E-2,-2.0806774E-2,-3.3780247E-2,1.1124054E-3,1.4130657E-2,-2.2256901E-2,-2.3139246E-2,6.4647547E-3,-1.1108518E-2,1.945894E-2,-3.0668221E-2,4.246357E-2,1.1946392E-2,2.0857125E-3,2.7089104E-2,1.51396245E-2,3.138647E-3,-1.7346283E-3,6.782492E-3,3.0501088E-2,1.6887868E-2,9.583569E-3,-6.444304E-4],"split_indices":[941,1185,107,666,1350,325,1417,1459,0,12,872,0,37,0,827,0,0,0,0,0,0,0,0,0,0,0,0],"split_type":[0,0,0,0,0,0,0,0,0,0,0,0,0,0,0,0,0,0,0,0,0,0,0,0,0,0,0],"sum_hessian":[1.31E2,7.7E1,5.4E1,3.3E1,4.4E1,1.8E1,3.6E1,2.5E1,8E0,1.3E1,3.1E1,4E0,1.4E1,7E0,2.9E1,2.2E1,3E0,1E0,1.2E1,2.1E1,1E1,2E0,2E0,6E0,8E0,1E1,1.9E1],"tree_param":{"num_deleted":"0","num_feature":"1536","num_nodes":"27","size_leaf_vector":"0"}},{"base_weights":[3.6197215E-1,4.583519E-1,2.187068E-1,6.455703E-1,3.0671242E-1,4.0942568E-1,1.4359729E-1,7.3909295E-1,3.036638E-1,2.2886953E-1,5.2651143E-1,6.542885E-2,4.8997247E-1,7.8540035E-2,3.374208E-1,8.2490003E-1,3.1558588E-1,3.6877757E-1,1.3007715E-1,5.215379E-2,2.8803444E-1,1.11278094E-1,-3.605944E-2,2.2951001E-1,-5.1495706E-4,4.2308083E-1,1.0316053E-1],"categories":[],"categories_nodes":[],"categories_segments":[],"categories_sizes":[],"default_left":[1,1,1,1,1,1,1,1,1,1,0,1,0,1,1,0,0,0,0,0,0,0,0,0,0,0,0],"id":34,"left_children":[1,3,5,7,9,11,13,15,17,19,-1,21,-1,23,25,-1,-1,-1,-1,-1,-1,-1,-1,-1,-1,-1,-1],"loss_changes":[1.7223969E0,2.0163918E0,7.2907186E-1,8.6274815E-1,6.494384E-1,3.8355923E-1,4.904936E-1,6.845112E-1,5.3756356E-2,3.5091603E-1,0E0,2.2625268E-2,0E0,3.8203597E-1,1.57022E-1,0E0,0E0,0E0,0E0,0E0,0E0,0E0,0E0,0E0,0E0,0E0,0E0],"parents":[2147483647,0,0,1,1,2,2,3,3,4,4,5,5,6,6,7,7,8,8,9,9,11,11,13,13,14,14],"right_children":[2,4,6,8,10,12,14,16,18,20,-1,22,-1,24,26,-1,-1,-1,-1,-1,-1,-1,-1,-1,-1,-1,-1],"split_conditions":[-3.8415978E-3,-6.4230068E-3,4.276609E-3,1.5877157E-3,-5.491023E-4,1.5998361E-4,1.041352E-3,1.6400658E-2,1.8430218E-2,9.152633E-3,2.6325572E-2,9.197398E-3,2.4498625E-2,2.804153E-3,-8.290363E-3,4.1245002E-2,1.5779294E-2,1.843888E-2,6.5038577E-3,2.6076895E-3,1.4401722E-2,5.563905E-3,-1.8029719E-3,1.1475501E-2,-2.5747853E-5,2.1154042E-2,5.1580267E-3],"split_indices":[941,1185,132,1346,934,420,1463,347,38,1442,0,0,0,1113,52,0,0,0,0,0,0,0,0,0,0,0,0],"split_type":[0,0,0,0,0,0,0,0,0,0,0,0,0,0,0,0,0,0,0,0,0,0,0,0,0,0,0],"sum_hessian":[1.31E2,7.7E1,5.4E1,3.3E1,4.4E1,1.4E1,4E1,2.5E1,8E0,3.4E1,1E1,3E0,1.1E1,3.1E1,9E0,2E1,5E0,5E0,3E0,9E0,2.5E1,2E0,1E0,1E1,2.1E1,6E0,3E0],"tree_param":{"num_deleted":"0","num_feature":"1536","num_nodes":"27","size_leaf_vector":"0"}},{"base_weights":[3.4532297E-1,2.7614352E-1,5.5287933E-1,4.4750065E-1,2.1692179E-1,2.8018868E-1,7.247104E-1,6.537681E-1,2.906147E-1,4.7795635E-1,1.7082773E-1,3.7749857E-2,3.4287655E-1,2.8938955E-1,8.2150334E-1,1.9345355E-1,6.8341935E-1,4.2535752E-2,3.445917E-1,3.394325E-1,1.11276574E-1,8.3737016E-2,3.1986845E-1],"categories":[],"categories_nodes":[],"categories_segments":[],"categories_sizes":[],"default_left":[1,1,1,1,1,1,1,1,1,0,1,0,0,1,0,0,0,0,0,0,0,0,0],"id":35,"left_children":[1,3,5,7,9,11,13,15,17,-1,19,-1,-1,21,-1,-1,-1,-1,-1,-1,-1,-1,-1],"loss_changes":[1.7426662E0,9.278822E-1,1.29636E0,6.1901665E-1,8.448267E-1,1.9982803E-1,5.6284904E-1,4.2796135E-3,1.9959164E-1,0E0,6.3495004E-1,0E0,0E0,4.555464E-3,0E0,0E0,0E0,0E0,0E0,0E0,0E0,0E0,0E0],"parents":[2147483647,0,0,1,1,2,2,3,3,4,4,5,5,6,6,7,7,8,8,10,10,13,13],"right_children":[2,4,6,8,10,12,14,16,18,-1,20,-1,-1,22,-1,-1,-1,-1,-1,-1,-1,-1,-1],"split_conditions":[-1.4640313E-3,-8.008487E-3,-2.2057554E-2,1.0254004E-2,-3.5187498E-2,-4.147353E-2,-6.249362E-4,4.914617E-3,-1.94074E-2,2.3897817E-2,-3.1184398E-2,1.8874928E-3,1.7143829E-2,-4.7157936E-2,4.1075166E-2,9.672678E-3,3.4170967E-2,2.1267876E-3,1.7229585E-2,1.6971625E-2,5.5638286E-3,4.186851E-3,1.5993422E-2],"split_indices":[350,30,575,909,1298,3,895,6,129,0,1329,0,0,3,0,0,0,0,0,0,0,0,0],"split_type":[0,0,0,0,0,0,0,0,0,0,0,0,0,0,0,0,0,0,0,0,0,0,0],"sum_hessian":[1.31E2,1E2,3.1E1,2.4E1,7.6E1,1.3E1,1.8E1,9E0,1.5E1,1E1,6.6E1,3E0,1E1,4E0,1.4E1,1E0,8E0,3E0,1.2E1,1.6E1,5E1,1E0,3E0],"tree_param":{"num_deleted":"0","num_feature":"1536","num_nodes":"23","size_leaf_vector":"0"}},{"base_weights":[3.294956E-1,5.393253E-1,2.802717E-1,3.1931734E-1,7.0092297E-1,2.5084636E-1,6.7320585E-1,5.8464725E-2,3.656414E-1,7.990315E-2,3.0752975E-1,1.6371506E-1,7.3083514E-1,2.6416194E-1,2.2044778E-3,1.8219198E-1,4.131387E-1],"categories":[],"categories_nodes":[],"categories_segments":[],"categories_sizes":[],"default_left":[1,1,1,1,0,1,1,0,0,1,1,0,0,0,0,0,0],"id":36,"left_children":[1,3,5,7,-1,9,11,-1,-1,13,15,-1,-1,-1,-1,-1,-1],"loss_changes":[1.212224E0,6.2944984E-1,1.0914106E0,1.236279E-1,0E0,9.734607E-1,8.5882425E-2,0E0,0E0,3.8596755E-1,9.439626E-1,0E0,0E0,0E0,0E0,0E0,0E0],"parents":[2147483647,0,0,1,1,2,2,3,3,5,5,6,6,9,9,10,10],"right_children":[2,4,6,8,-1,10,12,-1,-1,14,16,-1,-1,-1,-1,-1,-1],"split_conditions":[-1.4009454E-2,3.5361186E-2,3.0056238E-2,-1.9378021E-2,3.504615E-2,9.1430675E-3,-8.211282E-3,2.9232362E-3,1.8282069E-2,-4.4529587E-3,-1.7839851E-3,8.185754E-3,3.6541756E-2,1.3208098E-2,1.1022389E-4,9.1095995E-3,2.0656934E-2],"split_indices":[53,281,968,129,0,1442,0,0,0,7,252,0,0,0,0,0,0],"split_type":[0,0,0,0,0,0,0,0,0,0,0,0,0,0,0,0,0],"sum_hessian":[1.31E2,2.3E1,1.08E2,1.1E1,1.2E1,1.02E2,6E0,2E0,9E0,2.6E1,7.6E1,1E0,5E0,7E0,1.9E1,3.6E1,4E1],"tree_param":{"num_deleted":"0","num_feature":"1536","num_nodes":"17","size_leaf_vector":"0"}},{"base_weights":[3.1411225E-1,5.2061284E-1,2.5351006E-1,3.2036176E-1,7.1228456E-1,4.374469E-1,1.7655517E-1,3.587333E-1,3.4507394E-2,3.6261672E-1,8.158901E-1,5.882478E-1,1.9499591E-1,7.4933276E-2,2.5461683E-1,4.2943954E-2,8.817136E-3,3.366818E-1,6.591053E-1,3.2079452E-1,4.134076E-2,1.2514147E-1,-4.1424002E-2,3.839015E-1,1.0705114E-1],"categories":[],"categories_nodes":[],"categories_segments":[],"categories_sizes":[],"default_left":[1,1,1,1,1,1,1,0,1,0,0,1,1,1,1,0,0,0,0,0,0,0,0,0,0],"id":37,"left_children":[1,3,5,7,9,11,13,-1,15,-1,-1,17,19,21,23,-1,-1,-1,-1,-1,-1,-1,-1,-1,-1],"loss_changes":[1.5199194E0,8.8490295E-1,1.3948693E0,1.6311967E-1,2.1132994E-1,9.821482E-1,5.7587886E-1,0E0,2.7156947E-4,0E0,0E0,9.894705E-2,2.3802292E-1,2.0381491E-1,7.601781E-1,0E0,0E0,0E0,0E0,0E0,0E0,0E0,0E0,0E0,0E0],"parents":[2147483647,0,0,1,1,2,2,3,3,4,4,5,5,6,6,8,8,11,11,12,12,13,13,14,14],"right_children":[2,4,6,8,10,12,14,-1,16,-1,-1,18,20,22,24,-1,-1,-1,-1,-1,-1,-1,-1,-1,-1],"split_conditions":[-9.372107E-4,-9.367196E-3,-7.38219E-3,-6.3186833E-3,3.6008872E-2,1.6000146E-2,-2.4736889E-2,1.7936666E-2,1.09493425E-2,1.8130837E-2,4.0794503E-2,1.0233381E-2,-1.8550567E-2,5.57079E-3,8.8024E-3,2.1471977E-3,4.4085682E-4,1.6834091E-2,3.2955267E-2,1.6039727E-2,2.067038E-3,6.2570735E-3,-2.0712002E-3,1.9195076E-2,5.352557E-3],"split_indices":[717,286,1424,235,5,551,1500,0,0,0,0,285,927,1532,634,0,0,0,0,0,0,0,0,0,0],"split_type":[0,0,0,0,0,0,0,0,0,0,0,0,0,0,0,0,0,0,0,0,0,0,0,0,0],"sum_hessian":[1.31E2,2.8E1,1.03E2,1.5E1,1.3E1,2.9E1,7.4E1,1.3E1,2E0,4E0,9E0,1.7E1,1.2E1,3.3E1,4.1E1,1E0,1E0,5E0,1.2E1,6E0,6E0,2.3E1,1E1,2.1E1,2E1],"tree_param":{"num_deleted":"0","num_feature":"1536","num_nodes":"25","size_leaf_vector":"0"}},{"base_weights":[2.9974055E-1,2.3253801E-1,4.5403028E-1,1.4324866E-1,3.1161502E-1,2.6689464E-1,6.805061E-1,9.604448E-2,3.9252272E-1,1.3672832E-1,3.9226526E-1,3.418605E-1,-2.4854143E-3,7.577179E-1,2.4013838E-1,-3.302518E-3,1.6241342E-1,2.779644E-1,1.0066616E-2,4.3611395E-1,5.948987E-2,3.872148E-1,1.4649639E-1,-1.0542456E-1,7.53403E-2],"categories":[],"categories_nodes":[],"categories_segments":[],"categories_sizes":[],"default_left":[1,1,1,1,1,1,1,1,0,1,1,1,1,0,0,0,0,0,0,0,0,0,0,0,0],"id":38,"left_children":[1,3,5,7,9,11,13,15,-1,17,19,21,23,-1,-1,-1,-1,-1,-1,-1,-1,-1,-1,-1,-1],"loss_changes":[1.2630835E0,6.19071E-1,1.4712629E0,5.0357205E-1,6.374941E-1,4.6531856E-1,3.9606905E-1,2.642786E-1,0E0,3.0131826E-1,4.5558405E-1,1.0276532E-1,5.6010593E-2,0E0,0E0,0E0,0E0,0E0,0E0,0E0,0E0,0E0,0E0,0E0,0E0],"parents":[2147483647,0,0,1,1,2,2,3,3,4,4,5,5,6,6,7,7,9,9,10,10,11,11,12,12],"right_children":[2,4,6,8,10,12,14,16,-1,18,20,22,24,-1,-1,-1,-1,-1,-1,-1,-1,-1,-1,-1,-1],"split_conditions":[1.5390597E-2,-5.2358126E-3,1.6945709E-2,4.729353E-2,-1.2625903E-2,2.9842751E-2,2.7598135E-2,-1.6892474E-2,1.9626137E-2,-1.744732E-2,1.2747638E-3,1.792118E-2,7.1447776E-3,3.7885897E-2,1.2006919E-2,-1.6512591E-4,8.120671E-3,1.3898221E-2,5.0333084E-4,2.1805698E-2,2.9744934E-3,1.9360742E-2,7.3248195E-3,-5.271228E-3,3.7670152E-3],"split_indices":[54,1505,1284,411,1276,393,301,1041,0,738,1268,608,15,0,0,0,0,0,0,0,0,0,0,0,0],"split_type":[0,0,0,0,0,0,0,0,0,0,0,0,0,0,0,0,0,0,0,0,0,0,0,0,0],"sum_hessian":[1.31E2,9.3E1,3.8E1,4.5E1,4.8E1,2.2E1,1.6E1,3.9E1,6E0,1.6E1,3.2E1,1.7E1,5E0,1.3E1,3E0,1.6E1,2.3E1,7E0,9E0,2.8E1,4E0,1.3E1,4E0,2E0,3E0],"tree_param":{"num_deleted":"0","num_feature":"1536","num_nodes":"25","size_leaf_vector":"0"}},{"base_weights":[2.8582805E-1,3.522259E-1,1.4502719E-1,5.183401E-1,2.4011275E-1,2.1624877E-1,1.919008E-2,2.4243896E-1,6.5174776E-1,2.9033932E-1,1.2812018E-2,3.3799732E-1,1.2983304E-1,-2.0642288E-2,2.1195523E-1,2.3677507E-2,2.8006127E-1,7.0741427E-1,3.0986547E-1,4.6191713E-1,1.6967003E-1,1.6685662E-1,-6.581178E-2,1.553085E-1,1.8418729E-3,1.921326E-2,-1.3504836E-1],"categories":[],"categories_nodes":[],"categories_segments":[],"categories_sizes":[],"default_left":[1,1,1,1,1,1,1,1,1,1,1,0,1,1,0,0,0,0,0,0,0,0,0,0,0,0,0],"id":39,"left_children":[1,3,5,7,9,11,13,15,17,19,21,-1,23,25,-1,-1,-1,-1,-1,-1,-1,-1,-1,-1,-1,-1,-1],"loss_changes":[1.18297E0,1.53304E0,3.901921E-1,1.1302471E0,6.241894E-1,2.507044E-1,1.349062E-1,1.0036296E-1,2.1851826E-1,8.5331416E-1,1.4420842E-1,0E0,5.840528E-2,7.099047E-2,0E0,0E0,0E0,0E0,0E0,0E0,0E0,0E0,0E0,0E0,0E0,0E0,0E0],"parents":[2147483647,0,0,1,1,2,2,3,3,4,4,5,5,6,6,7,7,8,8,9,9,10,10,12,12,13,13],"right_children":[2,4,6,8,10,12,14,16,18,20,22,-1,24,26,-1,-1,-1,-1,-1,-1,-1,-1,-1,-1,-1,-1,-1],"split_conditions":[2.4098357E-2,-6.567863E-3,-1.2085874E-2,2.934698E-2,-2.652788E-3,-1.2726257E-2,2.329239E-2,2.6826235E-3,2.153401E-2,3.5468638E-2,-4.287458E-4,1.6899867E-2,3.696985E-2,1.1909634E-3,1.0597762E-2,1.1838754E-3,1.4003064E-2,3.5370715E-2,1.5493274E-2,2.3095857E-2,8.483502E-3,8.342831E-3,-3.2905892E-3,7.765425E-3,9.209365E-5,9.6066296E-4,-6.752418E-3],"split_indices":[607,1185,729,869,766,1336,435,45,435,278,168,0,223,60,0,0,0,0,0,0,0,0,0,0,0,0,0],"split_type":[0,0,0,0,0,0,0,0,0,0,0,0,0,0,0,0,0,0,0,0,0,0,0,0,0,0,0],"sum_hessian":[1.31E2,8.8E1,4.3E1,3.4E1,5.4E1,2.7E1,1.6E1,1.2E1,2.2E1,4.4E1,1E1,1E1,1.7E1,1.4E1,2E0,2E0,1E1,1.8E1,4E0,1.7E1,2.7E1,3E0,7E0,1.4E1,3E0,1.1E1,3E0],"tree_param":{"num_deleted":"0","num_feature":"1536","num_nodes":"27","size_leaf_vector":"0"}},{"base_weights":[2.725385E-1,4.586036E-1,2.180344E-1,7.1737885E-1,3.2586163E-1,1.6482821E-1,3.9824626E-1,3.266871E-2,3.5500467E-1,1.1053184E-1,2.842027E-1,5.597957E-1,1.322525E-1,4.113835E-2,7.864714E-3,4.0532944E-1,2.3514192E-1,-9.685075E-2,1.3632311E-1,8.150181E-2,3.5850292E-1,2.477453E-1,1.3966422E-2],"categories":[],"categories_nodes":[],"categories_segments":[],"categories_sizes":[],"default_left":[1,1,1,0,1,1,1,1,1,1,1,0,1,0,0,0,0,0,0,0,0,0,0],"id":40,"left_children":[1,3,5,-1,7,9,11,13,15,17,19,-1,21,-1,-1,-1,-1,-1,-1,-1,-1,-1,-1],"loss_changes":[1.2386618E0,7.623935E-1,9.3154955E-1,0E0,1.6783762E-1,5.0007796E-1,9.143019E-1,3.0670152E-4,1.929903E-2,3.234253E-1,3.4729958E-1,0E0,1.331518E-1,0E0,0E0,0E0,0E0,0E0,0E0,0E0,0E0,0E0,0E0],"parents":[2147483647,0,0,1,1,2,2,4,4,5,5,6,6,7,7,8,8,9,9,10,10,12,12],"right_children":[2,4,6,-1,8,10,12,14,16,18,20,-1,22,-1,-1,-1,-1,-1,-1,-1,-1,-1,-1],"split_conditions":[-9.372107E-4,1.4329983E-2,1.2702666E-2,3.5868943E-2,-1.1784396E-2,3.5655093E-3,2.5057876E-3,1.09493425E-2,-1.3558589E-2,-3.0478653E-2,9.193125E-3,2.7989784E-2,-2.5368493E-2,2.0569176E-3,3.9323568E-4,2.0266471E-2,1.1757096E-2,-4.842538E-3,6.8161557E-3,4.075091E-3,1.7925147E-2,1.2387265E-2,6.983211E-4],"split_indices":[717,289,176,0,485,1496,59,0,313,465,1442,0,9,0,0,0,0,0,0,0,0,0,0],"split_type":[0,0,0,0,0,0,0,0,0,0,0,0,0,0,0,0,0,0,0,0,0,0,0],"sum_hessian":[1.31E2,2.8E1,1.03E2,8E0,2E1,8.1E1,2.2E1,2E0,1.8E1,5.7E1,2.4E1,1.3E1,9E0,1E0,1E0,1.1E1,7E0,6E0,5.1E1,7E0,1.7E1,4E0,5E0],"tree_param":{"num_deleted":"0","num_feature":"1536","num_nodes":"23","size_leaf_vector":"0"}},{"base_weights":[2.5993726E-1,4.38099E-1,2.0775814E-1,6.854954E-1,3.1121013E-1,3.6891052E-1,1.3744082E-1,3.3893982E-1,3.1851966E-2,1.2470705E-1,4.484288E-1,4.5878834E-1,1.1252398E-1,3.606819E-1,1.672366E-1,7.668078E-3,4.0109873E-2,1.5359212E-1,-5.3186774E-2,5.2354085E-1,2.4215111E-1,1.5836543E-1,-1.9806055E-3],"categories":[],"categories_nodes":[],"categories_segments":[],"categories_sizes":[],"default_left":[1,1,1,0,1,1,1,1,1,1,1,0,1,0,0,0,0,0,0,0,0,0,0],"id":41,"left_children":[1,3,5,-1,7,9,11,13,15,17,19,-1,21,-1,-1,-1,-1,-1,-1,-1,-1,-1,-1],"loss_changes":[1.136095E0,6.9703054E-1,1.1278043E0,0E0,1.5188098E-1,5.460558E-1,5.408907E-1,1.0611296E-2,2.9155915E-4,5.441536E-2,2.2958422E-1,0E0,3.6774755E-1,0E0,0E0,0E0,0E0,0E0,0E0,0E0,0E0,0E0,0E0],"parents":[2147483647,0,0,1,1,2,2,4,4,5,5,6,6,7,7,8,8,9,9,10,10,12,12],"right_children":[2,4,6,-1,8,10,12,14,16,18,20,-1,22,-1,-1,-1,-1,-1,-1,-1,-1,-1,-1],"split_conditions":[-9.372107E-4,1.4329983E-2,-8.057376E-3,3.4274768E-2,-1.0949202E-2,-1.9524895E-2,-6.593027E-3,8.312934E-3,1.8259924E-2,9.133516E-3,-1.1842698E-2,2.2939418E-2,1.0660889E-2,1.8034095E-2,8.36183E-3,3.834039E-4,2.0054937E-3,7.6796063E-3,-2.6593388E-3,2.6177043E-2,1.2107556E-2,7.918271E-3,-9.903028E-5],"split_indices":[717,289,30,0,853,523,1425,1291,2,32,170,0,925,0,0,0,0,0,0,0,0,0,0],"split_type":[0,0,0,0,0,0,0,0,0,0,0,0,0,0,0,0,0,0,0,0,0,0,0],"sum_hessian":[1.31E2,2.8E1,1.03E2,8E0,2E1,3E1,7.3E1,1.8E1,2E0,8E0,2.2E1,4E0,6.9E1,1.5E1,3E0,1E0,1E0,7E0,1E0,1.5E1,7E0,4.9E1,2E1],"tree_param":{"num_deleted":"0","num_feature":"1536","num_nodes":"23","size_leaf_vector":"0"}},{"base_weights":[2.4797922E-1,1.9043522E-1,3.8031662E-1,3.4215155E-1,1.4480713E-1,5.974426E-1,2.3482832E-1,1.4383538E-1,4.1188902E-1,8.502561E-2,2.822441E-1,7.7391803E-1,3.9380145E-1,2.9622155E-1,-8.95379E-3,3.7159126E-2,1.7907405E-1,4.9955478E-1,2.4033459E-1,1.4455304E-1,7.0735863E-3,3.861223E-1,8.92953E-2,1.0124451E-1,4.1771552E-1,1.1663163E-1,3.3382955E-1,6.205389E-2,-1.006461E-1],"categories":[],"categories_nodes":[],"categories_segments":[],"categories_sizes":[],"default_left":[1,1,1,1,1,1,1,1,1,1,1,0,1,1,1,0,0,0,0,0,0,0,0,0,0,0,0,0,0],"id":42,"left_children":[1,3,5,7,9,11,13,15,17,19,21,-1,23,25,27,-1,-1,-1,-1,-1,-1,-1,-1,-1,-1,-1,-1,-1,-1],"loss_changes":[9.327831E-1,6.0117173E-1,1.0916862E0,2.311871E-1,5.84E-1,2.3429441E-1,3.768165E-1,1.9659683E-2,1.0553169E-1,2.4491253E-1,4.064709E-1,0E0,2.0674586E-2,9.614539E-2,4.531063E-2,0E0,0E0,0E0,0E0,0E0,0E0,0E0,0E0,0E0,0E0,0E0,0E0,0E0,0E0],"parents":[2147483647,0,0,1,1,2,2,3,3,4,4,5,5,6,6,7,7,8,8,9,9,10,10,12,12,13,13,14,14],"right_children":[2,4,6,8,10,12,14,16,18,20,22,-1,24,26,28,-1,-1,-1,-1,-1,-1,-1,-1,-1,-1,-1,-1,-1,-1],"split_conditions":[1.5390597E-2,-3.148025E-2,-3.0384923E-4,9.287716E-3,-1.5827013E-2,-2.1225523E-2,1.7931841E-2,4.6520233E-3,-7.588037E-3,-6.911328E-3,1.215477E-2,3.86959E-2,1.7187623E-3,-1.3292806E-2,2.0784289E-2,1.8579563E-3,8.953703E-3,2.497774E-2,1.2016729E-2,7.227652E-3,3.5367932E-4,1.9306114E-2,4.464765E-3,5.0622257E-3,2.0885777E-2,5.8315815E-3,1.6691478E-2,3.1026944E-3,-5.032305E-3],"split_indices":[54,1298,843,255,575,35,877,7,966,168,609,0,4,488,11,0,0,0,0,0,0,0,0,0,0,0,0,0,0],"split_type":[0,0,0,0,0,0,0,0,0,0,0,0,0,0,0,0,0,0,0,0,0,0,0,0,0,0,0,0,0],"sum_hessian":[1.31E2,9.3E1,3.8E1,2E1,7.3E1,1.4E1,2.4E1,6E0,1.4E1,5.2E1,2.1E1,6E0,8E0,1.9E1,5E0,2E0,4E0,8E0,6E0,2.9E1,2.3E1,1.3E1,8E0,1E0,7E0,4E0,1.5E1,3E0,2E0],"tree_param":{"num_deleted":"0","num_feature":"1536","num_nodes":"29","size_leaf_vector":"0"}},{"base_weights":[2.3682569E-1,4.016398E-1,1.8859074E-1,6.291745E-1,2.8499922E-1,3.3221868E-1,1.2862502E-1,3.6625975E-1,7.662543E-1,3.1013283E-1,3.0819893E-2,4.148565E-1,5.310765E-2,2.69607E-1,8.888607E-2,3.688261E-1,2.2042629E-1,7.2995424E-3,3.8930297E-2,1.7550044E-1,4.7159427E-1,-3.046604E-2,8.604322E-2,4.2705116E-1,1.5921864E-1,-5.9399176E-2,1.16218746E-1],"categories":[],"categories_nodes":[],"categories_segments":[],"categories_sizes":[],"default_left":[1,1,1,1,1,1,1,0,0,1,1,1,1,1,1,0,0,0,0,0,0,0,0,0,0,0,0],"id":43,"left_children":[1,3,5,7,9,11,13,-1,-1,15,17,19,21,23,25,-1,-1,-1,-1,-1,-1,-1,-1,-1,-1,-1,-1],"loss_changes":[9.7362804E-1,5.9033966E-1,8.529947E-1,4.3714523E-2,1.245991E-1,6.699219E-1,3.9622128E-1,0E0,0E0,1.8739223E-2,2.881051E-4,2.2958755E-1,2.4641775E-2,2.1008539E-1,2.5008523E-1,0E0,0E0,0E0,0E0,0E0,0E0,0E0,0E0,0E0,0E0,0E0,0E0],"parents":[2147483647,0,0,1,1,2,2,3,3,4,4,5,5,6,6,9,9,10,10,11,11,12,12,13,13,14,14],"right_children":[2,4,6,8,10,12,14,-1,-1,16,18,20,22,24,26,-1,-1,-1,-1,-1,-1,-1,-1,-1,-1,-1,-1],"split_conditions":[-9.372107E-4,1.4329983E-2,-7.38219E-3,2.8060046E-3,3.3142768E-2,-4.4410015E-3,-7.2328746E-3,1.8312989E-2,3.8312715E-2,-9.669835E-3,-3.8382173E-2,-3.6916253E-3,-1.4362074E-2,-1.4394579E-2,1.2409404E-2,1.8441305E-2,1.1021315E-2,3.6497714E-4,1.9465148E-3,8.775022E-3,2.3579715E-2,-1.523302E-3,4.302161E-3,2.1352557E-2,7.960932E-3,-2.9699588E-3,5.8109374E-3],"split_indices":[717,289,1424,69,769,574,1076,0,0,158,3,1375,37,1530,73,0,0,0,0,0,0,0,0,0,0,0,0],"split_type":[0,0,0,0,0,0,0,0,0,0,0,0,0,0,0,0,0,0,0,0,0,0,0,0,0,0,0],"sum_hessian":[1.31E2,2.8E1,1.03E2,8E0,2E1,2.9E1,7.4E1,4E0,4E0,1.8E1,2E0,2.2E1,7E0,1.5E1,5.9E1,9E0,9E0,1E0,1E0,5E0,1.7E1,2E0,5E0,5E0,1E1,9E0,5E1],"tree_param":{"num_deleted":"0","num_feature":"1536","num_nodes":"27","size_leaf_vector":"0"}},{"base_weights":[2.2616386E-1,1.7106332E-1,3.5796356E-1,9.80121E-2,2.7806088E-1,4.980758E-1,2.4493055E-1,2.3073766E-1,4.6346486E-2,4.9397014E-2,3.4732217E-1,5.379477E-1,1.459815E-1,2.464071E-2,2.7674198E-1,-2.281332E-3,3.0860075E-1,1.6927454E-1,-1.1998601E-3,-6.9599316E-2,1.403278E-1,4.5593908E-1,2.1555045E-1,-3.4245193E-2,5.5684406E-2,1.3961565E-1,3.022976E-1],"categories":[],"categories_nodes":[],"categories_segments":[],"categories_sizes":[],"default_left":[1,1,1,1,1,1,1,1,1,1,1,0,0,1,1,0,0,0,0,0,0,0,0,0,0,0,0],"id":44,"left_children":[1,3,5,7,9,11,13,15,17,19,21,-1,-1,23,25,-1,-1,-1,-1,-1,-1,-1,-1,-1,-1,-1,-1],"loss_changes":[8.973808E-1,7.152951E-1,4.798236E-1,3.870322E-1,5.8467054E-1,1.460886E-1,1.5435886E-1,2.9100132E-1,2.5152865E-1,1.17971E-1,3.1678867E-1,0E0,0E0,9.219067E-3,2.7881503E-2,0E0,0E0,0E0,0E0,0E0,0E0,0E0,0E0,0E0,0E0,0E0,0E0],"parents":[2147483647,0,0,1,1,2,2,3,3,4,4,5,5,6,6,7,7,8,8,9,9,10,10,13,13,14,14],"right_children":[2,4,6,8,10,12,14,16,18,20,22,-1,-1,24,26,-1,-1,-1,-1,-1,-1,-1,-1,-1,-1,-1,-1],"split_conditions":[-4.0931986E-3,-1.2154256E-3,-1.4030162E-3,7.109643E-3,4.224088E-3,1.3583291E-2,-3.2498352E-2,-3.0252159E-2,-3.1489097E-2,-5.2364725E-3,-8.578768E-4,2.6897386E-2,7.2990754E-3,-1.1141232E-2,1.7252767E-2,-1.140666E-4,1.5430038E-2,8.463727E-3,-5.9993006E-5,-3.4799657E-3,7.01639E-3,2.2796955E-2,1.0777523E-2,-1.7122597E-3,2.7842203E-3,6.980783E-3,1.511488E-2],"split_indices":[1254,1505,1297,1006,568,4,407,295,1298,316,593,0,0,1,706,0,0,0,0,0,0,0,0,0,0,0,0],"split_type":[0,0,0,0,0,0,0,0,0,0,0,0,0,0,0,0,0,0,0,0,0,0,0,0,0,0,0],"sum_hessian":[1.31E2,9.4E1,3.7E1,5.7E1,3.7E1,1.5E1,2.2E1,1.5E1,4.2E1,9E0,2.8E1,1.3E1,2E0,3E0,1.9E1,4E0,1.1E1,1.1E1,3.1E1,4E0,5E0,1.4E1,1.4E1,1E0,2E0,4E0,1.5E1],"tree_param":{"num_deleted":"0","num_feature":"1536","num_nodes":"27","size_leaf_vector":"0"}},{"base_weights":[2.1575111E-1,1.6663766E-1,3.640232E-1,2.5752053E-1,1.10072225E-1,6.681363E-1,2.6814574E-1,4.8364156E-1,2.0000905E-1,4.959919E-2,2.1571551E-1,7.311742E-1,1.4495456E-1,1.0387252E-1,3.3538535E-1,2.3656912E-1,2.1538138E-3,1.1151007E-1,-4.8005644E-2,4.1298628E-2,2.6187027E-1,1.5538454E-2,1.4544982E-1,3.4448302E-1,9.036243E-2],"categories":[],"categories_nodes":[],"categories_segments":[],"categories_sizes":[],"default_left":[1,1,1,1,1,1,1,0,1,1,1,0,0,1,1,0,0,0,0,0,0,0,0,0,0],"id":45,"left_children":[1,3,5,7,9,11,13,-1,15,17,19,-1,-1,21,23,-1,-1,-1,-1,-1,-1,-1,-1,-1,-1],"loss_changes":[9.005842E-1,4.9087787E-1,7.5388527E-1,3.9744067E-1,3.9816916E-1,1.2487459E-1,2.523501E-1,0E0,2.3096573E-1,2.5915074E-1,1.7433906E-1,0E0,0E0,3.0794151E-2,8.996248E-3,0E0,0E0,0E0,0E0,0E0,0E0,0E0,0E0,0E0,0E0],"parents":[2147483647,0,0,1,1,2,2,3,3,4,4,5,5,6,6,8,8,9,9,10,10,13,13,14,14],"right_children":[2,4,6,8,10,12,14,-1,16,18,20,-1,-1,22,24,-1,-1,-1,-1,-1,-1,-1,-1,-1,-1],"split_conditions":[-1.4640313E-3,2.2292528E-3,-1.956211E-2,-2.9633561E-2,7.6663736E-3,-1.42368525E-2,-1.194048E-2,2.418208E-2,-8.745059E-3,1.3713383E-2,-2.269969E-2,3.655871E-2,7.2477283E-3,1.31166205E-2,4.88991E-2,1.1828456E-2,1.0769069E-4,5.5755037E-3,-2.4002823E-3,2.0649314E-3,1.3093513E-2,7.7692274E-4,7.2724908E-3,1.7224152E-2,4.5181215E-3],"split_indices":[350,188,33,642,899,13,1276,0,47,108,953,0,0,108,5,0,0,0,0,0,0,0,0,0,0],"split_type":[0,0,0,0,0,0,0,0,0,0,0,0,0,0,0,0,0,0,0,0,0,0,0,0,0],"sum_hessian":[1.31E2,1E2,3.1E1,3.7E1,6.3E1,6E0,2.5E1,6E0,3.1E1,4.1E1,2.2E1,5E0,1E0,8E0,1.7E1,2.6E1,5E0,2.5E1,1.6E1,5E0,1.7E1,3E0,5E0,1.6E1,1E0],"tree_param":{"num_deleted":"0","num_feature":"1536","num_nodes":"25","size_leaf_vector":"0"}},{"base_weights":[2.0593365E-1,1.3006347E-1,2.7759778E-1,3.1470868E-1,9.147132E-2,3.4384775E-1,9.2132226E-2,3.886567E-1,1.8830924E-1,-5.9812395E-3,1.5011375E-1,3.7858227E-1,3.182012E-2,-8.173168E-3,1.832244E-1,-1.0705462E-1,4.8323315E-2,2.2726355E-1,6.462428E-2,2.4394003E-1,4.7115275E-1,4.8177622E-2,-2.4983704E-2,2.3873448E-2,-9.090642E-2],"categories":[],"categories_nodes":[],"categories_segments":[],"categories_sizes":[],"default_left":[1,1,1,1,1,1,1,0,0,1,1,1,1,1,0,0,0,0,0,0,0,0,0,0,0],"id":46,"left_children":[1,3,5,7,9,11,13,-1,-1,15,17,19,21,23,-1,-1,-1,-1,-1,-1,-1,-1,-1,-1,-1],"loss_changes":[6.8160105E-1,4.4151974E-1,7.915554E-1,2.962923E-2,3.209297E-1,5.190215E-1,1.751012E-1,0E0,0E0,1.2592563E-1,2.1615565E-1,4.3347836E-1,6.7786686E-3,2.8683458E-2,0E0,0E0,0E0,0E0,0E0,0E0,0E0,0E0,0E0,0E0,0E0],"parents":[2147483647,0,0,1,1,2,2,3,3,4,4,5,5,6,6,9,9,10,10,11,11,12,12,13,13],"right_children":[2,4,6,8,10,12,14,-1,-1,16,18,20,22,24,-1,-1,-1,-1,-1,-1,-1,-1,-1,-1,-1],"split_conditions":[4.8690736E-3,-8.218294E-3,2.1430617E-3,-6.109219E-3,-9.926856E-3,7.925915E-3,4.1120006E-3,1.9432835E-2,9.415462E-3,3.4528226E-3,1.21566355E-2,4.810442E-3,-1.6353505E-2,1.8061709E-3,9.16122E-3,-5.3527313E-3,2.4161658E-3,1.1363178E-2,3.2312141E-3,1.2197002E-2,2.3557639E-2,2.4088812E-3,-1.2491852E-3,1.1936724E-3,-4.545321E-3],"split_indices":[1317,1076,30,464,1005,156,232,0,0,1321,926,1445,8,32,0,0,0,0,0,0,0,0,0,0,0],"split_type":[0,0,0,0,0,0,0,0,0,0,0,0,0,0,0,0,0,0,0,0,0,0,0,0,0],"sum_hessian":[1.31E2,6.5E1,6.6E1,1E1,5.5E1,4.8E1,1.8E1,5E0,5E0,2.1E1,3.4E1,4.3E1,5E0,9E0,9E0,7E0,1.4E1,1.7E1,1.7E1,1.9E1,2.4E1,4E0,1E0,7E0,2E0],"tree_param":{"num_deleted":"0","num_feature":"1536","num_nodes":"25","size_leaf_vector":"0"}},{"base_weights":[1.9626749E-1,1.47462E-1,3.131163E-1,7.9449154E-2,2.2126627E-1,5.356506E-1,2.5465205E-1,-1.4833542E-2,1.407552E-1,3.164075E-1,7.441998E-2,5.75614E-1,1.4793515E-1,3.1232363E-1,1.3250582E-1,5.556315E-2,-7.2261326E-2,7.884814E-2,2.4614547E-1,1.8842071E-1,4.3974552E-1,1.8464996E-1,-2.2533633E-2,3.419968E-1,1.8114127E-1,1.6017765E-2,1.6955543E-1],"categories":[],"categories_nodes":[],"categories_segments":[],"categories_sizes":[],"default_left":[1,1,1,1,1,1,1,1,1,1,1,0,0,1,1,0,0,0,0,0,0,0,0,0,0,0,0],"id":47,"left_children":[1,3,5,7,9,11,13,15,17,19,21,-1,-1,23,25,-1,-1,-1,-1,-1,-1,-1,-1,-1,-1,-1,-1],"loss_changes":[7.0660543E-1,4.5928645E-1,3.579867E-1,2.9687297E-1,6.051543E-1,2.3307323E-2,1.8403506E-1,8.891231E-2,1.8284833E-1,3.433547E-1,2.0721754E-1,0E0,0E0,1.9794703E-2,4.907413E-2,0E0,0E0,0E0,0E0,0E0,0E0,0E0,0E0,0E0,0E0,0E0,0E0],"parents":[2147483647,0,0,1,1,2,2,3,3,4,4,5,5,6,6,7,7,8,8,9,9,10,10,13,13,14,14],"right_children":[2,4,6,8,10,12,14,16,18,20,22,-1,-1,24,26,-1,-1,-1,-1,-1,-1,-1,-1,-1,-1,-1,-1],"split_conditions":[-4.0931986E-3,-5.8131884E-3,-2.4676178E-2,-1.7903749E-2,2.8266687E-2,-1.2368633E-4,2.5105566E-2,-2.125509E-2,-1.3304972E-2,1.791361E-2,2.1842504E-3,2.8780699E-2,7.3967576E-3,1.7234504E-2,-1.3166966E-2,2.7781576E-3,-3.6130664E-3,3.942407E-3,1.2307274E-2,9.421036E-3,2.1987276E-2,9.232498E-3,-1.1266817E-3,1.709984E-2,9.057064E-3,8.008882E-4,8.477772E-3],"split_indices":[1254,497,364,831,26,30,741,450,506,1199,754,0,0,1290,760,0,0,0,0,0,0,0,0,0,0,0,0],"split_type":[0,0,0,0,0,0,0,0,0,0,0,0,0,0,0,0,0,0,0,0,0,0,0,0,0,0,0],"sum_hessian":[1.31E2,9.4E1,3.7E1,5E1,4.4E1,6E0,3.1E1,2E1,3E1,2.6E1,1.8E1,5E0,1E0,2E1,1.1E1,9E0,1.1E1,2E1,1E1,1.4E1,1.2E1,8E0,1E1,1.5E1,5E0,3E0,8E0],"tree_param":{"num_deleted":"0","num_feature":"1536","num_nodes":"27","size_leaf_vector":"0"}},{"base_weights":[1.8741278E-1,1.4305374E-1,3.2156438E-1,2.8562698E-1,1.12856105E-1,6.031798E-1,2.33377E-1,4.3745697E-1,1.6304179E-1,1.5620962E-1,1.902183E-2,1.3099337E-1,6.600453E-1,9.050921E-2,2.918455E-1,4.6956837E-1,1.22394264E-1,5.2423805E-2,1.9797055E-1,7.2667874E-2,2.3175964E-1,7.718554E-2,-5.4027494E-2,1.2815589E-1,1.1411905E-2,2.990218E-1,8.49241E-2],"categories":[],"categories_nodes":[],"categories_segments":[],"categories_sizes":[],"default_left":[1,1,1,1,1,1,1,1,1,1,1,0,0,1,1,0,0,0,0,0,0,0,0,0,0,0,0],"id":48,"left_children":[1,3,5,7,9,11,13,15,17,19,21,-1,-1,23,25,-1,-1,-1,-1,-1,-1,-1,-1,-1,-1,-1,-1],"loss_changes":[7.395096E-1,4.0260816E-1,6.539495E-1,2.4508202E-1,3.4281242E-1,1.0149622E-1,1.9077015E-1,1.3347268E-2,3.212291E-2,3.492303E-1,1.2313709E-1,0E0,0E0,2.5337249E-2,1.334548E-3,0E0,0E0,0E0,0E0,0E0,0E0,0E0,0E0,0E0,0E0,0E0,0E0],"parents":[2147483647,0,0,1,1,2,2,3,3,4,4,5,5,6,6,7,7,8,8,9,9,10,10,13,13,14,14],"right_children":[2,4,6,8,10,12,14,16,18,20,22,-1,-1,24,26,-1,-1,-1,-1,-1,-1,-1,-1,-1,-1,-1,-1],"split_conditions":[-1.4640313E-3,-9.9887755E-3,-1.956211E-2,-1.8418525E-4,5.383323E-3,-2.9933814E-2,-1.194048E-2,1.9409675E-2,-1.9289557E-2,2.4265097E-2,-3.0091919E-2,6.5496685E-3,3.300227E-2,-7.6033035E-3,4.88991E-2,2.3478419E-2,6.119713E-3,2.6211904E-3,9.8985275E-3,3.6333937E-3,1.1587982E-2,3.859277E-3,-2.7013747E-3,6.4077945E-3,5.7059526E-4,1.495109E-2,4.246205E-3],"split_indices":[350,30,33,1464,480,9,1276,0,30,924,827,0,0,109,5,0,0,0,0,0,0,0,0,0,0,0,0],"split_type":[0,0,0,0,0,0,0,0,0,0,0,0,0,0,0,0,0,0,0,0,0,0,0,0,0,0,0],"sum_hessian":[1.31E2,1E2,3.1E1,1.6E1,8.4E1,6E0,2.5E1,6E0,1E1,5.7E1,2.7E1,1E0,5E0,8E0,1.7E1,5E0,1E0,3E0,7E0,2.8E1,2.9E1,1.5E1,1.2E1,5E0,3E0,1.6E1,1E0],"tree_param":{"num_deleted":"0","num_feature":"1536","num_nodes":"27","size_leaf_vector":"0"}},{"base_weights":[1.7898323E-1,1.34563E-1,2.8145808E-1,2.208255E-1,9.267933E-2,3.7821594E-1,1.18730165E-1,1.12665996E-1,3.3638877E-1,2.0230997E-1,4.6388667E-2,5.483588E-1,2.588721E-1,-7.432148E-2,1.6899759E-1,3.608398E-2,2.1691403E-1,2.0984948E-1,4.3294957E-1,-8.203824E-3,2.2755887E-1,1.1637737E-3,1.5290707E-1,5.812986E-1,1.4242005E-1,1.0540249E-1,3.0124506E-1,-3.843546E-3,-9.653294E-2,2.0312476E-1,7.376914E-2],"categories":[],"categories_nodes":[],"categories_segments":[],"categories_sizes":[],"default_left":[1,1,1,1,1,1,1,1,1,1,1,1,1,1,1,0,0,0,0,0,0,0,0,0,0,0,0,0,0,0,0],"id":49,"left_children":[1,3,5,7,9,11,13,15,17,19,21,23,25,27,29,-1,-1,-1,-1,-1,-1,-1,-1,-1,-1,-1,-1,-1,-1,-1,-1],"loss_changes":[5.6298447E-1,3.1915498E-1,5.6915736E-1,3.3707845E-1,3.204819E-1,3.453772E-1,1.6782746E-1,1.2789278E-1,8.020806E-2,1.0285646E-1,2.2623438E-1,3.7555456E-2,7.229555E-2,5.8906414E-3,2.7264088E-2,0E0,0E0,0E0,0E0,0E0,0E0,0E0,0E0,0E0,0E0,0E0,0E0,0E0,0E0,0E0,0E0],"parents":[2147483647,0,0,1,1,2,2,3,3,4,4,5,5,6,6,7,7,8,8,9,9,10,10,11,11,12,12,13,13,14,14],"right_children":[2,4,6,8,10,12,14,16,18,20,22,24,26,28,30,-1,-1,-1,-1,-1,-1,-1,-1,-1,-1,-1,-1,-1,-1,-1,-1],"split_conditions":[1.5390597E-2,8.147536E-3,-1.6669143E-2,1.473506E-2,-3.1184398E-2,-1.9518977E-3,-3.268425E-2,2.2490129E-2,1.0526025E-3,-4.2866655E-2,1.3236608E-2,6.236779E-2,-1.4798948E-2,1.9269218E-3,5.645296E-3,1.8041991E-3,1.0845701E-2,1.0492474E-2,2.164748E-2,-4.1019122E-4,1.1377944E-2,5.8188685E-5,7.6453537E-3,2.906493E-2,7.121003E-3,5.270125E-3,1.5062253E-2,-1.921773E-4,-4.826647E-3,1.0156238E-2,3.688457E-3],"split_indices":[54,511,864,829,1329,421,1292,1152,851,217,1303,5,523,0,49,0,0,0,0,0,0,0,0,0,0,0,0,0,0,0,0],"split_type":[0,0,0,0,0,0,0,0,0,0,0,0,0,0,0,0,0,0,0,0,0,0,0,0,0,0,0,0,0,0,0],"sum_hessian":[1.31E2,9.3E1,3.8E1,2.9E1,6.4E1,2.3E1,1.5E1,1.6E1,1.3E1,1.8E1,4.6E1,8E0,1.5E1,3E0,1.2E1,1E1,6E0,7E0,6E0,2E0,1.6E1,3.3E1,1.3E1,7E0,1E0,4E0,1.1E1,1E0,2E0,8E0,4E0],"tree_param":{"num_deleted":"0","num_feature":"1536","num_nodes":"31","size_leaf_vector":"0"}},{"base_weights":[1.7100985E-1,2.2673297E-1,8.887508E-2,1.981732E-1,4.881001E-1,2.0069225E-1,4.5798674E-2,1.08507544E-1,2.5963658E-1,5.623284E-1,2.1365225E-2,-2.5179744E-2,2.373787E-1,1.6138466E-1,3.3069158E-3,1.5175134E-1,1.6086893E-2,2.9648206E-1,6.598306E-2,-8.983612E-4,-3.6871254E-2,1.23418905E-1,2.7431428E-1,2.1999356E-1,4.7055267E-2,-4.9601346E-2,1.04012966E-1],"categories":[],"categories_nodes":[],"categories_segments":[],"categories_sizes":[],"default_left":[1,1,1,1,1,1,1,1,1,0,0,1,1,1,1,0,0,0,0,0,0,0,0,0,0,0,0],"id":50,"left_children":[1,3,5,7,9,11,13,15,17,-1,-1,19,21,23,25,-1,-1,-1,-1,-1,-1,-1,-1,-1,-1,-1,-1],"loss_changes":[5.839877E-1,4.8550892E-1,2.5572604E-1,3.686309E-1,2.3050022E-1,1.3027376E-1,2.0083582E-1,1.21454E-1,2.8011775E-1,0E0,0E0,8.185344E-4,2.0863593E-2,6.335607E-2,1.7033283E-1,0E0,0E0,0E0,0E0,0E0,0E0,0E0,0E0,0E0,0E0,0E0,0E0],"parents":[2147483647,0,0,1,1,2,2,3,3,4,4,5,5,6,6,7,7,8,8,11,11,12,12,13,13,14,14],"right_children":[2,4,6,8,10,12,14,16,18,-1,-1,20,22,24,26,-1,-1,-1,-1,-1,-1,-1,-1,-1,-1,-1,-1],"split_conditions":[-3.8415978E-3,1.7564308E-2,4.276609E-3,3.863502E-3,1.636877E-2,-2.9245155E-2,-2.5768891E-2,-1.587347E-2,2.6138965E-2,2.811642E-2,1.0682613E-3,2.0209644E-3,-4.2379133E-2,1.1888342E-2,-5.2044436E-4,7.587567E-3,8.0434466E-4,1.4824103E-2,3.299153E-3,-4.4918062E-5,-1.8435627E-3,6.1709452E-3,1.3715714E-2,1.0999679E-2,2.3527634E-3,-2.4800673E-3,5.200648E-3],"split_indices":[941,690,132,967,7,431,713,249,657,0,0,0,820,527,464,0,0,0,0,0,0,0,0,0,0,0,0],"split_type":[0,0,0,0,0,0,0,0,0,0,0,0,0,0,0,0,0,0,0,0,0,0,0,0,0,0,0],"sum_hessian":[1.31E2,7.7E1,5.4E1,7.1E1,6E0,1.4E1,4E1,3E1,4.1E1,5E0,1E0,2E0,1.2E1,1E1,3E1,2E1,1E1,3.4E1,7E0,1E0,1E0,4E0,8E0,6E0,4E0,2E1,1E1],"tree_param":{"num_deleted":"0","num_feature":"1536","num_nodes":"27","size_leaf_vector":"0"}},{"base_weights":[1.6313942E-1,1.2330451E-1,2.8377026E-1,2.5061458E-1,9.639185E-2,6.0975206E-1,2.2902207E-1,3.833262E-1,1.433786E-1,3.8360648E-2,1.4712268E-1,7.586069E-2,2.8375685E-1,1.066761E-1,4.116552E-1,4.678929E-2,1.7375094E-1,-2.419503E-2,9.908963E-2,1.708513E-1,-7.687664E-2,7.577479E-3,1.08739376E-1,1.7672996E-1,3.2464674E-1],"categories":[],"categories_nodes":[],"categories_segments":[],"categories_sizes":[],"default_left":[1,1,1,1,1,0,1,1,1,1,1,1,1,0,0,0,0,0,0,0,0,0,0,0,0],"id":51,"left_children":[1,3,5,7,9,-1,11,13,15,17,19,21,23,-1,-1,-1,-1,-1,-1,-1,-1,-1,-1,-1,-1],"loss_changes":[5.993118E-1,3.2189417E-1,4.3145442E-1,1.8697405E-1,2.4459386E-1,0E0,2.2158837E-1,1.0946751E-2,2.4140373E-2,1.581541E-1,2.5231838E-1,1.938159E-2,3.4527898E-2,0E0,0E0,0E0,0E0,0E0,0E0,0E0,0E0,0E0,0E0,0E0,0E0],"parents":[2147483647,0,0,1,1,2,2,3,3,4,4,6,6,7,7,8,8,9,9,10,10,11,11,12,12],"right_children":[2,4,6,8,10,-1,12,14,16,18,20,22,24,-1,-1,-1,-1,-1,-1,-1,-1,-1,-1,-1,-1],"split_conditions":[-1.4640313E-3,-9.9887755E-3,-2.2486702E-2,-1.8418525E-4,2.4265097E-2,3.0487603E-2,-1.194048E-2,4.914617E-3,-1.9289557E-2,-2.4363782E-2,-4.027457E-3,1.31166205E-2,-2.0882472E-2,5.333805E-3,2.058276E-2,2.3394644E-3,8.687547E-3,-1.2097516E-3,4.9544815E-3,8.542566E-3,-3.843832E-3,3.7887396E-4,5.436969E-3,8.8364985E-3,1.6232338E-2],"split_indices":[350,30,651,1464,924,0,1276,6,30,627,1068,108,575,0,0,0,0,0,0,0,0,0,0,0,0],"split_type":[0,0,0,0,0,0,0,0,0,0,0,0,0,0,0,0,0,0,0,0,0,0,0,0,0],"sum_hessian":[1.31E2,1E2,3.1E1,1.6E1,8.4E1,3E0,2.8E1,6E0,1E1,4E1,4.4E1,8E0,2E1,1E0,5E0,3E0,7E0,2E1,2E1,4E1,4E0,3E0,5E0,7E0,1.3E1],"tree_param":{"num_deleted":"0","num_feature":"1536","num_nodes":"25","size_leaf_vector":"0"}},{"base_weights":[1.5579124E-1,2.4097717E-1,1.11926384E-1,4.0286416E-1,1.7480683E-1,9.764555E-2,3.9098263E-1,2.3129547E-1,5.968012E-1,1.6394377E-2,2.2484304E-1,1.20537944E-1,-1.8747624E-2,2.608956E-1,9.499669E-2,-4.765731E-2,5.6363106E-2,7.515075E-2,2.5850856E-1,1.6840361E-1,6.2087983E-2,-9.5420316E-2,6.026852E-2],"categories":[],"categories_nodes":[],"categories_segments":[],"categories_sizes":[],"default_left":[1,1,1,1,1,1,0,1,0,1,1,1,1,0,0,0,0,0,0,0,0,0,0],"id":52,"left_children":[1,3,5,7,9,11,-1,13,-1,15,17,19,21,-1,-1,-1,-1,-1,-1,-1,-1,-1,-1],"loss_changes":[4.6626854E-1,4.0090966E-1,3.1650102E-1,2.6124513E-1,2.5788367E-1,2.3140836E-1,0E0,7.4914694E-3,0E0,2.5726695E-2,1.0655975E-1,1.9098186E-1,9.662656E-2,0E0,0E0,0E0,0E0,0E0,0E0,0E0,0E0,0E0,0E0],"parents":[2147483647,0,0,1,1,2,2,3,3,4,4,5,5,7,7,9,9,10,10,11,11,12,12],"right_children":[2,4,6,8,10,12,-1,14,-1,16,18,20,22,-1,-1,-1,-1,-1,-1,-1,-1,-1,-1],"split_conditions":[-1.5474658E-2,1.244065E-2,5.272696E-3,5.484456E-3,6.87647E-4,1.3368552E-2,1.9549131E-2,-6.296008E-5,2.9840061E-2,2.8029526E-2,-1.0201447E-2,2.6356047E-3,-4.367638E-3,1.3044781E-2,4.7498345E-3,-2.3828656E-3,2.8181553E-3,3.7575376E-3,1.2925428E-2,8.4201805E-3,3.1043992E-3,-4.771016E-3,3.0134262E-3],"split_indices":[1180,550,1305,23,138,1508,0,80,0,155,981,429,385,0,0,0,0,0,0,0,0,0,0],"split_type":[0,0,0,0,0,0,0,0,0,0,0,0,0,0,0,0,0,0,0,0,0,0,0],"sum_hessian":[1.31E2,4.3E1,8.8E1,1.1E1,3.2E1,8.5E1,3E0,7E0,4E0,8E0,2.4E1,7.1E1,1.4E1,5E0,2E0,3E0,5E0,5E0,1.9E1,3.8E1,3.3E1,7E0,7E0],"tree_param":{"num_deleted":"0","num_feature":"1536","num_nodes":"23","size_leaf_vector":"0"}},{"base_weights":[1.4871429E-1,1.1180138E-1,2.6057336E-1,2.3274687E-1,8.629697E-2,1.799739E-1,4.7987503E-1,1.2025531E-1,3.4426796E-1,2.6627693E-2,1.412927E-1,5.565318E-2,2.1630396E-1,5.276021E-1,7.2892904E-2,4.1520566E-2,1.4806725E-1,1.498286E-1,3.8410965E-1,1.0579505E-1,-1.2509227E-2,-7.82634E-2,1.652049E-1,9.275463E-2,4.6384335E-3,3.7666142E-2,2.2413571E-1],"categories":[],"categories_nodes":[],"categories_segments":[],"categories_sizes":[],"default_left":[1,1,1,1,1,1,1,1,1,1,1,1,1,0,0,0,0,0,0,0,0,0,0,0,0,0,0],"id":53,"left_children":[1,3,5,7,9,11,13,15,17,19,21,23,25,-1,-1,-1,-1,-1,-1,-1,-1,-1,-1,-1,-1,-1,-1],"loss_changes":[5.159018E-1,2.914635E-1,4.79254E-1,1.7186803E-1,2.7516997E-1,1.0087645E-1,1.1693394E-1,1.5749827E-2,4.423678E-3,1.3145481E-1,2.4393255E-1,1.2818813E-2,1.813966E-2,0E0,0E0,0E0,0E0,0E0,0E0,0E0,0E0,0E0,0E0,0E0,0E0,0E0,0E0],"parents":[2147483647,0,0,1,1,2,2,3,3,4,4,5,5,6,6,7,7,8,8,9,9,10,10,11,11,12,12],"right_children":[2,4,6,8,10,12,14,16,18,20,22,24,26,-1,-1,-1,-1,-1,-1,-1,-1,-1,-1,-1,-1,-1,-1],"split_conditions":[-1.4640313E-3,-9.9887755E-3,1.5069101E-2,2.1600604E-2,-3.944765E-3,-1.8553583E-2,6.101883E-3,-1.9289557E-2,-2.6826095E-2,-1.0186939E-2,8.43057E-3,4.564822E-2,3.0636115E-2,2.6380105E-2,3.6446452E-3,2.0760284E-3,7.4033625E-3,7.49143E-3,1.9205483E-2,5.2897525E-3,-6.2546134E-4,-3.91317E-3,8.260245E-3,4.6377317E-3,2.3192167E-4,1.8833071E-3,1.1206786E-2],"split_indices":[350,30,132,1015,100,1355,24,30,20,210,1165,5,5,0,0,0,0,0,0,0,0,0,0,0,0,0,0],"split_type":[0,0,0,0,0,0,0,0,0,0,0,0,0,0,0,0,0,0,0,0,0,0,0,0,0,0,0],"sum_hessian":[1.31E2,1E2,3.1E1,1.6E1,8.4E1,2.4E1,7E0,9E0,7E0,4.1E1,4.3E1,6E0,1.8E1,6E0,1E0,3E0,6E0,2E0,5E0,1.3E1,2.8E1,4E0,3.9E1,3E0,3E0,1E0,1.7E1],"tree_param":{"num_deleted":"0","num_feature":"1536","num_nodes":"27","size_leaf_vector":"0"}},{"base_weights":[1.4198443E-1,1.0496252E-1,2.2757609E-1,1.7721964E-1,6.4810134E-2,2.944698E-1,5.2526068E-2,-3.142774E-2,2.2474971E-1,1.3329287E-1,2.3812313E-2,2.1754725E-1,4.5958284E-1,-6.92527E-2,1.0081373E-1,2.8206766E-2,-4.6067953E-2,1.1806885E-1,3.0222315E-1,-3.157708E-2,1.5960222E-1,-2.2386208E-2,8.763303E-2,2.450709E-1,8.045735E-2,5.0075597E-1,8.568537E-2,-8.988281E-2,-3.6811829E-3,4.948491E-2,1.1823066E-1],"categories":[],"categories_nodes":[],"categories_segments":[],"categories_sizes":[],"default_left":[1,1,1,1,1,1,1,1,1,1,1,1,1,1,1,0,0,0,0,0,0,0,0,0,0,0,0,0,0,0,0],"id":54,"left_children":[1,3,5,7,9,11,13,15,17,19,21,23,25,27,29,-1,-1,-1,-1,-1,-1,-1,-1,-1,-1,-1,-1,-1,-1,-1,-1],"loss_changes":[3.9439058E-1,2.6123607E-1,4.412129E-1,3.343252E-1,1.708999E-1,2.5564432E-1,7.754658E-2,7.41086E-3,1.8747008E-1,1.0480502E-1,1.1989867E-1,5.9519768E-2,8.024883E-2,5.080115E-3,2.1952838E-3,0E0,0E0,0E0,0E0,0E0,0E0,0E0,0E0,0E0,0E0,0E0,0E0,0E0,0E0,0E0,0E0],"parents":[2147483647,0,0,1,1,2,2,3,3,4,4,5,5,6,6,7,7,8,8,9,9,10,10,11,11,12,12,13,13,14,14],"right_children":[2,4,6,8,10,12,14,16,18,20,22,24,26,28,30,-1,-1,-1,-1,-1,-1,-1,-1,-1,-1,-1,-1,-1,-1,-1,-1],"split_conditions":[1.5390597E-2,-1.2323901E-2,1.7367087E-2,-8.148561E-3,1.0364857E-2,-1.9574473E-2,-9.521979E-3,1.2971528E-2,-1.9324778E-2,-3.8937278E-2,8.079633E-3,2.743142E-3,2.9842298E-2,1.8192742E-2,4.7176844E-3,1.4103383E-3,-2.3033977E-3,5.903443E-3,1.5111158E-2,-1.578854E-3,7.980111E-3,-1.1193104E-3,4.3816515E-3,1.2253545E-2,4.022868E-3,2.5037799E-2,4.2842687E-3,-4.494141E-3,-1.8405914E-4,2.4742454E-3,5.9115333E-3],"split_indices":[54,1336,1278,28,199,775,156,2,366,139,1161,387,2,2,2,0,0,0,0,0,0,0,0,0,0,0,0,0,0,0,0],"split_type":[0,0,0,0,0,0,0,0,0,0,0,0,0,0,0,0,0,0,0,0,0,0,0,0,0,0,0,0,0,0,0],"sum_hessian":[1.31E2,9.3E1,3.8E1,3.2E1,6.1E1,2.7E1,1.1E1,6E0,2.6E1,2.2E1,3.9E1,2E1,7E0,3E0,8E0,1E0,5E0,1.2E1,1.4E1,3E0,1.9E1,2.3E1,1.6E1,1.6E1,4E0,6E0,1E0,2E0,1E0,3E0,5E0],"tree_param":{"num_deleted":"0","num_feature":"1536","num_nodes":"31","size_leaf_vector":"0"}},{"base_weights":[1.3548435E-1,4.6796346E-1,1.2412466E-1,3.734244E-1,1.1106076E-1,8.2975276E-2,2.0020372E-1,-2.3643956E-2,1.0301148E-1,2.738341E-1,1.13226414E-1],"categories":[],"categories_nodes":[],"categories_segments":[],"categories_sizes":[],"default_left":[1,0,1,0,1,1,1,0,0,0,0],"id":55,"left_children":[1,-1,3,-1,5,7,9,-1,-1,-1,-1],"loss_changes":[4.404602E-1,0E0,3.7865758E-1,0E0,2.938373E-1,2.0751506E-1,1.547159E-1,0E0,0E0,0E0,0E0],"parents":[2147483647,0,0,2,2,4,4,5,5,6,6],"right_children":[2,-1,4,-1,6,8,10,-1,-1,-1,-1],"split_conditions":[-2.9434694E-2,2.3398174E-2,-1.9511333E-2,1.867122E-2,3.4055084E-2,-3.2553054E-2,-1.5453129E-2,-1.1821978E-3,5.1505743E-3,1.3691706E-2,5.661321E-3],"split_indices":[880,0,1334,0,87,762,826,0,0,0,0],"split_type":[0,0,0,0,0,0,0,0,0,0,0],"sum_hessian":[1.31E2,3E0,1.28E2,5E0,1.23E2,9.5E1,2.8E1,1.5E1,8E1,1.4E1,1.4E1],"tree_param":{"num_deleted":"0","num_feature":"1536","num_nodes":"11","size_leaf_vector":"0"}},{"base_weights":[1.2920552E-1,2.3860736E-1,9.745688E-2,3.9640284E-1,1.5961847E-1,1.9087967E-1,5.7003327E-2,4.9356538E-1,2.1995974E-1,1.7596988E-1,2.8534334E-3,2.3445827E-1,3.6283925E-2,2.7079678E-1,4.0918034E-2,1.1920118E-1,2.1514158E-1,2.705766E-1,1.283995E-1,5.6748357E-2,-5.3483546E-2,1.0141936E-1,5.052418E-3],"categories":[],"categories_nodes":[],"categories_segments":[],"categories_sizes":[],"default_left":[1,1,1,1,1,1,1,0,0,1,0,1,1,0,1,0,0,0,0,0,0,0,0],"id":56,"left_children":[1,3,5,7,9,11,13,-1,-1,15,-1,17,19,-1,21,-1,-1,-1,-1,-1,-1,-1,-1],"loss_changes":[4.352293E-1,2.9818547E-1,3.8216472E-1,4.5728445E-2,5.332774E-2,2.0034194E-1,2.4340037E-1,0E0,0E0,1.6605675E-2,0E0,5.7194114E-2,1.7731424E-2,0E0,1.5138179E-1,0E0,0E0,0E0,0E0,0E0,0E0,0E0,0E0],"parents":[2147483647,0,0,1,1,2,2,3,3,4,4,5,5,6,6,9,9,11,11,12,12,14,14],"right_children":[2,4,6,8,10,12,14,-1,-1,16,-1,18,20,-1,22,-1,-1,-1,-1,-1,-1,-1,-1],"split_conditions":[-9.372107E-4,1.4329983E-2,-8.057376E-3,-1.5995229E-2,3.3142768E-2,6.929986E-3,-6.593027E-3,2.467827E-2,1.0997987E-2,-8.893783E-3,1.4267168E-4,1.0515671E-2,9.133516E-3,1.3539839E-2,7.132141E-3,5.9600594E-3,1.0757079E-2,1.352883E-2,6.4199753E-3,2.8374179E-3,-2.6741773E-3,5.070968E-3,2.526209E-4],"split_indices":[717,289,30,33,769,1217,1425,0,0,1180,0,608,32,0,1182,0,0,0,0,0,0,0,0],"split_type":[0,0,0,0,0,0,0,0,0,0,0,0,0,0,0,0,0,0,0,0,0,0,0],"sum_hessian":[1.31E2,2.8E1,1.03E2,8E0,2E1,3E1,7.3E1,4E0,4E0,1.8E1,2E0,2.3E1,7E0,4E0,6.9E1,9E0,9E0,1.6E1,7E0,6E0,1E0,2.5E1,4.4E1],"tree_param":{"num_deleted":"0","num_feature":"1536","num_nodes":"23","size_leaf_vector":"0"}},{"base_weights":[1.23438545E-1,1.6697754E-1,5.9447993E-2,2.494311E-1,1.0096868E-1,9.02626E-2,-4.7050174E-2,5.224826E-1,2.061525E-1,4.405172E-2,1.6391893E-1,-7.925611E-3,1.285266E-1,-8.7502494E-2,1.472795E-2,5.0058465E-2,2.3424526E-1,-1.9437691E-2,9.532467E-2,9.97789E-2,2.2449508E-1,3.8326368E-2,-8.959405E-2,2.2420676E-2,1.7798558E-1,-4.06802E-2,-1.0745983E-1,-1.3212824E-2,7.721591E-2],"categories":[],"categories_nodes":[],"categories_segments":[],"categories_sizes":[],"default_left":[1,1,1,1,1,1,1,0,1,1,1,1,1,1,1,0,0,0,0,0,0,0,0,0,0,0,0,0,0],"id":57,"left_children":[1,3,5,7,9,11,13,-1,15,17,19,21,23,25,27,-1,-1,-1,-1,-1,-1,-1,-1,-1,-1,-1,-1,-1,-1],"loss_changes":[3.5783672E-1,3.99343E-1,1.8474033E-1,2.9407692E-1,1.5401125E-1,1.6257286E-1,3.3776626E-2,0E0,1.242125E-1,8.323513E-2,5.9192598E-2,5.253907E-2,1.5869403E-1,3.1041019E-3,1.1496012E-2,0E0,0E0,0E0,0E0,0E0,0E0,0E0,0E0,0E0,0E0,0E0,0E0,0E0,0E0],"parents":[2147483647,0,0,1,1,2,2,3,3,4,4,5,5,6,6,8,8,9,9,10,10,11,11,12,12,13,13,14,14],"right_children":[2,4,6,8,10,12,14,-1,16,18,20,22,24,26,28,-1,-1,-1,-1,-1,-1,-1,-1,-1,-1,-1,-1,-1,-1],"split_conditions":[-3.8415978E-3,-6.4230068E-3,6.901857E-3,-3.240708E-2,-1.2780104E-2,-1.2243428E-2,6.5647177E-3,2.612413E-2,-1.9864535E-2,1.1841409E-3,-6.104066E-3,9.166574E-3,-8.511926E-3,-1.29242465E-2,8.473655E-3,2.5029234E-3,1.1712263E-2,-9.718846E-4,4.7662337E-3,4.988945E-3,1.1224754E-2,1.9163184E-3,-4.4797026E-3,1.1210338E-3,8.899279E-3,-2.0340101E-3,-5.3729913E-3,-6.6064124E-4,3.8607956E-3],"split_indices":[941,1185,485,830,283,647,535,0,379,974,230,7,1174,55,12,0,0,0,0,0,0,0,0,0,0,0,0,0,0],"split_type":[0,0,0,0,0,0,0,0,0,0,0,0,0,0,0,0,0,0,0,0,0,0,0,0,0,0,0,0,0],"sum_hessian":[1.31E2,7.7E1,5.4E1,3.3E1,4.4E1,4.2E1,1.2E1,3E0,3E1,2.4E1,2E1,1.2E1,3E1,7E0,5E0,5E0,2.5E1,1.1E1,1.3E1,1.1E1,9E0,8E0,4E0,1E1,2E1,3E0,4E0,4E0,1E0],"tree_param":{"num_deleted":"0","num_feature":"1536","num_nodes":"29","size_leaf_vector":"0"}},{"base_weights":[1.1774843E-1,8.675745E-2,2.1188408E-1,1.4097269E-1,4.577418E-2,1.6794051E-1,4.7750401E-1,2.1498775E-1,7.341961E-2,-2.2689143E-2,9.014489E-2,2.3221241E-1,8.249116E-2,2.7015287E-1,9.8470986E-2,1.8612236E-2,1.6269721E-1,9.084369E-2,-6.558029E-2,1.3835852E-1,2.8120328E-2,1.0033369E-2,1.10470936E-1],"categories":[],"categories_nodes":[],"categories_segments":[],"categories_sizes":[],"default_left":[1,1,1,1,1,1,0,1,1,1,1,0,1,0,0,0,0,0,0,0,0,0,0],"id":58,"left_children":[1,3,5,7,9,11,-1,13,15,17,19,-1,21,-1,-1,-1,-1,-1,-1,-1,-1,-1,-1],"loss_changes":[3.6670864E-1,2.1796077E-1,2.93321E-1,1.9921339E-1,1.8127355E-1,1.4011234E-1,0E0,1.01950884E-1,1.1440554E-1,1.2282686E-1,1.0376474E-1,0E0,2.7274542E-2,0E0,0E0,0E0,0E0,0E0,0E0,0E0,0E0,0E0,0E0],"parents":[2147483647,0,0,1,1,2,2,3,3,4,4,5,5,7,7,8,8,9,9,10,10,12,12],"right_children":[2,4,6,8,10,12,-1,14,16,18,20,-1,22,-1,-1,-1,-1,-1,-1,-1,-1,-1,-1],"split_conditions":[-1.4640313E-3,-2.0991676E-2,2.088663E-2,4.614096E-2,-4.851822E-3,2.9281335E-2,2.3875201E-2,1.1645623E-2,-2.1063944E-3,-2.5883147E-2,-2.2914805E-3,1.1610621E-2,-4.3772735E-2,1.3507644E-2,4.9235495E-3,9.306118E-4,8.134861E-3,4.5421845E-3,-3.2790147E-3,6.917926E-3,1.4060164E-3,5.016685E-4,5.523547E-3],"split_indices":[350,107,1006,1240,1157,693,0,226,486,1322,457,0,3,0,0,0,0,0,0,0,0,0,0],"split_type":[0,0,0,0,0,0,0,0,0,0,0,0,0,0,0,0,0,0,0,0,0,0,0],"sum_hessian":[1.31E2,1E2,3.1E1,4.2E1,5.8E1,2.8E1,3E0,1.9E1,2.3E1,2.3E1,3.5E1,1.5E1,1.3E1,1.2E1,7E0,1.5E1,8E0,6E0,1.7E1,1.9E1,1.6E1,4E0,9E0],"tree_param":{"num_deleted":"0","num_feature":"1536","num_nodes":"23","size_leaf_vector":"0"}},{"base_weights":[1.1245643E-1,1.0390296E-1,4.4562134E-1,7.522762E-2,1.7394564E-1,2.2512633E-1,5.670745E-2,-1.0613352E-2,1.9054241E-1,4.8173636E-2,2.9408124E-1,1.17248744E-1,2.326198E-2,-3.35297E-2,8.201997E-3,2.568377E-1,1.3129382E-1],"categories":[],"categories_nodes":[],"categories_segments":[],"categories_sizes":[],"default_left":[1,1,0,1,1,1,1,1,1,0,0,0,0,0,0,0,0],"id":59,"left_children":[1,3,-1,5,7,9,11,13,15,-1,-1,-1,-1,-1,-1,-1,-1],"loss_changes":[3.2986116E-1,2.480191E-1,0E0,2.4819183E-1,1.15356445E-1,1.0785055E-1,1.6938326E-1,1.9997268E-3,9.982753E-2,0E0,0E0,0E0,0E0,0E0,0E0,0E0,0E0],"parents":[2147483647,0,0,1,1,3,3,4,4,5,5,6,6,7,7,8,8],"right_children":[2,4,-1,6,8,10,12,14,16,-1,-1,-1,-1,-1,-1,-1,-1],"split_conditions":[2.4805423E-2,-4.0931986E-3,2.2281067E-2,-3.4124576E-2,2.921342E-3,-1.3265024E-2,7.740382E-3,-1.4925662E-3,7.198504E-3,2.408682E-3,1.4704063E-2,5.862437E-3,1.163099E-3,-1.676485E-3,4.1009983E-4,1.2841885E-2,6.564691E-3],"split_indices":[1259,1254,0,1296,1003,46,1006,17,1436,0,0,0,0,0,0,0,0],"split_type":[0,0,0,0,0,0,0,0,0,0,0,0,0,0,0,0,0],"sum_hessian":[1.31E2,1.29E2,2E0,9.3E1,3.6E1,9E0,8.4E1,3E0,3.3E1,3E0,6E0,2.9E1,5.5E1,1E0,2E0,1.4E1,1.9E1],"tree_param":{"num_deleted":"0","num_feature":"1536","num_nodes":"17","size_leaf_vector":"0"}},{"base_weights":[1.0732271E-1,9.903304E-2,4.307672E-1,1.9029838E-1,7.4386925E-2,5.9255566E-2,2.2491749E-1,1.20126516E-1,3.303644E-2,6.515741E-2,1.192224E-2,2.5482342E-1,1.2870224E-1,1.5346298E-1,4.550507E-3,5.83425E-2,-5.515611E-2],"categories":[],"categories_nodes":[],"categories_segments":[],"categories_sizes":[],"default_left":[1,1,0,1,1,1,1,1,1,0,0,0,0,0,0,0,0],"id":60,"left_children":[1,3,-1,5,7,9,11,13,15,-1,-1,-1,-1,-1,-1,-1,-1],"loss_changes":[3.1126428E-1,2.782581E-1,0E0,1.09160125E-1,1.9273221E-1,1.1786558E-3,2.7629256E-2,1.8809354E-1,1.281991E-1,0E0,0E0,0E0,0E0,0E0,0E0,0E0,0E0],"parents":[2147483647,0,0,1,1,3,3,4,4,5,5,6,6,7,7,8,8],"right_children":[2,4,-1,6,8,10,12,14,16,-1,-1,-1,-1,-1,-1,-1,-1],"split_conditions":[2.4805423E-2,-9.9887755E-3,2.153836E-2,2.0501695E-3,-1.0543364E-2,-2.471911E-2,-1.2258494E-2,1.8921731E-2,9.796331E-3,3.2578707E-3,5.9611205E-4,1.2741171E-2,6.435112E-3,7.673149E-3,2.2752535E-4,2.9171251E-3,-2.7578056E-3],"split_indices":[1259,30,0,572,766,3,1369,578,530,0,0,0,0,0,0,0,0],"split_type":[0,0,0,0,0,0,0,0,0,0,0,0,0,0,0,0,0],"sum_hessian":[1.31E2,1.29E2,2E0,2.6E1,1.03E2,6E0,2E1,4.8E1,5.5E1,5E0,1E0,1.4E1,6E0,3.7E1,1.1E1,4.3E1,1.2E1],"tree_param":{"num_deleted":"0","num_feature":"1536","num_nodes":"17","size_leaf_vector":"0"}},{"base_weights":[1.02355264E-1,4.164084E-1,9.4320536E-2,8.382489E-2,2.6676896E-1,1.24126166E-1,3.8768098E-2,7.6247126E-2,1.9768274E-1,-3.6896244E-2,6.7120954E-2],"categories":[],"categories_nodes":[],"categories_segments":[],"categories_sizes":[],"default_left":[1,0,1,1,0,1,1,0,0,0,0],"id":61,"left_children":[1,-1,3,5,-1,7,9,-1,-1,-1,-1],"loss_changes":[2.938038E-1,0E0,2.1293259E-1,2.2035283E-1,0E0,2.1384537E-1,1.3119452E-1,0E0,0E0,0E0,0E0],"parents":[2147483647,0,0,2,2,3,3,5,5,6,6],"right_children":[2,-1,4,6,-1,8,10,-1,-1,-1,-1],"split_conditions":[-3.0180763E-2,2.082042E-2,5.272696E-3,-2.1574467E-2,1.33384485E-2,-2.4437008E-3,-8.530403E-3,3.8123564E-3,9.884137E-3,-1.8448122E-3,3.3560477E-3],"split_indices":[884,0,1305,1363,0,284,362,0,0,0,0],"split_type":[0,0,0,0,0,0,0,0,0,0,0],"sum_hessian":[1.31E2,2E0,1.29E2,1.23E2,6E0,6.4E1,5.9E1,4E1,2.4E1,1.6E1,4.3E1],"tree_param":{"num_deleted":"0","num_feature":"1536","num_nodes":"11","size_leaf_vector":"0"}},{"base_weights":[9.761148E-2,3.7726372E-1,8.818342E-2,6.4622976E-2,1.605802E-1,4.4943284E-2,1.5690482E-1,8.145731E-2,2.2966684E-1,1.7056223E-2,1.0895901E-1,2.1473369E-1,4.3615904E-2,-1.679788E-2,1.2764584E-1,3.031449E-1,1.5526552E-1],"categories":[],"categories_nodes":[],"categories_segments":[],"categories_sizes":[],"default_left":[1,0,1,1,1,1,1,1,1,0,0,0,0,0,0,0,0],"id":62,"left_children":[1,-1,3,5,7,9,11,13,15,-1,-1,-1,-1,-1,-1,-1,-1],"loss_changes":[3.147602E-1,0E0,2.0965827E-1,1.727399E-1,1.5074831E-1,1.4631402E-1,1.0200748E-1,7.4756384E-2,4.0401876E-2,0E0,0E0,0E0,0E0,0E0,0E0,0E0,0E0],"parents":[2147483647,0,0,2,2,3,3,4,4,5,5,6,6,7,7,8,8],"right_children":[2,-1,4,6,8,10,12,14,16,-1,-1,-1,-1,-1,-1,-1,-1],"split_conditions":[-2.9434694E-2,1.8863186E-2,4.29536E-2,3.981797E-3,7.934282E-3,5.457424E-3,-1.0675473E-2,4.920923E-3,4.9649365E-3,8.5281115E-4,5.4479507E-3,1.0736684E-2,2.1807952E-3,-8.39894E-4,6.3822917E-3,1.5157245E-2,7.7632763E-3],"split_indices":[880,0,1017,470,899,1195,313,1032,535,0,0,0,0,0,0,0,0],"split_type":[0,0,0,0,0,0,0,0,0,0,0,0,0,0,0,0,0],"sum_hessian":[1.31E2,3E0,1.28E2,9.8E1,3E1,8.2E1,1.6E1,1.5E1,1.5E1,5.8E1,2.4E1,1E1,6E0,5E0,1E1,6E0,9E0],"tree_param":{"num_deleted":"0","num_feature":"1536","num_nodes":"17","size_leaf_vector":"0"}},{"base_weights":[9.323504E-2,3.6311632E-1,8.414387E-2,1.6273738E-1,6.2724754E-2,6.859402E-2,2.140809E-1,1.195937E-1,3.0383328E-2,-5.9176288E-3,8.580968E-2,1.502309E-1,3.0610073E-1,1.493297E-1,1.048949E-2,-3.5255503E-2,5.7099856E-2],"categories":[],"categories_nodes":[],"categories_segments":[],"categories_sizes":[],"default_left":[1,0,1,1,1,1,1,1,1,0,0,0,0,0,0,0,0],"id":63,"left_children":[1,-1,3,5,7,9,11,13,15,-1,-1,-1,-1,-1,-1,-1,-1],"loss_changes":[2.9331255E-1,0E0,2.0695138E-1,1.15823984E-1,1.858063E-1,1.4618233E-2,5.3897083E-2,1.1847359E-1,1.19507074E-1,0E0,0E0,0E0,0E0,0E0,0E0,0E0,0E0],"parents":[2147483647,0,0,2,2,3,3,4,4,5,5,6,6,7,7,8,8],"right_children":[2,-1,4,6,8,10,12,14,16,-1,-1,-1,-1,-1,-1,-1,-1],"split_conditions":[-2.9434694E-2,1.8155817E-2,-9.372107E-4,1.33987535E-2,-2.5677878E-2,-1.1148386E-2,-4.12165E-3,-4.4116164E-3,-9.305278E-3,-2.9588144E-4,4.290484E-3,7.511545E-3,1.5305037E-2,7.4664853E-3,5.244745E-4,-1.7627751E-3,2.8549929E-3],"split_indices":[880,0,717,1124,713,21,743,574,362,0,0,0,0,0,0,0,0],"split_type":[0,0,0,0,0,0,0,0,0,0,0,0,0,0,0,0,0],"sum_hessian":[1.31E2,3E0,1.28E2,2.6E1,1.02E2,1E1,1.6E1,3.6E1,6.6E1,2E0,8E0,1.1E1,5E0,2.8E1,8E0,1.9E1,4.7E1],"tree_param":{"num_deleted":"0",