{"learner":{"attributes":{"best_iteration":"199","best_ntree_limit":"200"},"feature_names":[],"feature_types":[],"gradient_booster":{"model":{"gbtree_model_param":{"num_parallel_tree":"1","num_trees":"200","size_leaf_vector":"0"},"tree_info":[0,0,0,0,0,0,0,0,0,0,0,0,0,0,0,0,0,0,0,0,0,0,0,0,0,0,0,0,0,0,0,0,0,0,0,0,0,0,0,0,0,0,0,0,0,0,0,0,0,0,0,0,0,0,0,0,0,0,0,0,0,0,0,0,0,0,0,0,0,0,0,0,0,0,0,0,0,0,0,0,0,0,0,0,0,0,0,0,0,0,0,0,0,0,0,0,0,0,0,0,0,0,0,0,0,0,0,0,0,0,0,0,0,0,0,0,0,0,0,0,0,0,0,0,0,0,0,0,0,0,0,0,0,0,0,0,0,0,0,0,0,0,0,0,0,0,0,0,0,0,0,0,0,0,0,0,0,0,0,0,0,0,0,0,0,0,0,0,0,0,0,0,0,0,0,0,0,0,0,0,0,0,0,0,0,0,0,0,0,0,0,0,0,0,0,0,0,0,0,0],"trees":[{"base_weights":[2.6859848E0,1.4447619E0,2.8947322E0,7.978571E-1,2.39625E0,7.5E-1,2.987944E0,4.4444445E-1,1.1949999E0,2.6200001E0,4.1500002E-1,4E-1,1.25E0,2.230294E0,3.2956758E0,1.4544444E0,2.9205883E0,3.3950706E0,7.075E-1],"categories":[],"categories_nodes":[],"categories_segments":[],"categories_sizes":[],"default_left":[1,1,1,1,1,1,1,0,0,0,0,0,0,1,1,0,0,0,0],"id":0,"left_children":[1,3,5,7,9,11,13,-1,-1,-1,-1,-1,-1,15,17,-1,-1,-1,-1],"loss_changes":[3.0019287E1,1.1014103E1,2.0149475E1,1.4338627E0,2.459137E0,5.4999995E-1,1.7596985E1,0E0,0E0,0E0,0E0,0E0,0E0,1.3961365E1,1.6634521E1,0E0,0E0,0E0,0E0],"parents":[2147483647,0,0,1,1,2,2,3,3,4,4,5,5,6,6,13,13,14,14],"right_children":[2,4,6,8,10,12,14,-1,-1,-1,-1,-1,-1,16,18,-1,-1,-1,-1],"split_conditions":[-3.3235297E-2,3.2356948E-2,-1.2626648E-2,-1.2871379E-2,-1.2944864E-2,3.5398295E-3,-9.005757E-3,2.2222223E-2,5.975E-2,1.3100001E-1,2.0750001E-2,2.0000001E-2,6.25E-2,2.8469367E-3,1.5810331E-2,7.272222E-2,1.4602941E-1,1.6975354E-1,3.5375E-2],"split_indices":[474,1349,1147,47,14,1,1469,0,0,0,0,0,0,804,1469,0,0,0,0],"split_type":[0,0,0,0,0,0,0,0,0,0,0,0,0,0,0,0,0,0,0],"sum_hessian":[1.31E2,2E1,1.11E2,1.3E1,7E0,5E0,1.06E2,8E0,5E0,6E0,1E0,4E0,1E0,3.3E1,7.3E1,1.7E1,1.6E1,7E1,3E0],"tree_param":{"num_deleted":"0","num_feature":"1536","num_nodes":"19","size_leaf_vector":"0"}},{"base_weights":[2.5572925E0,9.8613197E-1,2.7061908E0,5.899293E-1,2.1101644E0,1.4790088E0,2.9082522E0,8.2295835E-1,3.9967364E-1,7.589097E-1,2.3742812E0,3.0242364E0,1.1674082E0,4.0952381E-1,1.0400417E0,3.129357E0,1.2556677E0,1.5349419E0,4.1613892E-1],"categories":[],"categories_nodes":[],"categories_segments":[],"categories_sizes":[],"default_left":[1,1,1,1,0,1,1,0,0,1,0,1,1,0,0,0,0,0,0],"id":1,"left_children":[1,3,5,7,-1,9,11,-1,-1,13,-1,15,17,-1,-1,-1,-1,-1,-1],"loss_changes":[2.8211792E1,4.544631E0,2.545465E1,1.5877151E-1,0E0,1.0447147E1,1.7064331E1,0E0,0E0,7.527609E-1,0E0,1.37323E1,1.5701847E0,0E0,0E0,0E0,0E0,0E0,0E0],"parents":[2147483647,0,0,1,1,2,2,3,3,5,5,6,6,9,9,11,11,12,12],"right_children":[2,4,6,8,-1,10,12,-1,-1,14,-1,16,18,-1,-1,-1,-1,-1,-1],"split_conditions":[-1.4384818E-2,5.917848E-3,-3.3235297E-2,-1.8439341E-2,1.0550822E-1,1.7827343E-2,1.6228028E-2,4.1147918E-2,1.9983683E-2,-1.2871379E-2,1.1871406E-1,-5.508149E-3,1.04348315E-2,2.047619E-2,5.2002084E-2,1.5646785E-1,6.278338E-2,7.67471E-2,2.0806946E-2],"split_indices":[1357,232,474,76,0,85,276,0,0,47,0,1394,18,0,0,0,0,0,0],"split_type":[0,0,0,0,0,0,0,0,0,0,0,0,0,0,0,0,0,0,0],"sum_hessian":[1.31E2,1.2E1,1.19E2,1E1,2E0,1.8E1,1.01E2,3E0,7E0,1.1E1,7E0,9.4E1,7E0,6E0,5E0,8.8E1,6E0,4E0,3E0],"tree_param":{"num_deleted":"0","num_feature":"1536","num_nodes":"19","size_leaf_vector":"0"}},{"base_weights":[2.4345386E0,9.4964373E-1,2.5751145E0,5.659902E-1,2.0398254E0,1.4151211E0,2.7659454E0,3.8218787E-1,7.9209733E-1,6.608263E-1,2.1798012E0,1.3388321E0,2.906514E0,3.919728E-1,9.0505594E-1,5.291239E-1,2.3199954E0,1.6805341E0,3.2072014E-1,2.3666626E-1,2.9632142E0],"categories":[],"categories_nodes":[],"categories_segments":[],"categories_sizes":[],"default_left":[1,1,1,1,0,1,1,0,0,1,1,1,1,0,0,0,0,0,0,0,0],"id":2,"left_children":[1,3,5,7,-1,9,11,-1,-1,13,15,17,19,-1,-1,-1,-1,-1,-1,-1,-1],"loss_changes":[2.5108276E1,4.282756E0,2.2649414E1,1.5441918E-1,0E0,9.51862E0,1.6570496E1,0E0,0E0,3.6752462E-1,8.551712E-1,3.287819E0,1.3225769E1,0E0,0E0,0E0,0E0,0E0,0E0,0E0,0E0],"parents":[2147483647,0,0,1,1,2,2,3,3,5,5,6,6,9,9,10,10,11,11,12,12],"right_children":[2,4,6,8,-1,10,12,-1,-1,14,16,18,20,-1,-1,-1,-1,-1,-1,-1,-1],"split_conditions":[-1.4384818E-2,3.7965193E-2,-3.3235297E-2,1.1078481E-2,1.0199127E-1,9.949376E-3,-1.2227347E-2,1.9109394E-2,3.960487E-2,-1.2721937E-2,2.252425E-2,3.567913E-2,-3.8073204E-2,1.959864E-2,4.5252796E-2,2.6456196E-2,1.1599977E-1,8.402671E-2,1.6036008E-2,1.1833313E-2,1.4816071E-1],"split_indices":[1357,130,474,72,0,1049,424,0,0,47,16,438,506,0,0,0,0,0,0,0,0],"split_type":[0,0,0,0,0,0,0,0,0,0,0,0,0,0,0,0,0,0,0,0,0],"sum_hessian":[1.31E2,1.2E1,1.19E2,1E1,2E0,1.8E1,1.01E2,7E0,3E0,1E1,8E0,1E1,9.1E1,6E0,4E0,1E0,7E0,7E0,3E0,2E0,8.9E1],"tree_param":{"num_deleted":"0","num_feature":"1536","num_nodes":"21","size_leaf_vector":"0"}},{"base_weights":[2.31757E0,3.5469007E-1,2.4082253E0,1.6891513E0,2.6995397E0,2.4907415E0,1.2406393E0,9.2313737E-1,2.841659E0,3.963246E-1,2.6322494E0,9.2263293E-1,2.1998894E0,2.811154E-1,1.2521275E0,4.7661945E-1,2.9265118E0],"categories":[],"categories_nodes":[],"categories_segments":[],"categories_sizes":[],"default_left":[1,0,1,1,1,1,1,1,1,0,0,0,0,0,0,0,0],"id":3,"left_children":[1,-1,3,5,7,9,11,13,15,-1,-1,-1,-1,-1,-1,-1,-1],"loss_changes":[2.2634644E1,0E0,2.1834106E1,1.0931282E1,1.9593323E1,2.8096619E0,6.2066E0,1.337759E0,1.4860291E1,0E0,0E0,0E0,0E0,0E0,0E0,0E0,0E0],"parents":[2147483647,0,0,2,2,3,3,4,4,5,5,6,6,7,7,8,8],"right_children":[2,-1,4,6,8,10,12,14,16,-1,-1,-1,-1,-1,-1,-1,-1],"split_conditions":[-1.619812E-2,1.7734503E-2,-1.345383E-2,-9.067008E-3,-3.5167493E-2,-3.683452E-2,2.1366145E-2,6.537019E-4,-1.396904E-2,1.9816231E-2,1.3161246E-1,4.6131648E-2,1.0999447E-1,1.4055771E-2,6.260638E-2,2.3830973E-2,1.4632559E-1],"split_indices":[1357,0,993,725,1204,29,568,31,1431,0,0,0,0,0,0,0,0],"split_type":[0,0,0,0,0,0,0,0,0,0,0,0,0,0,0,0,0],"sum_hessian":[1.31E2,6E0,1.25E2,3.8E1,8.7E1,1.2E1,2.6E1,7E0,8E1,1E0,1.1E1,2.1E1,5E0,3E0,4E0,3E0,7.7E1],"tree_param":{"num_deleted":"0","num_feature":"1536","num_nodes":"17","size_leaf_vector":"0"}},{"base_weights":[2.2060256E0,1.6427344E0,2.587042E0,1.1006485E0,2.493799E0,2.8086197E0,1.6397903E0,7.95699E-1,1.9270864E0,2.9163625E0,5.583227E-1,1.5474313E-1,2.850272E0,2.1739552E0,9.2342657E-1,5.7678264E-1,1.270892E0,5.649788E-1,2.0267274E0,3.864165E-1,3.0503333E0,8.289803E-1,2.8341323E-1,6.867319E-1,2.9130366E0,1.0814198E0,2.469668E-1],"categories":[],"categories_nodes":[],"categories_segments":[],"categories_sizes":[],"default_left":[1,1,1,1,1,1,1,1,1,1,1,0,1,0,1,0,0,0,0,0,0,0,0,0,0,0,0],"id":4,"left_children":[1,3,5,7,9,11,13,15,17,19,21,-1,23,-1,25,-1,-1,-1,-1,-1,-1,-1,-1,-1,-1,-1,-1],"loss_changes":[2.4080444E1,2.309082E1,1.1555969E1,7.539406E0,1.5546829E1,6.30188E0,4.497669E0,2.179741E0,7.6438904E-2,4.583252E0,1.370877E-1,0E0,6.147156E0,0E0,6.948104E-1,0E0,0E0,0E0,0E0,0E0,0E0,0E0,0E0,0E0,0E0,0E0,0E0],"parents":[2147483647,0,0,1,1,2,2,3,3,4,4,5,5,6,6,7,7,8,8,9,9,10,10,12,12,14,14],"right_children":[2,4,6,8,10,12,14,16,18,20,22,-1,24,-1,26,-1,-1,-1,-1,-1,-1,-1,-1,-1,-1,-1,-1],"split_conditions":[3.1896763E-2,1.5493333E-2,-3.1965386E-2,1.8113839E-2,7.535168E-4,-1.5642472E-2,-4.7053094E-4,1.0404156E-2,-7.996575E-3,-3.6515065E-2,-1.6255198E-2,7.737157E-3,2.385478E-2,1.08697765E-1,1.5149094E-2,2.8839132E-2,6.35446E-2,2.824894E-2,1.01336375E-1,1.9320825E-2,1.5251666E-1,4.1449018E-2,1.4170662E-2,3.4336593E-2,1.4565183E-1,5.407099E-2,1.234834E-2],"split_indices":[1051,772,866,306,1243,306,347,1311,22,29,7,0,432,0,7,0,0,0,0,0,0,0,0,0,0,0,0],"split_type":[0,0,0,0,0,0,0,0,0,0,0,0,0,0,0,0,0,0,0,0,0,0,0,0,0,0,0],"sum_hessian":[1.31E2,5.5E1,7.6E1,3.5E1,2E1,6E1,1.6E1,2.7E1,8E0,1.6E1,4E0,1E0,5.9E1,8E0,8E0,2E1,7E0,1E0,7E0,1E0,1.5E1,1E0,3E0,2E0,5.7E1,6E0,2E0],"tree_param":{"num_deleted":"0","num_feature":"1536","num_nodes":"27","size_leaf_vector":"0"}},{"base_weights":[2.1018777E0,1.5686232E0,2.4624023E0,6.2402076E-1,1.9996449E0,1.5980442E0,2.7180016E0,8.443826E-1,3.8699558E-1,2.289261E0,6.274264E-1,4.898165E-1,2.038012E0,2.8113832E0,1.1658776E0,2.6515737E0,6.6825026E-1,8.2814234E-1,2.1967484E-1,2.7390128E-1,8.926538E-1,2.2268977E0,6.0313237E-1,7.2021097E-1,2.8779628E0],"categories":[],"categories_nodes":[],"categories_segments":[],"categories_sizes":[],"default_left":[1,1,1,1,1,1,1,0,0,1,1,1,1,1,0,0,0,0,0,0,0,0,0,0,0],"id":5,"left_children":[1,3,5,7,9,11,13,-1,-1,15,17,19,21,23,-1,-1,-1,-1,-1,-1,-1,-1,-1,-1,-1],"loss_changes":[2.1514648E1,2.1552246E1,1.266803E1,6.6562176E-1,1.3665497E1,8.753437E0,5.1288147E0,0E0,0E0,1.6434769E1,4.72816E-1,3.6435187E-1,2.4512825E0,5.445648E0,0E0,0E0,0E0,0E0,0E0,0E0,0E0,0E0,0E0,0E0,0E0],"parents":[2147483647,0,0,1,1,2,2,3,3,4,4,5,5,6,6,9,9,10,10,11,11,12,12,13,13],"right_children":[2,4,6,8,10,12,14,-1,-1,16,18,20,22,24,-1,-1,-1,-1,-1,-1,-1,-1,-1,-1,-1],"split_conditions":[3.1896763E-2,-2.374515E-3,-1.6215192E-2,-1.3105777E-2,5.626363E-4,-1.4918368E-2,-6.9602393E-3,4.221913E-2,1.934978E-2,1.1046694E-2,-3.244639E-2,-6.852316E-3,8.760675E-3,-1.6774971E-2,5.829388E-2,1.3257869E-1,3.3412512E-2,4.140712E-2,1.0983742E-2,1.3695064E-2,4.4632692E-2,1.1134489E-1,3.0156618E-2,3.601055E-2,1.4389814E-1],"split_indices":[1051,98,906,800,180,867,103,0,0,240,3,20,168,920,0,0,0,0,0,0,0,0,0,0,0],"split_type":[0,0,0,0,0,0,0,0,0,0,0,0,0,0,0,0,0,0,0,0,0,0,0,0,0],"sum_hessian":[1.31E2,5.5E1,7.6E1,1.8E1,3.7E1,1.9E1,5.7E1,8E0,1E1,3E1,7E0,6E0,1.3E1,5.3E1,4E0,2.4E1,6E0,4E0,3E0,5E0,1E0,1.1E1,2E0,2E0,5.1E1],"tree_param":{"num_deleted":"0","num_feature":"1536","num_nodes":"25","size_leaf_vector":"0"}},{"base_weights":[2.002223E0,1.5236589E0,2.3140028E0,1.1081326E0,2.3162332E0,2.4801543E0,7.6460105E-1,8.978788E-1,2.316232E0,2.3722208E0,6.8222165E-1,2.6152823E0,1.1060029E0,1.2279558E0,3.282644E-1,1.2709835E0,5.731565E-1,2.1326746E-1,2.6905406E0],"categories":[],"categories_nodes":[],"categories_segments":[],"categories_sizes":[],"default_left":[1,1,1,1,1,1,1,1,0,0,0,1,0,0,0,0,0,0,0],"id":6,"left_children":[1,3,5,7,9,11,13,15,-1,-1,-1,17,-1,-1,-1,-1,-1,-1,-1],"loss_changes":[1.6169495E1,1.5546761E1,1.8183624E1,7.572586E0,2.8335571E-2,1.010553E1,1.4165139E0,3.390812E0,0E0,0E0,0E0,1.0814819E1,0E0,0E0,0E0,0E0,0E0,0E0,0E0],"parents":[2147483647,0,0,1,1,2,2,3,3,4,4,5,5,6,6,7,7,11,11],"right_children":[2,4,6,8,10,12,14,16,-1,-1,-1,18,-1,-1,-1,-1,-1,-1,-1],"split_conditions":[1.059945E-3,-4.4257375E-3,-1.1688037E-2,1.3126242E-2,-9.667486E-3,-9.051097E-4,1.0408459E-3,-2.0809377E-2,1.158116E-1,1.1861104E-1,3.4111083E-2,-2.5847428E-3,5.5300146E-2,6.139779E-2,1.641322E-2,6.3549176E-2,2.8657824E-2,1.0663373E-2,1.3452703E-1],"split_indices":[1000,1134,465,494,13,1024,75,823,0,0,0,391,0,0,0,0,0,0,0],"split_type":[0,0,0,0,0,0,0,0,0,0,0,0,0,0,0,0,0,0,0],"sum_hessian":[1.31E2,5.4E1,7.7E1,3.7E1,1.7E1,6.9E1,8E0,3.3E1,4E0,1.6E1,1E0,6.2E1,7E0,3E0,5E0,1.4E1,1.9E1,2E0,6E1],"tree_param":{"num_deleted":"0","num_feature":"1536","num_nodes":"19","size_leaf_vector":"0"}},{"base_weights":[1.9069532E0,1.420448E0,2.2360096E0,9.83646E-1,2.2192912E0,2.3163638E0,6.156365E-1,7.295559E-1,2.2172008E0,2.520273E-1,2.5724015E0,2.3729575E0,2.048577E-1,6.8754727E-1,1.6399679E-1,5.214837E-1,1.0982927E0,6.651661E-1,2.3945744E0,3.953673E-1,2.424549E0],"categories":[],"categories_nodes":[],"categories_segments":[],"categories_sizes":[],"default_left":[1,1,1,1,1,1,1,1,1,0,0,1,0,0,0,0,0,0,0,0,0],"id":7,"left_children":[1,3,5,7,9,11,13,15,17,-1,-1,19,-1,-1,-1,-1,-1,-1,-1,-1,-1],"loss_changes":[1.7955444E1,1.735743E1,8.59967E0,1.0292919E1,1.2550255E1,8.237213E0,4.9633145E-2,1.9591465E0,5.8950424E-2,0E0,0E0,6.285309E0,0E0,0E0,0E0,0E0,0E0,0E0,0E0,0E0,0E0],"parents":[2147483647,0,0,1,1,2,2,3,3,4,4,5,5,6,6,7,7,8,8,11,11],"right_children":[2,4,6,8,10,12,14,16,18,-1,-1,20,-1,-1,-1,-1,-1,-1,-1,-1,-1],"split_conditions":[3.1896763E-2,-2.0877466E-2,2.7989635E-2,2.8279528E-2,1.5407E-3,2.872628E-2,1.3254788E-2,1.0957283E-2,-9.345392E-3,1.2601365E-2,1.2862007E-1,-1.2952232E-2,1.0242886E-2,3.4377363E-2,8.19984E-3,2.6074186E-2,5.4914635E-2,3.3258304E-2,1.1972872E-1,1.9768365E-2,1.2122746E-1],"split_indices":[1051,9,1338,858,6,750,0,750,0,0,0,244,0,0,0,0,0,0,0,0,0],"split_type":[0,0,0,0,0,0,0,0,0,0,0,0,0,0,0,0,0,0,0,0,0],"sum_hessian":[1.31E2,5.5E1,7.6E1,3.7E1,1.8E1,7.2E1,4E0,3.2E1,5E0,3E0,1.5E1,7E1,2E0,3E0,1E0,2.2E1,1E1,1E0,4E0,2E0,6.8E1],"tree_param":{"num_deleted":"0","num_feature":"1536","num_nodes":"21","size_leaf_vector":"0"}},{"base_weights":[1.8159163E0,1.3561255E0,2.1267262E0,9.4062096E-1,2.1157596E0,9.385767E-1,2.2508802E0,6.955323E-1,2.1318383E0,2.5467854E0,7.5740564E-1,1.1447612E-1,1.1576803E0,1.8085623E0,2.6530144E0,8.290938E-1,2.4724685E-1,1.1913763E0,2.4257627E-1,1.079281E0,2.128233E0,2.936692E0,1.8882143E0],"categories":[],"categories_nodes":[],"categories_segments":[],"categories_sizes":[],"default_left":[1,1,1,1,1,1,1,1,0,0,1,0,0,1,1,0,0,0,0,0,0,0,0],"id":8,"left_children":[1,3,5,7,9,11,13,15,-1,-1,17,-1,-1,19,21,-1,-1,-1,-1,-1,-1,-1,-1],"loss_changes":[1.5979675E1,1.5685234E1,9.245911E0,9.611485E0,9.195274E0,1.4925442E0,7.4749756E0,1.7708406E0,0E0,0E0,1.0515254E0,0E0,0E0,6.0957184E0,1.8314362E0,0E0,0E0,0E0,0E0,0E0,0E0,0E0,0E0],"parents":[2147483647,0,0,1,1,2,2,3,3,4,4,5,5,6,6,7,7,10,10,13,13,14,14],"right_children":[2,4,6,8,10,12,14,16,-1,-1,18,-1,-1,20,22,-1,-1,-1,-1,-1,-1,-1,-1],"split_conditions":[3.1896763E-2,-2.0877466E-2,-1.5662152E-2,2.8279528E-2,1.4188215E-2,1.9075096E-2,3.3174656E-2,3.0182824E-3,1.0659192E-1,1.2733927E-1,-1.64423E-2,5.723806E-3,5.7884015E-2,-3.8601547E-3,1.5279815E-2,4.145469E-2,1.2362342E-2,5.956882E-2,1.2128814E-2,5.396405E-2,1.0641165E-1,1.468346E-1,9.441072E-2],"split_indices":[1051,9,56,858,264,166,855,941,0,0,9,0,0,569,264,0,0,0,0,0,0,0,0],"split_type":[0,0,0,0,0,0,0,0,0,0,0,0,0,0,0,0,0,0,0,0,0,0,0],"sum_hessian":[1.31E2,5.5E1,7.6E1,3.7E1,1.8E1,8E0,6.8E1,3.2E1,5E0,1.3E1,5E0,2E0,6E0,3.5E1,3.3E1,2.4E1,8E0,2E0,3E0,1.2E1,2.3E1,2.2E1,1.1E1],"tree_param":{"num_deleted":"0","num_feature":"1536","num_nodes":"23","size_leaf_vector":"0"}},{"base_weights":[1.731368E0,7.9626644E-1,1.8912408E0,1.7867978E0,4.5809448E-1,1.972002E0,3.9810866E-1,6.897404E-1,2.2696829E-1,7.9432696E-1,2.0600333E0,2.3743871E-1,5.33189E-1,7.480285E-1,1.4086181E-1,2.4367417E-1,3.8307637E-2,8.741969E-1,7.7683926E-2,1.7592557E-1,2.1176798E0],"categories":[],"categories_nodes":[],"categories_segments":[],"categories_sizes":[],"default_left":[1,1,1,0,1,1,1,1,1,1,1,0,0,0,0,0,0,0,0,0,0],"id":9,"left_children":[1,3,5,-1,7,9,11,13,15,17,19,-1,-1,-1,-1,-1,-1,-1,-1,-1,-1],"loss_changes":[1.8227753E1,6.215847E0,1.2720673E1,0E0,7.536211E-1,9.352936E0,2.5323749E-2,1.5057611E-1,2.2182882E-2,4.4723272E-1,1.0271423E1,0E0,0E0,0E0,0E0,0E0,0E0,0E0,0E0,0E0,0E0],"parents":[2147483647,0,0,1,1,2,2,4,4,5,5,6,6,7,7,8,8,9,9,10,10],"right_children":[2,4,6,-1,8,10,12,14,16,18,20,-1,-1,-1,-1,-1,-1,-1,-1,-1,-1],"split_conditions":[-1.9987043E-2,8.61619E-3,6.2978663E-3,8.933989E-2,-7.1197418E-3,-2.3137165E-2,8.295601E-4,-3.0675847E-3,1.6722443E-2,3.431624E-2,2.5391998E-2,1.1871936E-2,2.665945E-2,3.7401427E-2,7.0430906E-3,1.2183709E-2,1.9153819E-3,4.3709844E-2,3.8841963E-3,8.796278E-3,1.0588399E-1],"split_indices":[80,710,725,0,1247,121,0,4,0,26,5,0,0,0,0,0,0,0,0,0,0],"split_type":[0,0,0,0,0,0,0,0,0,0,0,0,0,0,0,0,0,0,0,0,0],"sum_hessian":[1.31E2,2E1,1.11E2,4E0,1.6E1,1.05E2,6E0,7E0,9E0,8E0,9.7E1,4E0,2E0,6E0,1E0,8E0,1E0,7E0,1E0,3E0,9.4E1],"tree_param":{"num_deleted":"0","num_feature":"1536","num_nodes":"21","size_leaf_vector":"0"}},{"base_weights":[1.6474413E0,7.6349515E-1,1.7984718E0,1.8058484E0,4.8944473E-1,2.1354342E0,1.3830715E0,8.6540604E-1,3.2021248E-1,2.3115923E0,7.0145625E-1,1.7355734E0,7.146649E-1,5.0949913E-1,2.2227074E-1,3.8155308E-1,2.379799E0,1.529726E-1,9.9995196E-1,1.9828454E0,8.283904E-1,3.9522296E-1,1.0611801E0],"categories":[],"categories_nodes":[],"categories_segments":[],"categories_sizes":[],"default_left":[1,1,1,0,1,1,1,0,1,1,1,1,1,0,0,0,0,0,0,0,0,0,0],"id":10,"left_children":[1,3,5,-1,7,9,11,-1,13,15,17,19,21,-1,-1,-1,-1,-1,-1,-1,-1,-1,-1],"loss_changes":[1.6249268E1,5.1149416E0,1.2723663E1,0E0,8.681321E-1,1.3534912E1,1.1247231E1,0E0,1.4630008E-1,6.068939E0,1.1567953E0,5.9843445E0,1.7944269E0,0E0,0E0,0E0,0E0,0E0,0E0,0E0,0E0,0E0,0E0],"parents":[2147483647,0,0,1,1,2,2,4,4,5,5,6,6,8,8,9,9,10,10,11,11,12,12],"right_children":[2,4,6,-1,8,10,12,-1,14,16,18,20,22,-1,-1,-1,-1,-1,-1,-1,-1,-1,-1],"split_conditions":[-1.9987043E-2,-6.469793E-4,6.127354E-3,9.029242E-2,-3.437104E-2,2.668916E-2,-5.237882E-3,4.32703E-2,-2.3731895E-2,-1.9049678E-2,-1.6424257E-2,-7.288401E-3,3.2915734E-2,2.5474956E-2,1.11135375E-2,1.9077655E-2,1.18989944E-1,7.6486296E-3,4.9997598E-2,9.9142276E-2,4.141952E-2,1.9761149E-2,5.3059008E-2],"split_indices":[80,580,597,0,1039,779,725,0,179,983,39,109,559,0,0,0,0,0,0,0,0,0,0],"split_type":[0,0,0,0,0,0,0,0,0,0,0,0,0,0,0,0,0,0,0,0,0,0,0],"sum_hessian":[1.31E2,2E1,1.11E2,3E0,1.7E1,5.9E1,5.2E1,4E0,1.3E1,5.2E1,7E0,3.3E1,1.9E1,3E0,1E1,2E0,5E1,3E0,4E0,2.5E1,8E0,1.1E1,8E0],"tree_param":{"num_deleted":"0","num_feature":"1536","num_nodes":"23","size_leaf_vector":"0"}},{"base_weights":[1.5694574E0,1.0546385E0,1.7818282E0,1.406865E0,6.1445737E-1,1.2533534E0,2.0991807E0,5.765702E-1,1.6171534E0,3.7368762E-1,1.1139722E0,7.9889864E-1,1.741012E0,1.609912E-1,2.205852E0,1.8699273E0,8.420802E-1,2.2074933E-1,5.169386E-1,1.0453064E0,2.678225E-1,7.786671E-1,1.9772207E0,2.3063436E0,3.9824468E-1],"categories":[],"categories_nodes":[],"categories_segments":[],"categories_sizes":[],"default_left":[1,1,1,1,1,1,1,0,1,1,0,1,1,0,1,0,0,0,0,0,0,0,0,0,0],"id":11,"left_children":[1,3,5,7,9,11,13,-1,15,17,-1,19,21,-1,23,-1,-1,-1,-1,-1,-1,-1,-1,-1,-1],"loss_changes":[1.2552704E1,5.492325E0,1.2798553E1,2.9088287E0,1.9890838E0,6.8090057E0,1.1222824E1,0E0,1.7559776E0,2.145145E-1,0E0,2.46813E0,2.324749E0,0E0,8.708923E0,0E0,0E0,0E0,0E0,0E0,0E0,0E0,0E0,0E0,0E0],"parents":[2147483647,0,0,1,1,2,2,3,3,4,4,5,5,6,6,8,8,9,9,11,11,12,12,14,14],"right_children":[2,4,6,8,10,12,14,-1,16,18,-1,20,22,-1,24,-1,-1,-1,-1,-1,-1,-1,-1,-1,-1],"split_conditions":[1.0788883E-2,-1.3592566E-4,-1.3021104E-2,-9.75542E-3,-2.9225217E-4,1.754237E-2,-1.06507134E-4,2.8828511E-2,1.6904464E-2,2.2633035E-2,5.569861E-2,-8.872231E-4,2.545086E-2,8.049561E-3,1.2795646E-2,9.349637E-2,4.210401E-2,1.1037467E-2,2.5846932E-2,5.2265324E-2,1.3391125E-2,3.8933355E-2,9.886103E-2,1.1531718E-1,1.9912234E-2],"split_indices":[1497,1241,379,30,388,340,1526,0,1189,135,0,178,559,0,1534,0,0,0,0,0,0,0,0,0,0],"split_type":[0,0,0,0,0,0,0,0,0,0,0,0,0,0,0,0,0,0,0,0,0,0,0,0,0],"sum_hessian":[1.31E2,4E1,9.1E1,2.1E1,1.9E1,3.6E1,5.5E1,5E0,1.6E1,1.4E1,5E0,2E1,1.6E1,3E0,5.2E1,1.1E1,5E0,8E0,6E0,1.3E1,7E0,4E0,1.2E1,4.9E1,3E0],"tree_param":{"num_deleted":"0","num_feature":"1536","num_nodes":"25","size_leaf_vector":"0"}},{"base_weights":[1.4955583E0,7.98053E-1,1.6203291E0,4.3739498E-1,1.5084068E0,1.7631836E0,8.3581364E-1,7.0203686E-1,2.0840617E-1,1.9583434E0,1.1540152E0,5.405294E-1,1.5545038E0,6.0997587E-2,2.3763362E-1,2.0171893E0,4.978004E-1,1.5113074E0,3.5090584E-1,6.627444E-1,1.6355029E-1],"categories":[],"categories_nodes":[],"categories_segments":[],"categories_sizes":[],"default_left":[1,1,1,1,0,1,1,0,1,1,1,1,0,0,0,0,0,0,0,0,0],"id":12,"left_children":[1,3,5,7,-1,9,11,-1,13,15,17,19,-1,-1,-1,-1,-1,-1,-1,-1,-1],"loss_changes":[1.0194611E1,4.9765167E0,1.0966248E1,8.2329154E-1,0E0,8.796356E0,3.191886E0,0E0,2.8588682E-2,4.926178E0,6.6432915E0,5.8269596E-1,0E0,0E0,0E0,0E0,0E0,0E0,0E0,0E0,0E0],"parents":[2147483647,0,0,1,1,2,2,3,3,5,5,6,6,8,8,9,9,10,10,11,11],"right_children":[2,4,6,8,-1,10,12,-1,14,16,18,20,-1,-1,-1,-1,-1,-1,-1,-1,-1],"split_conditions":[-3.3038072E-2,1.7976437E-2,1.2537586E-2,-2.8145675E-2,7.542034E-2,1.7758481E-2,1.4532862E-2,3.5101842E-2,-3.6531277E-3,2.5688434E-2,4.608538E-3,-5.223602E-3,7.7725194E-2,3.0498793E-3,1.1881681E-2,1.0085946E-1,2.489002E-2,7.556537E-2,1.7545292E-2,3.313722E-2,8.177514E-3],"split_indices":[474,1090,257,1012,0,902,839,0,82,844,1149,1209,0,0,0,0,0,0,0,0,0],"split_type":[0,0,0,0,0,0,0,0,0,0,0,0,0,0,0,0,0,0,0,0,0],"sum_hessian":[1.31E2,2.1E1,1.1E2,1.5E1,6E0,9.2E1,1.8E1,6E0,9E0,6.8E1,2.4E1,1.4E1,4E0,2E0,7E0,6.5E1,3E0,1.6E1,8E0,1E1,4E0],"tree_param":{"num_deleted":"0","num_feature":"1536","num_nodes":"21","size_leaf_vector":"0"}},{"base_weights":[1.4242907E0,6.6150427E-1,1.5545962E0,1.5143026E0,3.7176922E-1,1.6815488E0,8.865369E-1,1.8054366E-1,5.6433004E-1,1.7554195E0,3.178537E-1,3.7896416E-1,1.4647964E0,1.953657E-1,2.3572683E-2,1.1652976E-1,6.116544E-1,6.4288044E-1,1.8289849E0,8.675039E-2,3.4672427E-1,1.23944916E-1,6.1332595E-1],"categories":[],"categories_nodes":[],"categories_segments":[],"categories_sizes":[],"default_left":[1,1,1,0,1,1,1,1,1,1,1,1,0,0,0,0,0,0,0,0,0,0,0],"id":13,"left_children":[1,3,5,-1,7,9,11,13,15,17,19,21,-1,-1,-1,-1,-1,-1,-1,-1,-1,-1,-1],"loss_changes":[1.2091766E1,4.625826E0,8.008209E0,0E0,5.240972E-1,8.810547E0,5.31507E0,1.8660963E-2,9.8258734E-2,6.0264893E0,9.954035E-3,6.411823E-1,0E0,0E0,0E0,0E0,0E0,0E0,0E0,0E0,0E0,0E0,0E0],"parents":[2147483647,0,0,1,1,2,2,4,4,5,5,6,6,7,7,8,8,9,9,10,10,11,11],"right_children":[2,4,6,-1,8,10,12,14,16,18,20,22,-1,-1,-1,-1,-1,-1,-1,-1,-1,-1,-1],"split_conditions":[-1.9987043E-2,8.61619E-3,4.9129706E-3,7.571513E-2,2.9642673E-5,6.597489E-3,4.5323963E-3,1.6722443E-2,-1.781272E-3,1.5567466E-2,4.8022484E-3,1.0171132E-2,7.3239826E-2,9.768285E-3,1.1786342E-3,5.826488E-3,3.058272E-2,3.214402E-2,9.1449246E-2,4.3375194E-3,1.7336214E-2,6.197246E-3,3.0666297E-2],"split_indices":[80,710,910,0,1149,624,59,0,0,296,7,409,0,0,0,0,0,0,0,0,0,0,0],"split_type":[0,0,0,0,0,0,0,0,0,0,0,0,0,0,0,0,0,0,0,0,0,0,0],"sum_hessian":[1.31E2,2E1,1.11E2,4E0,1.6E1,9.2E1,1.9E1,9E0,7E0,8.7E1,5E0,1.1E1,8E0,8E0,1E0,1E0,6E0,6E0,8.1E1,1E0,4E0,6E0,5E0],"tree_param":{"num_deleted":"0","num_feature":"1536","num_nodes":"23","size_leaf_vector":"0"}},{"base_weights":[1.3559431E0,6.342896E-1,1.4791465E0,1.5405582E0,3.9765826E-1,1.7749912E0,1.1163195E0,6.026976E-1,1.7335704E-1,1.9267583E0,5.476598E-1,7.68504E-1,1.5045756E0,6.50563E-1,1.0988712E-1,2.2983372E-2,1.8751152E-1,2.942431E-1,1.9850091E0,9.547972E-1,2.528145E-1,1.0462713E0,3.7632194E-1,1.5168709E-1,1.6906222E0],"categories":[],"categories_nodes":[],"categories_segments":[],"categories_sizes":[],"default_left":[1,1,1,0,1,1,1,1,1,1,1,1,1,0,0,0,0,0,0,0,0,0,0,0,0],"id":14,"left_children":[1,3,5,-1,7,9,11,13,15,17,19,21,23,-1,-1,-1,-1,-1,-1,-1,-1,-1,-1,-1,-1],"loss_changes":[1.0797928E1,3.8908663E0,1.0040695E1,0E0,7.233486E-1,1.0120895E1,6.000931E0,1.4080858E-1,1.6974926E-2,4.4559784E0,7.189536E-1,2.8743267E0,5.784359E0,0E0,0E0,0E0,0E0,0E0,0E0,0E0,0E0,0E0,0E0,0E0,0E0],"parents":[2147483647,0,0,1,1,2,2,4,4,5,5,6,6,7,7,8,8,9,9,10,10,11,11,12,12],"right_children":[2,4,6,-1,8,10,12,14,16,18,20,22,24,-1,-1,-1,-1,-1,-1,-1,-1,-1,-1,-1,-1],"split_conditions":[-1.9987043E-2,-6.469793E-4,6.127354E-3,7.702791E-2,-7.1197418E-3,2.668916E-2,-2.3097564E-2,-2.9597789E-2,-4.8840925E-2,-1.7871153E-2,-9.933289E-3,1.030882E-2,-2.0856129E-2,3.252815E-2,5.494356E-3,1.1491686E-3,9.375576E-3,1.4712155E-2,9.925046E-2,4.773986E-2,1.2640725E-2,5.2313566E-2,1.8816097E-2,7.5843544E-3,8.453111E-2],"split_indices":[80,580,597,0,1247,779,1212,3,3,30,30,337,1315,0,0,0,0,0,0,0,0,0,0,0,0],"split_type":[0,0,0,0,0,0,0,0,0,0,0,0,0,0,0,0,0,0,0,0,0,0,0,0,0],"sum_hessian":[1.31E2,2E1,1.11E2,3E0,1.7E1,5.9E1,5.2E1,8E0,9E0,5.2E1,7E0,2.9E1,2.3E1,7E0,1E0,1E0,8E0,2E0,5E1,2E0,5E0,1.6E1,1.3E1,3E0,2E1],"tree_param":{"num_deleted":"0","num_feature":"1536","num_nodes":"25","size_leaf_vector":"0"}},{"base_weights":[1.2916547E0,1.8413951E0,1.1327558E0,7.0334965E-1,2.1198008E0,8.802843E-1,1.4498227E0,8.643334E-1,2.0059355E-1,5.227622E-1,2.1709569E0,4.4513136E-1,1.0816972E0,1.6258088E0,2.6221043E-1,2.9697144E-1,8.598488E-1,1.1974992E0,2.0660244E-1,3.5931474E-1,1.721369E0,1.0767265E-1,4.3236992E-1],"categories":[],"categories_nodes":[],"categories_segments":[],"categories_sizes":[],"default_left":[1,1,1,1,1,1,1,0,0,0,0,1,1,1,1,0,0,0,0,0,0,0,0],"id":15,"left_children":[1,3,5,7,9,11,13,-1,-1,-1,-1,15,17,19,21,-1,-1,-1,-1,-1,-1,-1,-1],"loss_changes":[9.444763E0,7.380501E0,7.1290283E0,3.9316893E-1,6.624756E-1,4.864872E0,8.978844E0,0E0,0E0,0E0,0E0,1.0349841E0,3.9074402E0,4.1015167E0,1.3751814E-1,0E0,0E0,0E0,0E0,0E0,0E0,0E0,0E0],"parents":[2147483647,0,0,1,1,2,2,3,3,4,4,5,5,6,6,11,11,12,12,13,13,14,14],"right_children":[2,4,6,8,10,12,14,-1,-1,-1,-1,16,18,20,22,-1,-1,-1,-1,-1,-1,-1,-1],"split_conditions":[-3.3427468E-3,1.9761184E-3,1.7949826E-3,5.7681887E-3,-2.0237569E-2,3.113138E-3,3.349687E-2,4.321667E-2,1.0029677E-2,2.613811E-2,1.08547844E-1,-1.3914516E-2,-1.9091852E-2,9.503962E-5,1.3755142E-2,1.4848572E-2,4.299244E-2,5.987496E-2,1.0330122E-2,1.7965738E-2,8.606845E-2,5.3836326E-3,2.1618497E-2],"split_indices":[842,25,950,18,55,842,473,0,0,0,0,342,515,360,45,0,0,0,0,0,0,0,0],"split_type":[0,0,0,0,0,0,0,0,0,0,0,0,0,0,0,0,0,0,0,0,0,0,0],"sum_hessian":[1.31E2,2.7E1,1.04E2,6E0,2.1E1,6E1,4.4E1,4E0,2E0,1E0,2E1,2E1,4E1,3.8E1,6E0,1.6E1,4E0,3.5E1,5E0,3E0,3.5E1,4E0,2E0],"tree_param":{"num_deleted":"0","num_feature":"1536","num_nodes":"23","size_leaf_vector":"0"}},{"base_weights":[1.2304585E0,5.6568784E-1,1.3441167E0,1.3373921E0,3.054402E-1,8.2417727E-1,1.5158525E0,1.7038795E-1,4.7403082E-1,4.2323652E-1,1.1485481E0,4.4390124E-1,1.608744E0,1.49844885E-2,1.8442985E-1,1.06236935E-1,5.1762366E-1,5.2139443E-1,1.2264182E-1,1.3174636E0,3.1243563E-1,1.0674938E-1,5.3849363E-1,1.7287475E0,7.4247384E-1],"categories":[],"categories_nodes":[],"categories_segments":[],"categories_sizes":[],"default_left":[1,1,1,0,1,1,1,1,1,1,1,1,1,0,0,0,0,0,0,0,0,0,0,0,0],"id":16,"left_children":[1,3,5,-1,7,9,11,13,15,17,19,21,23,-1,-1,-1,-1,-1,-1,-1,-1,-1,-1,-1,-1],"loss_changes":[9.213135E0,3.8090248E0,8.751389E0,0E0,3.062961E-1,3.415495E0,7.5506134E0,2.1240175E-2,5.724144E-2,3.7864137E-1,1.8480988E0,1.9765222E-1,6.6170654E0,0E0,0E0,0E0,0E0,0E0,0E0,0E0,0E0,0E0,0E0,0E0,0E0],"parents":[2147483647,0,0,1,1,2,2,4,4,5,5,6,6,7,7,8,8,9,9,10,10,11,11,12,12],"right_children":[2,4,6,-1,8,10,12,14,16,18,20,22,24,-1,-1,-1,-1,-1,-1,-1,-1,-1,-1,-1,-1],"split_conditions":[-1.9987043E-2,8.61619E-3,9.92113E-3,6.686961E-2,1.249651E-3,1.0702308E-2,1.3158326E-3,-7.563999E-4,-1.5893467E-2,2.5438808E-2,-1.3610678E-2,-7.065204E-3,-1.3193044E-2,7.4922445E-4,9.221493E-3,5.3118467E-3,2.5881184E-2,2.6069721E-2,6.132091E-3,6.587318E-2,1.5621781E-2,5.337469E-3,2.6924683E-2,8.6437374E-2,3.712369E-2],"split_indices":[80,710,1497,0,976,892,1189,22,4,173,211,4,912,0,0,0,0,0,0,0,0,0,0,0,0],"split_type":[0,0,0,0,0,0,0,0,0,0,0,0,0,0,0,0,0,0,0,0,0,0,0,0,0],"sum_hessian":[1.31E2,2E1,1.11E2,4E0,1.6E1,2.9E1,8.2E1,1E1,6E0,1.4E1,1.5E1,7E0,7.5E1,1E0,9E0,1E0,5E0,1E1,4E0,1.2E1,3E0,2E0,5E0,6.5E1,1E1],"tree_param":{"num_deleted":"0","num_feature":"1536","num_nodes":"25","size_leaf_vector":"0"}},{"base_weights":[1.1717957E0,5.437042E-1,1.2725925E0,2.5673607E-1,1.1705072E0,1.3734792E0,4.610735E-1,4.7005385E-1,1.364338E-1,1.4390498E0,2.967489E-1,1.7889477E-1,7.176958E-1,1.6624382E-1,1.5257796E-3,3.9034823E-1,1.5061164E0,1.5475671E-1,3.645539E-1,7.997024E-2,2.5782675E-1],"categories":[],"categories_nodes":[],"categories_segments":[],"categories_sizes":[],"default_left":[1,1,1,1,0,1,1,0,1,1,1,1,0,0,0,0,0,0,0,0,0],"id":17,"left_children":[1,3,5,7,-1,9,11,-1,13,15,17,19,-1,-1,-1,-1,-1,-1,-1,-1,-1],"loss_changes":[7.664963E0,3.296938E0,8.61821E0,3.2080793E-1,0E0,6.633148E0,8.853948E-1,0E0,4.3984085E-2,6.0233765E0,1.0977268E-2,4.1848004E-2,0E0,0E0,0E0,0E0,0E0,0E0,0E0,0E0,0E0],"parents":[2147483647,0,0,1,1,2,2,3,3,5,5,6,6,8,8,9,9,10,10,11,11],"right_children":[2,4,6,8,-1,10,12,-1,14,16,18,20,-1,-1,-1,-1,-1,-1,-1,-1,-1],"split_conditions":[-2.4748184E-2,1.3431083E-2,-2.3640133E-3,1.1367535E-2,5.852536E-2,1.7713096E-2,-1.1310093E-2,2.3502693E-2,1.1229925E-2,-2.3855625E-2,-7.3854676E-3,3.3782334E-3,3.588479E-2,8.312191E-3,7.628898E-5,1.9517412E-2,7.530582E-2,7.7378354E-3,1.8227695E-2,3.998512E-3,1.2891337E-2],"split_indices":[1043,557,447,225,0,1198,1100,0,31,989,14,22,0,0,0,0,0,0,0,0,0],"split_type":[0,0,0,0,0,0,0,0,0,0,0,0,0,0,0,0,0,0,0,0,0],"sum_hessian":[1.31E2,1.9E1,1.12E2,1.4E1,5E0,9.9E1,1.3E1,4E0,1E1,9.3E1,6E0,7E0,6E0,8E0,2E0,6E0,8.7E1,3E0,3E0,4E0,3E0],"tree_param":{"num_deleted":"0","num_feature":"1536","num_nodes":"21","size_leaf_vector":"0"}},{"base_weights":[1.1152059E0,7.8684187E-1,1.332447E0,5.564811E-1,1.2294456E0,1.4519658E0,3.7452245E-1,1.4918133E0,4.3368658E-1,4.6918246E-1,1.2951546E0,5.217504E-1,1.565408E0,1.7791697E-1,4.7593996E-1,1.3182053E-1,5.491602E-1,1.9220659E-1,8.8562846E-1,1.7193419E0,9.258201E-1],"categories":[],"categories_nodes":[],"categories_segments":[],"categories_sizes":[],"default_left":[1,1,1,1,1,1,1,0,1,0,0,1,1,0,0,0,0,0,0,0,0],"id":18,"left_children":[1,3,5,7,9,11,13,-1,15,-1,-1,17,19,-1,-1,-1,-1,-1,-1,-1,-1],"loss_changes":[8.367691E0,4.9235535E0,8.386414E0,3.7174625E0,2.9154778E-1,6.4645386E0,1.1471474E-1,0E0,1.1476235E0,0E0,0E0,9.089999E-1,4.4138947E0,0E0,0E0,0E0,0E0,0E0,0E0,0E0,0E0],"parents":[2147483647,0,0,1,1,2,2,3,3,4,4,5,5,6,6,8,8,11,11,12,12],"right_children":[2,4,6,8,10,12,14,-1,16,-1,-1,18,20,-1,-1,-1,-1,-1,-1,-1,-1],"split_conditions":[1.059945E-3,-4.4257375E-3,1.4524168E-2,-2.4192454E-2,-2.5599085E-2,8.6426834E-4,-2.954683E-2,7.459067E-2,-5.6030187E-3,2.3459123E-2,6.475773E-2,-1.6201453E-2,1.0716472E-2,8.895849E-3,2.3796998E-2,6.5910267E-3,2.745801E-2,9.61033E-3,4.4281423E-2,8.596709E-2,4.6291005E-2],"split_indices":[1000,1134,149,981,24,1436,8,0,1424,0,0,503,1000,0,0,0,0,0,0,0,0],"split_type":[0,0,0,0,0,0,0,0,0,0,0,0,0,0,0,0,0,0,0,0,0],"sum_hessian":[1.31E2,5.4E1,7.7E1,3.7E1,1.7E1,6.8E1,9E0,3E0,3.4E1,2E0,1.5E1,8E0,6E1,4E0,5E0,1E1,2.4E1,5E0,3E0,4.7E1,1.3E1],"tree_param":{"num_deleted":"0","num_feature":"1536","num_nodes":"21","size_leaf_vector":"0"}},{"base_weights":[1.0625948E0,1.5616039E0,9.254642E-1,1.7938012E0,4.499462E-1,1.0719012E0,4.792505E-1,1.9280481E0,7.076781E-1,6.064549E-2,5.156772E-1,7.43462E-1,1.2913584E0,2.3253164E-1,9.000913E-1,3.232892E-1,1.0581622E0,1.5448092E0,7.6812977E-1,4.9364635E-1,1.299913E-1,1.0397271E0,2.2769864E-1],"categories":[],"categories_nodes":[],"categories_segments":[],"categories_sizes":[],"default_left":[1,1,1,1,1,1,1,0,0,0,0,1,1,1,1,0,0,0,0,0,0,0,0],"id":19,"left_children":[1,3,5,7,9,11,13,-1,-1,-1,-1,15,17,19,21,-1,-1,-1,-1,-1,-1,-1,-1],"loss_changes":[7.587448E0,6.1622314E0,6.412567E0,1.8433609E0,1.22261405E-1,4.734108E0,2.6979222E0,0E0,0E0,0E0,0E0,4.153677E0,4.9135666E0,4.4455135E-1,7.02157E-1,0E0,0E0,0E0,0E0,0E0,0E0,0E0,0E0],"parents":[2147483647,0,0,1,1,2,2,3,3,4,4,5,5,6,6,11,11,12,12,13,13,14,14],"right_children":[2,4,6,8,10,12,14,-1,-1,-1,-1,16,18,20,22,-1,-1,-1,-1,-1,-1,-1,-1],"split_conditions":[-3.952681E-3,1.6341137E-2,-2.198E-2,1.5263384E-2,-5.283249E-2,-1.3308566E-3,2.5912449E-2,9.640241E-2,3.5383906E-2,3.0322745E-3,2.5783861E-2,-1.1337029E-2,1.1369814E-2,-5.8313953E-3,1.972792E-2,1.616446E-2,5.290811E-2,7.724046E-2,3.8406488E-2,2.4682319E-2,6.4995647E-3,5.1986355E-2,1.1384932E-2],"split_indices":[842,844,1012,750,3,533,1478,0,0,0,0,993,1143,584,83,0,0,0,0,0,0,0,0],"split_type":[0,0,0,0,0,0,0,0,0,0,0,0,0,0,0,0,0,0,0,0,0,0,0],"sum_hessian":[1.31E2,2.6E1,1.05E2,2.1E1,5E0,7.8E1,2.7E1,1.8E1,3E0,1E0,4E0,3.3E1,4.5E1,1.8E1,9E0,1.5E1,1.8E1,2.9E1,1.6E1,4E0,1.4E1,7E0,2E0],"tree_param":{"num_deleted":"0","num_feature":"1536","num_nodes":"23","size_leaf_vector":"0"}},{"base_weights":[1.0127975E0,6.504858E-1,1.1632537E0,1.2294748E0,4.7286803E-1,6.348095E-1,1.3202674E0,3.64041E-1,1.1708536E0,1.240084E0,3.4823704E-1,1.397159E0,2.6723155E-1,4.6650577E-1,7.3122606E-2,1.8930754E-1,6.918063E-1,6.803294E-1,1.5632831E0],"categories":[],"categories_nodes":[],"categories_segments":[],"categories_sizes":[],"default_left":[1,1,1,0,1,1,1,1,0,0,1,1,0,0,0,0,0,0,0],"id":20,"left_children":[1,3,5,-1,7,9,11,13,-1,-1,15,17,-1,-1,-1,-1,-1,-1,-1],"loss_changes":[6.438904E0,3.6350079E0,6.79541E0,0E0,2.080432E0,3.557623E0,5.2944946E0,8.601546E-1,0E0,0E0,7.9729176E-1,6.6768265E0,0E0,0E0,0E0,0E0,0E0,0E0,0E0],"parents":[2147483647,0,0,1,1,2,2,4,4,5,5,6,6,7,7,10,10,11,11],"right_children":[2,4,6,-1,8,10,12,14,-1,-1,16,18,-1,-1,-1,-1,-1,-1,-1],"split_conditions":[-1.345383E-2,-7.342928E-3,-1.637483E-2,6.147374E-2,2.3036953E-2,-3.767588E-2,2.714058E-2,8.297337E-3,5.854268E-2,6.2004205E-2,-8.698937E-3,1.4545021E-3,1.3361578E-2,2.3325289E-2,3.6561303E-3,9.465377E-3,3.4590315E-2,3.401647E-2,7.816415E-2],"split_indices":[993,744,906,0,326,619,1338,1248,0,0,1282,1436,0,0,0,0,0,0,0],"split_type":[0,0,0,0,0,0,0,0,0,0,0,0,0,0,0,0,0,0,0],"sum_hessian":[1.31E2,4E1,9.1E1,8E0,3.2E1,2.2E1,6.9E1,2.9E1,3E0,6E0,1.6E1,6.4E1,5E0,2.1E1,8E0,1.2E1,4E0,1.3E1,5.1E1],"tree_param":{"num_deleted":"0","num_feature":"1536","num_nodes":"19","size_leaf_vector":"0"}},{"base_weights":[9.650258E-1,1.2905637E0,7.9876846E-1,8.2157576E-1,1.6276135E0,2.0855242E-1,8.8689715E-1,1.2902331E0,4.0161812E-1,1.7149366E0,7.6226413E-1,8.75763E-2,4.5885462E-1,1.108657E0,5.9738135E-1,5.585121E-1,7.02641E-2,1.1156406E-1,2.3703635E-2,3.6397532E-1,1.2433457E0,7.727951E-1,1.8215443E-1],"categories":[],"categories_nodes":[],"categories_segments":[],"categories_sizes":[],"default_left":[1,1,1,1,1,1,1,0,1,0,0,1,0,1,1,0,0,0,0,0,0,0,0],"id":21,"left_children":[1,3,5,7,9,11,13,-1,15,-1,-1,17,-1,19,21,-1,-1,-1,-1,-1,-1,-1,-1],"loss_changes":[6.1133804E0,5.4599075E0,4.4963837E0,3.4181442E0,5.0632095E-1,3.5346287E-1,4.345543E0,0E0,5.8460605E-1,0E0,0E0,1.2677155E-2,0E0,3.8603668E0,2.4813461E0,0E0,0E0,0E0,0E0,0E0,0E0,0E0,0E0],"parents":[2147483647,0,0,1,1,2,2,3,3,4,4,5,5,6,6,8,8,11,11,13,13,14,14],"right_children":[2,4,6,8,10,12,14,-1,16,-1,-1,18,-1,20,22,-1,-1,-1,-1,-1,-1,-1,-1],"split_conditions":[2.1245875E-3,1.0466084E-2,-2.0594841E-3,2.1193277E-2,1.7054956E-2,1.9831568E-2,1.9869342E-2,6.451166E-2,-1.2948552E-2,8.574683E-2,3.8113207E-2,-1.7649405E-2,2.2942731E-2,-1.3476043E-2,-4.896205E-3,2.7925605E-2,3.513205E-3,5.578203E-3,1.1851818E-3,1.8198766E-2,6.2167287E-2,3.8639754E-2,9.107722E-3],"split_indices":[718,199,1040,1030,264,542,367,0,209,0,0,52,0,793,1530,0,0,0,0,0,0,0,0],"split_type":[0,0,0,0,0,0,0,0,0,0,0,0,0,0,0,0,0,0,0,0,0,0,0],"sum_hessian":[1.31E2,4.2E1,8.9E1,1.9E1,2.3E1,1.2E1,7.7E1,8E0,1.1E1,2E1,3E0,9E0,3E0,4.2E1,3.5E1,7E0,4E0,6E0,3E0,7E0,3.5E1,2.4E1,1.1E1],"tree_param":{"num_deleted":"0","num_feature":"1536","num_nodes":"23","size_leaf_vector":"0"}},{"base_weights":[9.196353E-1,5.781691E-1,1.0618144E0,4.175198E-1,1.1029756E0,6.9370353E-1,1.2860696E0,3.2344928E-1,8.7962484E-1,2.8236926E-1,1.1702553E0,3.9950737E-1,1.0163162E0,8.466275E-1,1.6131479E0,2.5721684E-1,6.730977E-1,1.5744013E-1,6.5003735E-1,4.314346E-1,1.224064E0,9.975912E-1,1.3061583E-2,4.136114E-1,1.6816121E0],"categories":[],"categories_nodes":[],"categories_segments":[],"categories_sizes":[],"default_left":[1,1,1,1,1,1,1,1,0,0,0,1,1,1,1,0,0,0,0,0,0,0,0,0,0],"id":22,"left_children":[1,3,5,7,9,11,13,15,-1,-1,-1,17,19,21,23,-1,-1,-1,-1,-1,-1,-1,-1,-1,-1],"loss_changes":[5.794609E0,2.9961882E0,6.7025223E0,1.1500115E0,1.6644669E-1,3.1056957E0,6.683258E0,4.984517E-1,0E0,0E0,0E0,1.171205E0,1.537529E0,3.2587643E0,1.8503494E0,0E0,0E0,0E0,0E0,0E0,0E0,0E0,0E0,0E0,0E0],"parents":[2147483647,0,0,1,1,2,2,3,3,4,4,5,5,6,6,7,7,11,11,12,12,13,13,14,14],"right_children":[2,4,6,8,10,12,14,16,-1,-1,-1,18,20,22,24,-1,-1,-1,-1,-1,-1,-1,-1,-1,-1],"split_conditions":[1.0788883E-2,-2.1504048E-2,-1.3021104E-2,1.5525079E-2,-4.2061177E-3,1.754237E-2,8.6285565E-3,2.4296524E-2,4.3981243E-2,1.4118463E-2,5.8512766E-2,-8.407032E-3,-3.4138702E-3,-2.0753806E-2,-2.7127743E-2,1.2860842E-2,3.3654887E-2,7.872007E-3,3.250187E-2,2.1571731E-2,6.12032E-2,4.9879562E-2,6.530792E-4,2.0680571E-2,8.408061E-2],"split_indices":[1497,617,379,1040,7,340,801,720,0,0,0,267,163,664,110,0,0,0,0,0,0,0,0,0,0],"split_type":[0,0,0,0,0,0,0,0,0,0,0,0,0,0,0,0,0,0,0,0,0,0,0,0,0],"sum_hessian":[1.31E2,4E1,9.1E1,3.2E1,8E0,3.6E1,5.5E1,2.8E1,4E0,1E0,7E0,2E1,1.6E1,2.5E1,3E1,2.5E1,3E0,1.1E1,9E0,5E0,1.1E1,2.1E1,4E0,2E0,2.8E1],"tree_param":{"num_deleted":"0","num_feature":"1536","num_nodes":"25","size_leaf_vector":"0"}},{"base_weights":[8.769988E-1,6.038191E-1,1.0583819E0,3.9784378E-1,8.9469826E-1,4.0051404E-1,1.1960324E0,2.365892E-1,7.611959E-1,3.0932537E-1,1.0948802E0,1.7078875E-1,7.1663713E-1,1.3657585E0,6.014943E-1,4.4295987E-1,1.3172504E-1,1.4160019E-1,8.143065E-1,4.3461907E-1,-2.605955E-3,7.3920274E-1,1.2893847E0,2.9857725E-1,3.5833556E-2,1.997652E-1,1.411125E0,2.9625818E-1,1.2137623E0],"categories":[],"categories_nodes":[],"categories_segments":[],"categories_sizes":[],"default_left":[1,1,1,1,1,1,1,1,1,1,1,1,0,1,1,0,0,0,0,0,0,0,0,0,0,0,0,0,0],"id":23,"left_children":[1,3,5,7,9,11,13,15,17,19,21,23,-1,25,27,-1,-1,-1,-1,-1,-1,-1,-1,-1,-1,-1,-1,-1,-1],"loss_changes":[5.901558E0,2.9393177E0,6.5843277E0,1.8120441E0,2.2393093E0,9.6692824E-1,5.6366577E0,4.826733E-1,2.1376419E-1,2.7471387E-1,1.5377617E-1,1.617581E-1,0E0,2.310051E0,2.6305943E0,0E0,0E0,0E0,0E0,0E0,0E0,0E0,0E0,0E0,0E0,0E0,0E0,0E0,0E0],"parents":[2147483647,0,0,1,1,2,2,3,3,4,4,5,5,6,6,7,7,8,8,9,9,10,10,11,11,13,13,14,14],"right_children":[2,4,6,8,10,12,14,16,18,20,22,24,-1,26,28,-1,-1,-1,-1,-1,-1,-1,-1,-1,-1,-1,-1,-1,-1],"split_conditions":[1.059945E-3,3.9188623E-2,-1.7134383E-2,1.7335903E-2,-1.3097307E-2,6.933428E-3,-2.5418412E-2,4.3190166E-2,-1.5217181E-2,-1.4974175E-2,-2.8749017E-2,1.240239E-2,3.5831857E-2,-2.1775797E-2,-2.2145305E-3,2.2147994E-2,6.5862522E-3,7.0800097E-3,4.0715326E-2,2.1730954E-2,-1.3029775E-4,3.6960136E-2,6.446924E-2,1.4928862E-2,1.7916778E-3,9.98826E-3,7.0556246E-2,1.4812909E-2,6.0688116E-2],"split_indices":[1000,1396,906,1090,230,198,525,1240,32,47,104,153,0,129,339,0,0,0,0,0,0,0,0,0,0,0,0,0,0],"split_type":[0,0,0,0,0,0,0,0,0,0,0,0,0,0,0,0,0,0,0,0,0,0,0,0,0,0,0,0,0],"sum_hessian":[1.31E2,5.4E1,7.7E1,3.3E1,2.1E1,1.4E1,6.3E1,2.4E1,9E0,6E0,1.5E1,9E0,5E0,4.8E1,1.5E1,7E0,1.7E1,1E0,8E0,4E0,2E0,7E0,8E0,4E0,5E0,2E0,4.6E1,1.1E1,4E0],"tree_param":{"num_deleted":"0","num_feature":"1536","num_nodes":"29","size_leaf_vector":"0"}},{"base_weights":[8.3624095E-1,5.772565E-1,1.0081371E0,7.389752E-1,2.3194872E-1,3.839918E-1,1.1386691E0,5.742475E-1,1.2643323E0,5.849104E-1,9.8831564E-2,6.204851E-1,9.94995E-2,2.2471787E-1,1.2293413E0,6.3829535E-1,-1.637578E-3,1.7248417E-1,-9.9834455E-3,7.706342E-1,3.7626886E-1,1.3416936E-1,-7.1594715E-2,2.4987774E-1,3.687933E-2,2.12877E-2,1.2721059E0],"categories":[],"categories_nodes":[],"categories_segments":[],"categories_sizes":[],"default_left":[1,1,1,1,1,1,1,1,0,0,1,1,1,1,1,0,0,0,0,0,0,0,0,0,0,0,0],"id":24,"left_children":[1,3,5,7,9,11,13,15,-1,-1,17,19,21,23,25,-1,-1,-1,-1,-1,-1,-1,-1,-1,-1,-1,-1],"loss_changes":[5.2944794E0,2.8999424E0,5.917488E0,2.475975E0,8.349124E-1,9.4746995E-1,5.02742E0,1.1075706E0,0E0,0E0,1.219396E-1,3.385067E-3,5.70603E-2,2.3866624E-2,2.9693146E0,0E0,0E0,0E0,0E0,0E0,0E0,0E0,0E0,0E0,0E0,0E0,0E0],"parents":[2147483647,0,0,1,1,2,2,3,3,4,4,5,5,6,6,7,7,10,10,11,11,12,12,13,13,14,14],"right_children":[2,4,6,8,10,12,14,16,-1,-1,18,20,22,24,26,-1,-1,-1,-1,-1,-1,-1,-1,-1,-1,-1,-1],"split_conditions":[1.059945E-3,7.857178E-3,-1.7134383E-2,1.5115423E-2,8.365551E-3,-1.3460614E-3,6.5557295E-3,1.8148046E-2,6.321662E-2,2.924552E-2,5.8035906E-3,-4.3463972E-3,-2.7387565E-2,-3.07266E-2,-3.5476297E-2,3.1914767E-2,-8.1878905E-5,8.624209E-3,-4.991723E-4,3.853171E-2,1.8813444E-2,6.708468E-3,-3.5797358E-3,1.2493887E-2,1.8439665E-3,1.064385E-3,6.36053E-2],"split_indices":[1000,873,906,133,528,459,148,262,0,0,772,32,3,3,1440,0,0,0,0,0,0,0,0,0,0,0,0],"split_type":[0,0,0,0,0,0,0,0,0,0,0,0,0,0,0,0,0,0,0,0,0,0,0,0,0,0,0],"sum_hessian":[1.31E2,5.4E1,7.7E1,3.6E1,1.8E1,1.4E1,6.3E1,2.9E1,7E0,4E0,1.4E1,7E0,7E0,6E0,5.7E1,2.6E1,3E0,8E0,6E0,3E0,4E0,6E0,1E0,5E0,1E0,2E0,5.5E1],"tree_param":{"num_deleted":"0","num_feature":"1536","num_nodes":"27","size_leaf_vector":"0"}},{"base_weights":[7.9648876E-1,1.1996313E0,6.8628746E-1,1.3859138E0,3.1665692E-1,6.099301E-1,1.2335926E0,5.065533E-1,1.4980996E0,4.056168E-1,9.2491426E-2,7.0281094E-1,2.4916865E-1,1.3913409E0,2.965679E-1,8.070424E-1,2.3208223E-1,4.377504E-2,3.9956594E-1],"categories":[],"categories_nodes":[],"categories_segments":[],"categories_sizes":[],"default_left":[1,1,1,1,1,1,1,0,0,0,0,1,1,0,0,0,0,0,0],"id":25,"left_children":[1,3,5,7,9,11,13,-1,-1,-1,-1,15,17,-1,-1,-1,-1,-1,-1],"loss_changes":[5.041054E0,4.0021744E0,3.677414E0,1.4114723E0,8.2134366E-2,3.0081215E0,1.3611393E0,0E0,0E0,0E0,0E0,3.4925613E0,6.312126E-1,0E0,0E0,0E0,0E0,0E0,0E0],"parents":[2147483647,0,0,1,1,2,2,3,3,4,4,5,5,6,6,11,11,12,12],"right_children":[2,4,6,8,10,12,14,-1,-1,-1,-1,16,18,-1,-1,-1,-1,-1,-1],"split_conditions":[-3.952681E-3,1.6341137E-2,3.33751E-2,-1.7142387E-2,-6.2791514E-5,-1.5842324E-2,1.0750739E-2,2.5327666E-2,7.490498E-2,2.028084E-2,4.624571E-3,-1.3109802E-2,4.1936706E-3,6.956705E-2,1.4828394E-2,4.035212E-2,1.1604112E-2,2.1887522E-3,1.9978298E-2],"split_indices":[842,844,1275,1346,0,1104,12,0,0,0,0,823,0,0,0,0,0,0,0],"split_type":[0,0,0,0,0,0,0,0,0,0,0,0,0,0,0,0,0,0,0],"sum_hessian":[1.31E2,2.6E1,1.05E2,2.1E1,5E0,9.4E1,1.1E1,3E0,1.8E1,3E0,2E0,7.4E1,2E1,9E0,2E0,6E1,1.4E1,9E0,1.1E1],"tree_param":{"num_deleted":"0","num_feature":"1536","num_nodes":"19","size_leaf_vector":"0"}},{"base_weights":[7.5881326E-1,1.0290749E0,6.21257E-1,1.1854835E0,3.0647814E-1,4.5535454E-1,8.4659415E-1,1.2841586E0,3.3660072E-1,5.9480953E-1,1.3912496E-1,7.55695E-1,3.090087E-1,8.444774E-2,1.0216134E0,6.866812E-1,1.3726473E0,4.0782347E-1,2.5854826E-2,2.1555671E-1,2.7911976E-2,8.109361E-1,2.2759104E-1,5.149425E-1,2.060378E-1,2.0094043E-1,-2.5635958E-2,1.1747509E0,3.5062572E-1],"categories":[],"categories_nodes":[],"categories_segments":[],"categories_sizes":[],"default_left":[1,1,1,1,1,1,1,1,1,0,1,1,1,1,1,0,0,0,0,0,0,0,0,0,0,0,0,0,0],"id":26,"left_children":[1,3,5,7,9,11,13,15,17,-1,19,21,23,25,27,-1,-1,-1,-1,-1,-1,-1,-1,-1,-1,-1,-1,-1,-1],"loss_changes":[4.2679443E0,4.496544E0,2.9790573E0,2.4994812E0,3.5152578E-1,2.1399775E0,4.849167E0,6.963997E-1,1.0011667E-1,0E0,5.3484812E-2,3.1137943E-1,6.997001E-1,1.0774287E-1,2.670702E0,0E0,0E0,0E0,0E0,0E0,0E0,0E0,0E0,0E0,0E0,0E0,0E0,0E0,0E0],"parents":[2147483647,0,0,1,1,2,2,3,3,4,4,5,5,6,6,7,7,8,8,10,10,11,11,12,12,13,13,14,14],"right_children":[2,4,6,8,10,12,14,16,18,-1,20,22,24,26,28,-1,-1,-1,-1,-1,-1,-1,-1,-1,-1,-1,-1,-1,-1],"split_conditions":[2.1245875E-3,3.5307955E-2,-1.3854886E-2,1.0217115E-2,-4.9014264E-3,6.9656176E-3,2.2359429E-2,1.5356433E-2,-7.968193E-3,2.9740477E-2,-2.2093397E-2,1.667976E-2,-1.6015299E-2,-2.2358574E-2,1.0429969E-2,3.433406E-2,6.8632364E-2,2.0391174E-2,1.2927413E-3,1.0777836E-2,1.3955989E-3,4.0546805E-2,1.1379552E-2,2.5747126E-2,1.0301891E-2,1.0047021E-2,-1.2817979E-3,5.8737546E-2,1.7531287E-2],"split_indices":[718,191,144,1274,7,902,1051,546,1,0,13,6,862,88,1464,0,0,0,0,0,0,0,0,0,0,0,0,0,0],"split_type":[0,0,0,0,0,0,0,0,0,0,0,0,0,0,0,0,0,0,0,0,0,0,0,0,0,0,0,0,0],"sum_hessian":[1.31E2,4.2E1,8.9E1,3.4E1,8E0,5.3E1,3.6E1,3E1,4E0,2E0,6E0,1.6E1,3.7E1,7E0,2.9E1,5E0,2.5E1,3E0,1E0,3E0,3E0,1.4E1,2E0,1.1E1,2.6E1,3E0,4E0,2.3E1,6E0],"tree_param":{"num_deleted":"0","num_feature":"1536","num_nodes":"29","size_leaf_vector":"0"}},{"base_weights":[7.234451E-1,1.0007933E0,6.006789E-1,1.1748103E0,5.1135427E-1,3.6968473E-1,7.7239734E-1,1.2738287E0,4.6455973E-1,8.378306E-1,2.4338731E-1,1.0038403E0,2.5685722E-1,1.1854866E-1,8.693189E-1,1.3788164E0,7.2906315E-1,9.946327E-3,3.1954324E-1,1.1240212E0,2.0146799E-1,1.3335344E-1,5.03044E-1,-1.0628064E-2,3.373859E-1,1.0652711E0,5.8531535E-1],"categories":[],"categories_nodes":[],"categories_segments":[],"categories_sizes":[],"default_left":[1,1,1,1,1,1,1,1,0,0,1,1,1,1,1,0,0,0,0,0,0,0,0,0,0,0,0],"id":27,"left_children":[1,3,5,7,9,11,13,15,-1,-1,17,19,21,23,25,-1,-1,-1,-1,-1,-1,-1,-1,-1,-1,-1,-1],"loss_changes":[3.8933105E0,2.720913E0,3.443058E0,1.3774109E0,8.4590125E-1,2.7472653E0,3.255663E0,3.6740112E-1,0E0,0E0,1.3904503E-1,3.521242E-1,1.0579021E0,2.297352E-1,1.9364319E0,0E0,0E0,0E0,0E0,0E0,0E0,0E0,0E0,0E0,0E0,0E0,0E0],"parents":[2147483647,0,0,1,1,2,2,3,3,4,4,5,5,6,6,7,7,10,10,11,11,12,12,13,13,14,14],"right_children":[2,4,6,8,10,12,14,16,-1,-1,18,20,22,24,26,-1,-1,-1,-1,-1,-1,-1,-1,-1,-1,-1,-1],"split_conditions":[-7.982065E-3,-5.665552E-3,3.658733E-2,-4.118807E-3,-2.1469813E-2,-4.711865E-2,-2.881348E-2,9.739017E-3,2.3227988E-2,4.189153E-2,-2.3435686E-2,-4.903987E-4,1.3637894E-3,1.4026759E-2,-1.2045956E-2,6.894082E-2,3.6453158E-2,4.9731636E-4,1.5977163E-2,5.620106E-2,1.00734E-2,6.667672E-3,2.51522E-2,-5.3140323E-4,1.6869295E-2,5.3263556E-2,2.9265767E-2],"split_indices":[922,370,1359,126,88,639,796,75,0,0,78,0,794,6,185,0,0,0,0,0,0,0,0,0,0,0,0],"split_type":[0,0,0,0,0,0,0,0,0,0,0,0,0,0,0,0,0,0,0,0,0,0,0,0,0,0,0],"sum_hessian":[1.31E2,3.8E1,9.3E1,2.7E1,1.1E1,4.1E1,5.2E1,2.3E1,4E0,4E0,7E0,5E0,3.6E1,7E0,4.5E1,1.8E1,5E0,2E0,5E0,4E0,1E0,2.5E1,1.1E1,5E0,2E0,2.5E1,2E1],"tree_param":{"num_deleted":"0","num_feature":"1536","num_nodes":"27","size_leaf_vector":"0"}},{"base_weights":[6.9018155E-1,4.7081012E-1,8.360181E-1,6.312415E-1,1.5849307E-1,1.0465965E0,5.327224E-1,3.5917538E-1,8.3093566E-1,3.8125274E-1,5.8822997E-2,1.125134E0,1.9327061E-1,1.7721087E-1,8.778098E-1,5.3871936E-1,8.984849E-2,5.2311057E-1,9.9255985E-1,-3.0945182E-2,1.0680161E-1,6.3167435E-1,1.263938E0,2.8128028E-1,-7.938403E-2,8.573367E-2,3.458763E-1,5.7466215E-1,1.2287834E0],"categories":[],"categories_nodes":[],"categories_segments":[],"categories_sizes":[],"default_left":[1,1,1,1,1,1,1,1,1,0,1,1,1,1,1,0,0,0,0,0,0,0,0,0,0,0,0,0,0],"id":28,"left_children":[1,3,5,7,9,11,13,15,17,-1,19,21,23,25,27,-1,-1,-1,-1,-1,-1,-1,-1,-1,-1,-1,-1,-1,-1],"loss_changes":[3.8293877E0,2.6557531E0,4.4241257E0,1.6574306E0,4.21623E-1,2.798355E0,4.0156507E0,7.736492E-1,4.7582054E-1,0E0,6.790928E-2,2.0098572E0,1.4231037E-1,2.4806952E-1,1.1026096E0,0E0,0E0,0E0,0E0,0E0,0E0,0E0,0E0,0E0,0E0,0E0,0E0,0E0,0E0],"parents":[2147483647,0,0,1,1,2,2,3,3,4,4,5,5,6,6,7,7,8,8,10,10,11,11,12,12,13,13,14,14],"right_children":[2,4,6,8,10,12,14,16,18,-1,20,22,24,26,28,-1,-1,-1,-1,-1,-1,-1,-1,-1,-1,-1,-1,-1,-1],"split_conditions":[1.059945E-3,2.9653449E-2,-2.982748E-2,-2.9299777E-2,4.319088E-2,-1.5697193E-3,-1.4530353E-2,7.5397845E-3,1.108958E-2,1.9062636E-2,-1.2959588E-2,1.5199376E-2,-2.2965658E-2,1.2906978E-4,1.720637E-3,2.6935969E-2,4.4924244E-3,2.615553E-2,4.9627993E-2,-1.5472592E-3,5.3400802E-3,3.158372E-2,6.31969E-2,1.4064014E-2,-3.9692014E-3,4.2866836E-3,1.7293816E-2,2.8733108E-2,6.1439168E-2],"split_indices":[1000,111,525,697,1240,760,867,873,441,0,1047,930,9,243,1149,0,0,0,0,0,0,0,0,0,0,0,0,0,0],"split_type":[0,0,0,0,0,0,0,0,0,0,0,0,0,0,0,0,0,0,0,0,0,0,0,0,0,0,0,0,0],"sum_hessian":[1.31E2,5.4E1,7.7E1,3.5E1,1.9E1,4.4E1,3.3E1,1.6E1,1.9E1,5E0,1.4E1,4E1,4E0,1.7E1,1.6E1,9E0,7E0,8E0,1.1E1,5E0,9E0,1E1,3E1,3E0,1E0,1.2E1,5E0,1E1,6E0],"tree_param":{"num_deleted":"0","num_feature":"1536","num_nodes":"29","size_leaf_vector":"0"}},{"base_weights":[6.5829897E-1,4.230339E-1,7.751253E-1,5.671737E-1,8.733341E-2,6.387858E-1,1.229457E0,7.8400075E-1,3.013466E-1,-5.5934507E-2,1.6456082E-1,9.448495E-1,5.0358456E-1,1.3095042E0,3.6603746E-1,3.2940802E-1,8.578843E-1,4.137527E-1,9.771697E-2,-8.335034E-3,-7.765049E-2,2.1281837E-1,7.37396E-2,1.244491E0,5.20759E-1,-4.1187033E-3,5.863297E-1,1.3717635E0,5.6170636E-1],"categories":[],"categories_nodes":[],"categories_segments":[],"categories_sizes":[],"default_left":[1,1,1,1,1,1,1,1,1,1,1,1,1,1,0,0,0,0,0,0,0,0,0,0,0,0,0,0,0],"id":29,"left_children":[1,3,5,7,9,11,13,15,17,19,21,23,25,27,-1,-1,-1,-1,-1,-1,-1,-1,-1,-1,-1,-1,-1,-1,-1],"loss_changes":[3.3001328E0,2.1763058E0,4.603718E0,1.6081753E0,1.751678E-1,2.3794212E0,8.3384705E-1,2.8838444E-1,3.2579672E-1,5.554797E-3,2.8134942E-2,1.8934212E0,2.1029139E0,2.0944595E-2,0E0,0E0,0E0,0E0,0E0,0E0,0E0,0E0,0E0,0E0,0E0,0E0,0E0,0E0,0E0],"parents":[2147483647,0,0,1,1,2,2,3,3,4,4,5,5,6,6,7,7,8,8,9,9,10,10,11,11,12,12,13,13],"right_children":[2,4,6,8,10,12,14,16,18,20,22,24,26,28,-1,-1,-1,-1,-1,-1,-1,-1,-1,-1,-1,-1,-1,-1,-1],"split_conditions":[-1.2379926E-2,-9.131307E-3,1.63575E-2,1.218955E-2,1.4462404E-2,-3.656391E-2,3.793943E-2,9.683047E-3,1.4108197E-3,-1.9919835E-2,-8.155864E-4,-1.3694553E-2,8.413402E-3,1.1460147E-2,1.8301873E-2,1.64704E-2,4.2894214E-2,2.0687636E-2,4.8858486E-3,-4.1675172E-4,-3.8825243E-3,1.0640918E-2,3.68698E-3,6.222455E-2,2.603795E-2,-2.0593517E-4,2.9316485E-2,6.8588175E-2,2.808532E-2],"split_indices":[993,1071,801,882,1098,1075,183,74,196,20,22,104,11,17,0,0,0,0,0,0,0,0,0,0,0,0,0,0,0],"split_type":[0,0,0,0,0,0,0,0,0,0,0,0,0,0,0,0,0,0,0,0,0,0,0,0,0,0,0,0,0],"sum_hessian":[1.31E2,4.5E1,8.6E1,3.1E1,1.4E1,6.8E1,1.8E1,1.6E1,1.5E1,5E0,9E0,1.9E1,4.9E1,1.6E1,2E0,3E0,1.3E1,9E0,6E0,2E0,3E0,5E0,4E0,1E1,9E0,7E0,4.2E1,1.4E1,2E0],"tree_param":{"num_deleted":"0","num_feature":"1536","num_nodes":"29","size_leaf_vector":"0"}},{"base_weights":[6.278637E-1,9.521541E-1,5.393382E-1,1.0873088E0,1.4001156E-1,3.9313722E-1,8.2468474E-1,1.1713493E0,3.952793E-1,3.294319E-3,1.7336729E-1,5.959254E-1,2.5054643E-1,9.7157836E-1,9.8313116E-2,1.2240008E0,4.6499023E-1,2.7981806E-1,7.475704E-1,5.737839E-1,1.5103441E-1,4.7467607E-1,1.1081074E0,1.1470353E-2,2.1028002E-1],"categories":[],"categories_nodes":[],"categories_segments":[],"categories_sizes":[],"default_left":[1,1,1,1,1,1,1,1,0,0,0,1,1,1,1,0,0,0,0,0,0,0,0,0,0],"id":30,"left_children":[1,3,5,7,9,11,13,15,-1,-1,-1,17,19,21,23,-1,-1,-1,-1,-1,-1,-1,-1,-1,-1],"loss_changes":[3.2759247E0,2.8114147E0,4.097889E0,8.746357E-1,2.2230387E-2,1.9326258E0,3.63896E0,1.7466927E-1,0E0,0E0,0E0,1.1809635E0,1.3286433E0,1.4414158E0,6.565262E-2,0E0,0E0,0E0,0E0,0E0,0E0,0E0,0E0,0E0,0E0],"parents":[2147483647,0,0,1,1,2,2,3,3,4,4,5,5,6,6,7,7,11,11,12,12,13,13,14,14],"right_children":[2,4,6,8,10,12,14,16,-1,-1,-1,18,20,22,24,-1,-1,-1,-1,-1,-1,-1,-1,-1,-1],"split_conditions":[-3.952681E-3,1.634485E-2,3.177143E-2,6.9026877E-3,-5.283249E-2,1.2674907E-3,4.406617E-3,5.168829E-2,1.9763965E-2,1.6471595E-4,8.668365E-3,9.47592E-3,-1.8588021E-2,-6.855135E-3,2.4581872E-2,6.120004E-2,2.3249513E-2,1.3990903E-2,3.737852E-2,2.8689194E-2,7.551721E-3,2.3733804E-2,5.5405375E-2,5.735177E-4,1.0514001E-2],"split_indices":[842,1178,817,897,3,1067,603,183,0,0,0,1371,66,939,74,0,0,0,0,0,0,0,0,0,0],"split_type":[0,0,0,0,0,0,0,0,0,0,0,0,0,0,0,0,0,0,0,0,0,0,0,0,0],"sum_hessian":[1.31E2,2.6E1,1.05E2,2.2E1,4E0,7.1E1,3.4E1,1.9E1,3E0,1E0,3E0,2.8E1,4.3E1,2.8E1,6E0,1.7E1,2E0,1E1,1.8E1,9E0,3.4E1,7E0,2.1E1,4E0,2E0],"tree_param":{"num_deleted":"0","num_feature":"1536","num_nodes":"25","size_leaf_vector":"0"}},{"base_weights":[5.986741E-1,4.049643E-1,7.2758913E-1,5.470274E-1,1.2900248E-1,3.8935497E-1,8.619533E-1,2.1515346E-1,6.8444586E-1,3.2949662E-1,4.0204667E-2,1.3537964E-1,7.97605E-1,-5.138263E-3,9.120766E-1,-2.4410248E-2,2.9772028E-1,7.767525E-1,2.626827E-1,-2.1904528E-2,9.728828E-2,4.1315656E-2,2.2427918E-1,8.761446E-1,3.484776E-1,4.597165E-2,-7.9234004E-2,5.982232E-2,9.4497037E-1],"categories":[],"categories_nodes":[],"categories_segments":[],"categories_sizes":[],"default_left":[1,1,1,1,1,1,1,1,1,0,1,1,1,1,1,0,0,0,0,0,0,0,0,0,0,0,0,0,0],"id":31,"left_children":[1,3,5,7,9,11,13,15,17,-1,19,21,23,25,27,-1,-1,-1,-1,-1,-1,-1,-1,-1,-1,-1,-1,-1,-1],"loss_changes":[3.0016708E0,2.0856524E0,3.2092247E0,1.4945412E0,3.428215E-1,2.380471E0,2.395073E0,2.4462765E-1,7.6924896E-1,0E0,5.5312313E-2,1.2452969E-1,1.2151718E-2,1.8790627E-2,1.401226E0,0E0,0E0,0E0,0E0,0E0,0E0,0E0,0E0,0E0,0E0,0E0,0E0,0E0,0E0],"parents":[2147483647,0,0,1,1,2,2,3,3,4,4,5,5,6,6,7,7,8,8,10,10,11,11,12,12,13,13,14,14],"right_children":[2,4,6,8,10,12,14,16,18,-1,20,22,24,26,28,-1,-1,-1,-1,-1,-1,-1,-1,-1,-1,-1,-1,-1,-1],"split_conditions":[1.059945E-3,2.9653449E-2,-8.755928E-3,-1.3390265E-2,4.319088E-2,-1.948564E-2,2.4155783E-3,2.6378948E-2,4.7787875E-3,1.6474832E-2,2.6618924E-2,-1.3405904E-2,3.4503877E-2,-2.6820043E-2,-2.2879908E-2,-1.2205124E-3,1.4886014E-2,3.8837623E-2,1.3134136E-2,-1.0952264E-3,4.864414E-3,2.065783E-3,1.1213959E-2,4.380723E-2,1.7423881E-2,2.2985826E-3,-3.9617005E-3,2.9911161E-3,4.724852E-2],"split_indices":[1000,111,1469,993,1240,407,763,50,335,0,999,341,50,3,354,0,0,0,0,0,0,0,0,0,0,0,0,0,0],"split_type":[0,0,0,0,0,0,0,0,0,0,0,0,0,0,0,0,0,0,0,0,0,0,0,0,0,0,0,0,0],"sum_hessian":[1.31E2,5.4E1,7.7E1,3.5E1,1.9E1,2.3E1,5.4E1,1.1E1,2.4E1,5E0,1.4E1,1.5E1,8E0,3E0,5.1E1,3E0,8E0,1.9E1,5E0,7E0,7E0,8E0,7E0,6E0,2E0,2E0,1E0,2E0,4.9E1],"tree_param":{"num_deleted":"0","num_feature":"1536","num_nodes":"29","size_leaf_vector":"0"}},{"base_weights":[5.7032347E-1,5.0948524E-1,9.7955775E-1,6.89416E-1,3.6491883E-1,4.6419996E-1,1.1716113E0,3.4223604E-1,8.848592E-1,5.098545E-1,1.904625E-1,7.7585906E-2,5.12204E-1,1.8791679E-1,9.777111E-1,6.196505E-1,1.6241986E-1,4.2133462E-1,1.0896491E-1],"categories":[],"categories_nodes":[],"categories_segments":[],"categories_sizes":[],"default_left":[1,1,1,1,1,0,0,1,1,1,1,0,0,0,0,0,0,0,0],"id":32,"left_children":[1,3,5,7,9,-1,-1,11,13,15,17,-1,-1,-1,-1,-1,-1,-1,-1],"loss_changes":[2.787346E0,2.7918186E0,1.0397596E0,3.1577225E0,1.596982E0,0E0,0E0,8.5990095E-1,1.8870678E0,1.2726469E0,5.5618596E-1,0E0,0E0,0E0,0E0,0E0,0E0,0E0,0E0],"parents":[2147483647,0,0,1,1,2,2,3,3,4,4,7,7,8,8,9,9,10,10],"right_children":[2,4,6,8,10,-1,-1,12,14,16,18,-1,-1,-1,-1,-1,-1,-1,-1],"split_conditions":[3.33751E-2,-1.133664E-2,-1.839237E-2,2.5064703E-2,6.9066323E-3,2.3209998E-2,5.8580566E-2,5.9600333E-3,-8.266943E-3,-9.416923E-3,1.1040206E-2,3.8792954E-3,2.56102E-2,9.39584E-3,4.8885554E-2,3.0982524E-2,8.120993E-3,2.106673E-2,5.448246E-3],"split_indices":[1275,849,20,999,1042,0,0,1310,424,796,101,0,0,0,0,0,0,0,0],"split_type":[0,0,0,0,0,0,0,0,0,0,0,0,0,0,0,0,0,0,0],"sum_hessian":[1.31E2,1.16E2,1.5E1,5E1,6.6E1,5E0,1E1,1.9E1,3.1E1,3.5E1,3.1E1,8E0,1.1E1,4E0,2.7E1,2.6E1,9E0,7E0,2.4E1],"tree_param":{"num_deleted":"0","num_feature":"1536","num_nodes":"19","size_leaf_vector":"0"}},{"base_weights":[5.43589E-1,8.3503664E-1,4.642241E-1,2.726875E-1,9.827227E-1,3.3313778E-1,7.2062385E-1,3.6681134E-1,2.4918636E-2,1.0617583E0,3.8138175E-1,5.1182497E-1,2.0779535E-1,8.504809E-1,7.969857E-2,-1.8814206E-3,3.9259374E-2,1.0883828E0,3.045708E-1,2.4264385E-1,6.407285E-1,3.729263E-1,7.913061E-2,5.1066846E-1,1.0297736E0,2.1897233E-1,1.9990891E-2],"categories":[],"categories_nodes":[],"categories_segments":[],"categories_sizes":[],"default_left":[1,1,1,1,1,1,1,0,1,1,0,1,1,1,1,0,0,0,0,0,0,0,0,0,0,0,0],"id":33,"left_children":[1,3,5,7,9,11,13,-1,15,17,-1,19,21,23,25,-1,-1,-1,-1,-1,-1,-1,-1,-1,-1,-1,-1],"loss_changes":[2.6656075E0,1.9744053E0,3.322647E0,1.5410626E-1,5.9313965E-1,1.5062351E0,2.8452206E0,0E0,1.2268611E-3,3.1383514E-2,0E0,8.507848E-1,9.0533745E-1,1.2409763E0,5.3832535E-2,0E0,0E0,0E0,0E0,0E0,0E0,0E0,0E0,0E0,0E0,0E0,0E0],"parents":[2147483647,0,0,1,1,2,2,3,3,4,4,5,5,6,6,8,8,9,9,11,11,12,12,13,13,14,14],"right_children":[2,4,6,8,10,12,14,-1,16,18,-1,20,22,24,26,-1,-1,-1,-1,-1,-1,-1,-1,-1,-1,-1,-1],"split_conditions":[-3.952681E-3,1.9761184E-3,3.177143E-2,2.6020195E-2,1.5263384E-2,1.2674907E-3,4.406617E-3,1.8340567E-2,6.0765985E-3,2.4401959E-2,1.9069089E-2,9.47592E-3,-2.9687174E-2,-3.511832E-3,-1.1101313E-2,-9.407103E-5,1.9629688E-3,5.441914E-2,1.522854E-2,1.2132193E-2,3.2036424E-2,1.8646315E-2,3.9565307E-3,2.5533423E-2,5.148868E-2,1.0948616E-2,9.995446E-4],"split_indices":[842,25,817,50,750,1067,603,0,0,90,0,1371,202,939,10,0,0,0,0,0,0,0,0,0,0,0,0],"split_type":[0,0,0,0,0,0,0,0,0,0,0,0,0,0,0,0,0,0,0,0,0,0,0,0,0,0,0],"sum_hessian":[1.31E2,2.6E1,1.05E2,6E0,2E1,7.1E1,3.4E1,4E0,2E0,1.7E1,3E0,2.8E1,4.3E1,2.8E1,6E0,1E0,1E0,1.6E1,1E0,1E1,1.8E1,1.8E1,2.5E1,1.1E1,1.7E1,1E0,5E0],"tree_param":{"num_deleted":"0","num_feature":"1536","num_nodes":"27","size_leaf_vector":"0"}},{"base_weights":[5.184146E-1,5.8513635E-1,2.2388998E-1,6.99216E-1,3.6829954E-1,4.7692366E-2,5.010369E-1,2.3244618E-1,7.7438974E-1,6.54908E-1,1.9980657E-1,-7.740502E-3,2.2978431E-1,8.4060885E-2,3.4209046E-1,-2.3274183E-2,8.1753737E-1,1.5840475E-1,7.244581E-1,3.1305927E-1,6.2472407E-2,2.4155146E-2,-9.3518406E-2],"categories":[],"categories_nodes":[],"categories_segments":[],"categories_sizes":[],"default_left":[1,1,1,1,1,1,0,1,1,1,1,1,0,0,0,0,0,0,0,0,0,0,0],"id":34,"left_children":[1,3,5,7,9,11,-1,13,15,17,19,21,-1,-1,-1,-1,-1,-1,-1,-1,-1,-1,-1],"loss_changes":[2.4629517E0,2.3893013E0,1.2457526E0,2.2411308E0,1.7525139E0,1.733746E-1,0E0,1.5020919E-1,2.0496445E0,3.6868858E-1,3.848325E-1,4.0562138E-2,0E0,0E0,0E0,0E0,0E0,0E0,0E0,0E0,0E0,0E0,0E0],"parents":[2147483647,0,0,1,1,2,2,3,3,4,4,5,5,7,7,8,8,9,9,10,10,11,11],"right_children":[2,4,6,8,10,12,-1,14,16,18,20,22,-1,-1,-1,-1,-1,-1,-1,-1,-1,-1,-1],"split_conditions":[3.138092E-2,9.635598E-3,-2.1085834E-2,-8.040326E-3,-1.6666047E-3,-4.489227E-3,2.5051845E-2,1.9200565E-2,-2.8669264E-2,-5.764152E-4,8.654352E-3,-1.2443188E-2,1.1489215E-2,4.2030443E-3,1.7104523E-2,-1.1637092E-3,4.087687E-2,7.920238E-3,3.6222905E-2,1.5652964E-2,3.1236203E-3,1.2077573E-3,-4.6759206E-3],"split_indices":[70,821,617,533,671,14,0,779,179,67,1319,290,0,0,0,0,0,0,0,0,0,0,0],"split_type":[0,0,0,0,0,0,0,0,0,0,0,0,0,0,0,0,0,0,0,0,0,0,0],"sum_hessian":[1.31E2,1.06E2,2.5E1,6.8E1,3.8E1,1.6E1,9E0,1E1,5.8E1,1.3E1,2.5E1,1.3E1,3E0,5E0,5E0,3E0,5.5E1,2E0,1.1E1,1.3E1,1.2E1,1E1,3E0],"tree_param":{"num_deleted":"0","num_feature":"1536","num_nodes":"23","size_leaf_vector":"0"}},{"base_weights":[4.9368337E-1,6.9276977E-1,3.9307895E-1,4.163741E-1,9.150106E-1,2.6326922E-1,6.0931784E-1,6.214861E-1,1.7340988E-1,9.808568E-1,3.5702676E-1,1.6666397E-1,5.064415E-1,7.536339E-1,2.521736E-1,1.0668033E-1,6.622987E-1,2.7246264E-1,5.402565E-5,3.8182727E-1,1.026203E0,5.330238E-2,2.8288555E-1,1.9880056E-2,6.1719567E-1,4.3599972E-1,9.2668444E-1,3.9279014E-1,4.8757317E-3],"categories":[],"categories_nodes":[],"categories_segments":[],"categories_sizes":[],"default_left":[1,1,1,1,1,1,1,1,1,1,0,1,1,1,1,0,0,0,0,0,0,0,0,0,0,0,0,0,0],"id":35,"left_children":[1,3,5,7,9,11,13,15,17,19,-1,21,23,25,27,-1,-1,-1,-1,-1,-1,-1,-1,-1,-1,-1,-1,-1,-1],"loss_changes":[2.3715096E0,2.2603493E0,2.3658762E0,9.3876076E-1,4.9485207E-1,1.2781138E0,1.510829E0,1.604619E-1,1.888704E-1,1.5144157E-1,0E0,5.514492E-1,8.499489E-1,8.602009E-1,3.8060075E-1,0E0,0E0,0E0,0E0,0E0,0E0,0E0,0E0,0E0,0E0,0E0,0E0,0E0,0E0],"parents":[2147483647,0,0,1,1,2,2,3,3,4,4,5,5,6,6,7,7,8,8,9,9,11,11,12,12,13,13,14,14],"right_children":[2,4,6,8,10,12,14,16,18,20,-1,22,24,26,28,-1,-1,-1,-1,-1,-1,-1,-1,-1,-1,-1,-1,-1,-1],"split_conditions":[2.1245875E-3,-8.2530844E-4,3.177143E-2,8.352078E-3,-1.5455411E-3,3.0694429E-2,-7.4208137E-3,7.32491E-5,1.0646547E-2,-3.0430032E-2,1.7851338E-2,2.9642975E-2,1.7681748E-3,-6.92219E-3,7.711515E-3,5.334017E-3,3.3114936E-2,1.3623132E-2,2.7012827E-6,1.9091364E-2,5.131015E-2,2.665119E-3,1.4144278E-2,9.940028E-4,3.0859783E-2,2.1799987E-2,4.6334222E-2,1.9639507E-2,2.4378659E-4],"split_indices":[718,446,817,426,246,135,1341,25,821,41,0,1349,57,624,998,0,0,0,0,0,0,0,0,0,0,0,0,0,0],"split_type":[0,0,0,0,0,0,0,0,0,0,0,0,0,0,0,0,0,0,0,0,0,0,0,0,0,0,0,0,0],"sum_hessian":[1.31E2,4.2E1,8.9E1,2E1,2.2E1,5.7E1,3.2E1,1E1,1E1,1.9E1,3E0,4.2E1,1.5E1,2.2E1,1E1,1E0,9E0,6E0,4E0,2E0,1.7E1,2.2E1,2E1,3E0,1.2E1,9E0,1.3E1,6E0,4E0],"tree_param":{"num_deleted":"0","num_feature":"1536","num_nodes":"29","size_leaf_vector":"0"}},{"base_weights":[4.7109777E-1,3.414557E-1,6.0766673E-1,5.2247924E-1,2.226127E-1,4.9157515E-1,9.179624E-1,2.6272413E-1,6.59822E-1,1.1057425E-1,4.117691E-1,6.449627E-1,2.4458446E-1,1.0075758E0,1.9377907E-1,1.1655334E-1,3.02969E-1,4.2131886E-1,7.8464234E-1,3.4318764E-2,3.4533167E-1,4.8951492E-1,5.615288E-2,2.2049351E-1,8.2494915E-1,4.1073135E-1,3.7364416E-2,2.5432718E-1,3.634143E-2],"categories":[],"categories_nodes":[],"categories_segments":[],"categories_sizes":[],"default_left":[1,1,1,1,1,1,1,1,1,1,1,1,1,0,1,0,0,0,0,0,0,0,0,0,0,0,0,0,0],"id":36,"left_children":[1,3,5,7,9,11,13,15,17,19,21,23,25,-1,27,-1,-1,-1,-1,-1,-1,-1,-1,-1,-1,-1,-1,-1,-1],"loss_changes":[2.1295795E0,1.3896265E0,1.8181839E0,7.8988695E-1,8.869517E-1,1.6607475E0,8.430977E-1,2.9396832E-2,1.7550659E-1,5.0729334E-1,4.1487527E-1,2.0336657E0,6.7323244E-1,0E0,1.9355036E-2,0E0,0E0,0E0,0E0,0E0,0E0,0E0,0E0,0E0,0E0,0E0,0E0,0E0,0E0],"parents":[2147483647,0,0,1,1,2,2,3,3,4,4,5,5,6,6,7,7,8,8,9,9,10,10,11,11,12,12,14,14],"right_children":[2,4,6,8,10,12,14,16,18,20,22,24,26,-1,28,-1,-1,-1,-1,-1,-1,-1,-1,-1,-1,-1,-1,-1,-1],"split_conditions":[3.3174656E-2,-1.3163993E-2,3.1062668E-2,-9.174963E-4,1.7632443E-2,2.3965731E-2,-3.215603E-3,-3.1756314E-3,1.8843055E-2,6.322045E-3,2.469963E-3,-1.0102455E-2,-1.4319056E-2,5.037879E-2,-3.3577904E-4,5.8276667E-3,1.5148451E-2,2.1065943E-2,3.9232116E-2,1.7159382E-3,1.7266585E-2,2.4475746E-2,2.807644E-3,1.1024675E-2,4.1247457E-2,2.0536568E-2,1.8682209E-3,1.2716359E-2,1.8170715E-3],"split_indices":[855,1466,600,533,747,769,213,398,148,1429,1449,1162,170,0,0,0,0,0,0,0,0,0,0,0,0,0,0,0,0],"split_type":[0,0,0,0,0,0,0,0,0,0,0,0,0,0,0,0,0,0,0,0,0,0,0,0,0,0,0,0,0],"sum_hessian":[1.31E2,6.9E1,6.2E1,2.6E1,4.3E1,4.7E1,1.5E1,1E1,1.6E1,2.8E1,1.5E1,2.8E1,1.9E1,1.3E1,2E0,3E0,7E0,7E0,9E0,2.2E1,6E0,1.2E1,3E0,9E0,1.9E1,1E1,9E0,1E0,1E0],"tree_param":{"num_deleted":"0","num_feature":"1536","num_nodes":"29","size_leaf_vector":"0"}},{"base_weights":[4.4956657E-1,6.3190264E-1,3.574553E-1,7.334895E-1,1.6663098E-1,4.7398973E-1,1.5157537E-1,7.956369E-1,2.014778E-1,2.8451303E-1,1.5422749E-2,1.2136433E-1,5.5567485E-1,-8.960523E-3,2.7878585E-1,4.249484E-1,8.860482E-1,9.964913E-3,2.468648E-1,1.259677E-1,3.4822068E-1,5.06185E-2,-6.2680125E-2,2.4486709E-1,-1.8329279E-3,8.138678E-2,6.1152977E-1,6.1462026E-2,-5.7360254E-2,4.267007E-1,1.3242042E-1],"categories":[],"categories_nodes":[],"categories_segments":[],"categories_sizes":[],"default_left":[1,1,1,1,1,1,1,1,1,1,1,1,1,1,1,0,0,0,0,0,0,0,0,0,0,0,0,0,0,0,0],"id":37,"left_children":[1,3,5,7,9,11,13,15,17,19,21,23,25,27,29,-1,-1,-1,-1,-1,-1,-1,-1,-1,-1,-1,-1,-1,-1,-1,-1],"loss_changes":[1.9910889E0,1.9101944E0,2.0874434E0,9.969082E-1,1.5603462E-1,1.5744019E0,6.968409E-1,6.624222E-1,4.1000992E-2,6.638199E-3,1.6917221E-2,1.8303123E-1,1.1688309E0,5.8060404E-2,3.5483897E-1,0E0,0E0,0E0,0E0,0E0,0E0,0E0,0E0,0E0,0E0,0E0,0E0,0E0,0E0,0E0,0E0],"parents":[2147483647,0,0,1,1,2,2,3,3,4,4,5,5,6,6,7,7,8,8,9,9,10,10,11,11,12,12,13,13,14,14],"right_children":[2,4,6,8,10,12,14,16,18,20,22,24,26,28,30,-1,-1,-1,-1,-1,-1,-1,-1,-1,-1,-1,-1,-1,-1,-1,-1],"split_conditions":[2.1245875E-3,3.5307955E-2,1.5328268E-2,1.0217115E-2,4.4285813E-3,8.398429E-3,2.66363E-2,-1.0850187E-2,-6.7060646E-3,6.598459E-3,-7.545746E-3,-1.3211316E-2,-1.9417923E-2,1.2748839E-2,5.952853E-3,2.124742E-2,4.430241E-2,4.9824564E-4,1.234324E-2,6.298385E-3,1.7411035E-2,2.530925E-3,-3.1340064E-3,1.2243355E-2,-9.16464E-5,4.069339E-3,3.0576488E-2,3.0731014E-3,-2.8680128E-3,2.1335036E-2,6.6210213E-3],"split_indices":[718,191,691,1274,57,1474,378,995,4,0,4,500,404,434,821,0,0,0,0,0,0,0,0,0,0,0,0,0,0,0,0],"split_type":[0,0,0,0,0,0,0,0,0,0,0,0,0,0,0,0,0,0,0,0,0,0,0,0,0,0,0,0,0,0,0],"sum_hessian":[1.31E2,4.2E1,8.9E1,3.4E1,8E0,5.6E1,3.3E1,3E1,4E0,4E0,4E0,1.1E1,4.5E1,1.5E1,1.8E1,7E0,2.3E1,1E0,3E0,2E0,2E0,3E0,1E0,5E0,6E0,5E0,4E1,6E0,9E0,8E0,1E1],"tree_param":{"num_deleted":"0","num_feature":"1536","num_nodes":"31","size_leaf_vector":"0"}},{"base_weights":[4.2842504E-1,2.7920464E-1,5.281519E-1,6.644592E-1,2.2738999E-1,1.6044721E-1,6.0608035E-1,3.530297E-2,2.9392588E-1,3.046371E-1,-3.798589E-3,6.6714E-1,9.527032E-2,1.9821794E-1,-8.367687E-3,1.865385E-2,3.3635423E-1,3.9873713E-1,1.6842966E-1,-4.0254455E-2,7.037934E-2,1.6854903E-1,7.224929E-1,-1.6505321E-3,1.2785237E-1],"categories":[],"categories_nodes":[],"categories_segments":[],"categories_sizes":[],"default_left":[1,1,1,0,1,1,1,1,1,1,1,1,1,0,0,0,0,0,0,0,0,0,0,0,0],"id":38,"left_children":[1,3,5,-1,7,9,11,13,15,17,19,21,23,-1,-1,-1,-1,-1,-1,-1,-1,-1,-1,-1,-1],"loss_changes":[1.8168697E0,9.468093E-1,2.1378193E0,0E0,6.286578E-1,3.5639602E-1,1.9325924E0,1.0126309E-1,4.2586088E-1,3.53778E-2,2.4466846E-2,1.4513378E0,2.5474057E-2,0E0,0E0,0E0,0E0,0E0,0E0,0E0,0E0,0E0,0E0,0E0,0E0],"parents":[2147483647,0,0,1,1,2,2,4,4,5,5,6,6,7,7,8,8,9,9,10,10,11,11,12,12],"right_children":[2,4,6,-1,8,10,12,14,16,18,20,22,24,-1,-1,-1,-1,-1,-1,-1,-1,-1,-1,-1,-1],"split_conditions":[1.059945E-3,-1.4720829E-2,-1.7134383E-2,3.3222962E-2,-5.7750586E-3,-1.3460614E-3,1.5011565E-2,-1.0595717E-2,3.837464E-3,8.5156495E-3,3.29568E-3,8.6426834E-4,1.5647099E-3,9.910897E-3,-4.1838438E-4,9.326925E-4,1.6817711E-2,1.9936858E-2,8.421483E-3,-2.012723E-3,3.518967E-3,8.427451E-3,3.6124643E-2,-8.252661E-5,6.392618E-3],"split_indices":[1000,212,906,0,1361,459,149,77,1290,95,4,1436,15,0,0,0,0,0,0,0,0,0,0,0,0],"split_type":[0,0,0,0,0,0,0,0,0,0,0,0,0,0,0,0,0,0,0,0,0,0,0,0,0],"sum_hessian":[1.31E2,5.4E1,7.7E1,5E0,4.9E1,1.4E1,6.3E1,1.3E1,3.6E1,7E0,7E0,5.6E1,7E0,2E0,1.1E1,5E0,3.1E1,3E0,4E0,5E0,2E0,6E0,5E1,2E0,5E0],"tree_param":{"num_deleted":"0","num_feature":"1536","num_nodes":"25","size_leaf_vector":"0"}},{"base_weights":[4.080734E-1,3.510427E-1,6.772705E-1,1.9984119E-1,4.6307176E-1,7.88727E-1,1.4057282E-1,7.90049E-2,3.7110355E-1,2.6095933E-1,5.727624E-1,3.0981034E-1,8.638563E-1,-6.833458E-2,2.098833E-1,1.7701315E-2,2.200798E-1,1.471782E-1,5.8031106E-1,-5.5010557E-2,3.470046E-1,3.7040147E-1,7.5660336E-1],"categories":[],"categories_nodes":[],"categories_segments":[],"categories_sizes":[],"default_left":[1,1,1,1,1,1,1,1,1,1,1,0,0,0,0,0,0,0,0,0,0,0,0],"id":39,"left_children":[1,3,5,7,9,11,13,15,17,19,21,-1,-1,-1,-1,-1,-1,-1,-1,-1,-1,-1,-1],"loss_changes":[1.7887802E0,1.7876844E0,1.2051325E0,9.8472166E-1,1.2472334E0,3.8002014E-1,8.673965E-2,2.555562E-1,8.515284E-1,6.7159414E-1,1.2078409E0,0E0,0E0,0E0,0E0,0E0,0E0,0E0,0E0,0E0,0E0,0E0,0E0],"parents":[2147483647,0,0,1,1,2,2,3,3,4,4,5,5,6,6,7,7,8,8,9,9,10,10],"right_children":[2,4,6,8,10,12,14,16,18,20,22,-1,-1,-1,-1,-1,-1,-1,-1,-1,-1,-1,-1],"split_conditions":[1.1234488E-2,3.1912018E-2,-3.1133108E-3,1.9629484E-4,-1.0478223E-2,-1.7762735E-2,3.8964894E-2,1.5231032E-2,1.0418052E-2,1.0976778E-2,3.385752E-2,1.5490517E-2,4.3192815E-2,-3.416729E-3,1.0494165E-2,8.8506576E-4,1.100399E-2,7.35891E-3,2.9015554E-2,-2.7505278E-3,1.735023E-2,1.8520074E-2,3.783017E-2],"split_indices":[616,1051,447,649,952,1117,5,141,1220,427,281,0,0,0,0,0,0,0,0,0,0,0,0],"split_type":[0,0,0,0,0,0,0,0,0,0,0,0,0,0,0,0,0,0,0,0,0,0,0],"sum_hessian":[1.31E2,1.1E2,2.1E1,4.8E1,6.2E1,1.7E1,4E0,2.9E1,1.9E1,2.3E1,3.9E1,3E0,1.4E1,1E0,3E0,2.1E1,8E0,1E1,9E0,5E0,1.8E1,2E1,1.9E1],"tree_param":{"num_deleted":"0","num_feature":"1536","num_nodes":"23","size_leaf_vector":"0"}},{"base_weights":[3.8907105E-1,2.5314352E-1,4.7992933E-1,1.8661563E-1,5.3385735E-1,1.9562693E-1,5.6816864E-1,3.6628044E-1,8.786556E-2,6.319399E-1,9.435141E-2,3.5871092E-2,4.3077677E-1,1.967587E-1,6.491842E-1,3.8905126E-1,1.3792308E-1,1.0030403E-2,1.7022103E-1,1.11868404E-1,-2.5610775E-2,4.9400255E-1,-5.901754E-3,3.3447692E-1,8.608998E-2,7.0581985E-1,2.1662997E-1],"categories":[],"categories_nodes":[],"categories_segments":[],"categories_sizes":[],"default_left":[1,1,1,1,1,1,1,1,1,0,0,1,1,1,1,0,0,0,0,0,0,0,0,0,0,0,0],"id":40,"left_children":[1,3,5,7,9,11,13,15,17,-1,-1,19,21,23,25,-1,-1,-1,-1,-1,-1,-1,-1,-1,-1,-1,-1],"loss_changes":[1.508728E0,9.275148E-1,1.8456097E0,7.839445E-1,3.71454E-1,7.358788E-1,1.6475754E0,2.9539108E-2,1.970073E-1,0E0,0E0,6.360697E-2,2.2379017E-1,1.5409806E-1,1.0230007E0,0E0,0E0,0E0,0E0,0E0,0E0,0E0,0E0,0E0,0E0,0E0,0E0],"parents":[2147483647,0,0,1,1,2,2,3,3,4,4,5,5,6,6,7,7,8,8,11,11,12,12,13,13,14,14],"right_children":[2,4,6,8,10,12,14,16,18,-1,-1,20,22,24,26,-1,-1,-1,-1,-1,-1,-1,-1,-1,-1,-1,-1],"split_conditions":[1.059945E-3,1.5115423E-2,-6.317394E-1,-6.8208976E-3,-7.41366E-3,-1.0265919E-2,-1.7134383E-2,8.6089745E-3,1.9713666E-2,3.1596996E-2,4.7175707E-3,-6.6889343E-3,1.0442814E-2,-1.5020301E-2,3.9344765E-2,1.9452563E-2,6.896154E-3,5.015202E-4,8.511052E-3,5.5934205E-3,-1.2805387E-3,2.4700128E-2,-2.950877E-4,1.6723847E-2,4.3044994E-3,3.5290994E-2,1.0831499E-2],"split_indices":[1000,133,194,18,46,467,906,0,135,0,0,786,17,89,191,0,0,0,0,0,0,0,0,0,0,0,0],"split_type":[0,0,0,0,0,0,0,0,0,0,0,0,0,0,0,0,0,0,0,0,0,0,0,0,0,0,0],"sum_hessian":[1.31E2,5.4E1,7.7E1,4.5E1,9E0,1.9E1,5.8E1,1.5E1,3E1,7E0,2E0,1.2E1,7E0,1.1E1,4.7E1,1.3E1,2E0,1.6E1,1.4E1,5E0,7E0,6E0,1E0,4E0,7E0,4.1E1,6E0],"tree_param":{"num_deleted":"0","num_feature":"1536","num_nodes":"27","size_leaf_vector":"0"}},{"base_weights":[3.7088677E-1,3.1812155E-1,6.202528E-1,1.8112238E-1,4.1962692E-1,3.581589E-1,8.4978676E-1,1.2881222E-1,5.345431E-1,3.0757004E-1,6.4517075E-1,4.3010977E-1,-1.0637045E-3,4.204353E-1,8.0644265E-2,1.4033969E-1,4.179472E-1,3.3407757E-1,7.5463367E-1,5.081417E-1,2.5044948E-1,6.528139E-2,-6.687695E-2],"categories":[],"categories_nodes":[],"categories_segments":[],"categories_sizes":[],"default_left":[1,1,1,1,1,1,0,1,0,1,1,1,1,0,0,0,0,0,0,0,0,0,0],"id":41,"left_children":[1,3,5,7,9,11,-1,13,-1,15,17,19,21,-1,-1,-1,-1,-1,-1,-1,-1,-1,-1],"loss_changes":[1.5395222E0,1.4675789E0,1.0191488E0,8.370315E-1,1.3938112E0,3.106141E-1,0E0,5.841575E-1,0E0,7.535157E-1,4.28957E-1,1.2928724E-2,1.7464979E-2,0E0,0E0,0E0,0E0,0E0,0E0,0E0,0E0,0E0,0E0],"parents":[2147483647,0,0,1,1,2,2,3,3,4,4,5,5,7,7,9,9,10,10,11,11,12,12],"right_children":[2,4,6,8,10,12,-1,14,-1,16,18,20,22,-1,-1,-1,-1,-1,-1,-1,-1,-1,-1],"split_conditions":[1.1234488E-2,3.1912018E-2,-8.710987E-3,1.3312887E-2,-1.0975227E-3,6.3472874E-3,4.248934E-2,-2.4430744E-2,2.6727155E-2,-3.8178158E-3,-3.1660357E-3,-3.3252694E-2,1.3511171E-2,2.1021767E-2,4.0322132E-3,7.0169843E-3,2.089736E-2,1.670388E-2,3.7731685E-2,2.5407085E-2,1.2522474E-2,3.2640696E-3,-3.3438473E-3],"split_indices":[616,1051,1244,494,1481,42,0,1208,0,788,480,139,2,0,0,0,0,0,0,0,0,0,0],"split_type":[0,0,0,0,0,0,0,0,0,0,0,0,0,0,0,0,0,0,0,0,0,0,0],"sum_hessian":[1.31E2,1.1E2,2.1E1,4.8E1,6.2E1,1.1E1,1E1,4.3E1,5E0,4.3E1,1.9E1,9E0,2E0,5E0,3.8E1,1.8E1,2.5E1,6E0,1.3E1,5E0,4E0,1E0,1E0],"tree_param":{"num_deleted":"0","num_feature":"1536","num_nodes":"23","size_leaf_vector":"0"}},{"base_weights":[3.539672E-1,1.5541266E-1,4.1084194E-1,6.7361735E-2,3.335834E-1,2.2930667E-1,4.832968E-1,6.432263E-3,2.2876829E-1,-1.6518712E-2,3.7431908E-1,4.251693E-1,1.1579259E-1,2.4472427E-1,5.7673407E-1,5.6906447E-2,-7.38032E-2,1.03651404E-1,3.951961E-1,1.0727799E-1,4.4623062E-1,2.4261865E-1,4.5482317E-4,-3.0973991E-2,3.2763398E-1,4.3397427E-2,6.2120104E-1],"categories":[],"categories_nodes":[],"categories_segments":[],"categories_sizes":[],"default_left":[1,1,1,1,1,1,1,1,0,0,1,1,1,1,1,0,0,0,0,0,0,0,0,0,0,0,0],"id":42,"left_children":[1,3,5,7,9,11,13,15,-1,-1,17,19,21,23,25,-1,-1,-1,-1,-1,-1,-1,-1,-1,-1,-1,-1],"loss_changes":[1.4267921E0,4.6386033E-1,1.2307949E0,2.1488565E-1,1.4879966E-1,6.399969E-1,1.46385E0,7.304681E-2,0E0,0E0,9.894013E-3,2.5776744E-2,3.070742E-1,5.1302564E-1,1.1825523E0,0E0,0E0,0E0,0E0,0E0,0E0,0E0,0E0,0E0,0E0,0E0,0E0],"parents":[2147483647,0,0,1,1,2,2,3,3,4,4,5,5,6,6,7,7,10,10,11,11,12,12,13,13,14,14],"right_children":[2,4,6,8,10,12,14,16,-1,-1,18,20,22,24,26,-1,-1,-1,-1,-1,-1,-1,-1,-1,-1,-1,-1],"split_conditions":[-2.2845257E-2,8.310644E-3,-1.345383E-2,-2.607328E-2,-9.5468934E-4,-3.510932E-2,2.0663654E-3,2.6982803E-2,1.1438414E-2,-8.259356E-4,1.7551525E-2,2.7481422E-3,-1.90241E-2,-2.187004E-2,-3.371527E-2,2.8453225E-3,-3.69016E-3,5.1825703E-3,1.9759806E-2,5.3638997E-3,2.2311531E-2,1.2130933E-2,2.2741158E-5,-1.5486996E-3,1.63817E-2,2.1698715E-3,3.1060053E-2],"split_indices":[1043,227,993,287,6,251,751,798,0,0,26,11,637,716,500,0,0,0,0,0,0,0,0,0,0,0,0],"split_type":[0,0,0,0,0,0,0,0,0,0,0,0,0,0,0,0,0,0,0,0,0,0,0,0,0,0,0],"sum_hessian":[1.31E2,3E1,1.01E2,2.1E1,9E0,3E1,7.1E1,1.6E1,5E0,1E0,8E0,1E1,2E1,2.1E1,5E1,1E1,6E0,1E0,7E0,1E0,9E0,9E0,1.1E1,5E0,1.6E1,4E0,4.6E1],"tree_param":{"num_deleted":"0","num_feature":"1536","num_nodes":"27","size_leaf_vector":"0"}},{"base_weights":[3.3719763E-1,2.9386678E-1,6.3297963E-1,4.5627302E-1,2.2735769E-1,3.0073676E-1,8.022517E-1,2.9088724E-1,6.8833673E-1,1.4098534E-1,3.981519E-1,9.6367836E-2,3.6321077E-1,3.8246952E-2,4.1447547E-1,1.9276397E-1,7.609169E-1,7.286477E-2,2.5753754E-1,6.4435434E-1,2.476163E-1],"categories":[],"categories_nodes":[],"categories_segments":[],"categories_sizes":[],"default_left":[1,1,1,1,1,1,0,1,1,1,1,0,0,0,0,0,0,0,0,0,0],"id":43,"left_children":[1,3,5,7,9,11,-1,13,15,17,19,-1,-1,-1,-1,-1,-1,-1,-1,-1,-1],"loss_changes":[1.5057659E0,1.160038E0,6.585641E-1,1.0663123E0,1.1977777E0,5.437243E-2,0E0,6.3983846E-1,3.2091665E-1,4.4173157E-1,8.7818956E-1,0E0,0E0,0E0,0E0,0E0,0E0,0E0,0E0,0E0,0E0],"parents":[2147483647,0,0,1,1,2,2,3,3,4,4,5,5,7,7,8,8,9,9,10,10],"right_children":[2,4,6,8,10,12,-1,14,16,18,20,-1,-1,-1,-1,-1,-1,-1,-1,-1,-1],"split_conditions":[3.33751E-2,-1.6829975E-2,-5.998991E-4,-2.1193707E-2,4.180948E-3,1.349402E-2,4.0112585E-2,-1.3235608E-2,-1.4245313E-2,1.3637894E-3,2.014751E-2,4.818392E-3,1.8160539E-2,1.9123476E-3,2.0723773E-2,9.638199E-3,3.8045846E-2,3.6432387E-3,1.2876878E-2,3.221772E-2,1.2380815E-2],"split_indices":[1275,479,372,134,814,11,0,43,103,794,155,0,0,0,0,0,0,0,0,0,0],"split_type":[0,0,0,0,0,0,0,0,0,0,0,0,0,0,0,0,0,0,0,0,0],"sum_hessian":[1.31E2,1.16E2,1.5E1,3.2E1,8.4E1,6E0,9E0,2E1,1.2E1,5.7E1,2.7E1,2E0,4E0,7E0,1.3E1,2E0,1E1,3.7E1,2E1,9E0,1.8E1],"tree_param":{"num_deleted":"0","num_feature":"1536","num_nodes":"21","size_leaf_vector":"0"}},{"base_weights":[3.2181144E-1,4.7802785E-1,2.5357473E-1,3.141506E-1,6.5176517E-1,3.3297002E-2,3.0893445E-1,8.73799E-2,4.141516E-1,3.1479514E-1,7.57154E-1,-2.9216073E-2,9.873168E-2,1.0424896E-1,3.919313E-1,-4.9361903E-2,1.4118749E-1,4.8987576E-1,1.6472812E-1,7.2369375E-3,-6.0799737E-2,6.1949104E-2,1.63908E-1,4.5375475E-3,1.9527297E-1,6.18242E-1,2.7735794E-1],"categories":[],"categories_nodes":[],"categories_segments":[],"categories_sizes":[],"default_left":[1,1,1,1,1,1,1,1,1,0,0,1,1,1,1,0,0,0,0,0,0,0,0,0,0,0,0],"id":44,"left_children":[1,3,5,7,9,11,13,15,17,-1,-1,19,21,23,25,-1,-1,-1,-1,-1,-1,-1,-1,-1,-1,-1,-1],"loss_changes":[1.2858639E0,9.056387E-1,1.1359978E0,4.6271205E-1,4.0088272E-1,8.469502E-2,1.2332611E0,6.583126E-2,2.0261455E-1,0E0,0E0,1.310452E-2,1.3819575E-2,2.0786498E-1,1.2027712E0,0E0,0E0,0E0,0E0,0E0,0E0,0E0,0E0,0E0,0E0,0E0,0E0],"parents":[2147483647,0,0,1,1,2,2,3,3,4,4,5,5,6,6,7,7,8,8,11,11,12,12,13,13,14,14],"right_children":[2,4,6,8,10,12,14,16,18,-1,-1,20,22,24,26,-1,-1,-1,-1,-1,-1,-1,-1,-1,-1,-1,-1],"split_conditions":[-7.982065E-3,-4.518131E-3,1.8631571E-3,-2.975163E-2,5.546348E-3,-4.9017527E-4,-1.8349133E-2,-7.365304E-3,-3.328656E-3,1.5739758E-2,3.78577E-2,1.38841495E-2,3.4819648E-2,9.509638E-3,2.0050729E-2,-2.4680952E-3,7.0593744E-3,2.449379E-2,8.236406E-3,3.6184688E-4,-3.0399868E-3,3.0974553E-3,8.1954E-3,2.2687738E-4,9.763649E-3,3.0912101E-2,1.3867897E-2],"split_indices":[922,952,1259,363,801,1453,405,34,158,0,0,337,50,878,1228,0,0,0,0,0,0,0,0,0,0,0,0],"split_type":[0,0,0,0,0,0,0,0,0,0,0,0,0,0,0,0,0,0,0,0,0,0,0,0,0,0,0],"sum_hessian":[1.31E2,3.8E1,9.3E1,2.1E1,1.7E1,1.9E1,7.4E1,7E0,1.4E1,5E0,1.2E1,1E1,9E0,2.2E1,5.2E1,2E0,5E0,1E1,4E0,5E0,5E0,7E0,2E0,1.1E1,1.1E1,1.6E1,3.6E1],"tree_param":{"num_deleted":"0","num_feature":"1536","num_nodes":"27","size_leaf_vector":"0"}},{"base_weights":[3.0688986E-1,2.6663342E-1,5.820846E-1,4.7309953E-1,2.1384022E-1,6.99314E-1,1.8431708E-1,6.5707195E-1,2.1266852E-1,3.396301E-1,1.3133062E-1,2.0774034E-1,4.5312047E-2,7.2903866E-1,3.1288725E-1,6.729984E-2,3.2259247E-1,5.6066346E-1,2.4855994E-1,3.4012187E-2,2.2427139E-1],"categories":[],"categories_nodes":[],"categories_segments":[],"categories_sizes":[],"default_left":[1,1,1,1,1,0,1,1,1,1,1,0,0,0,0,0,0,0,0,0,0],"id":45,"left_children":[1,3,5,7,9,-1,11,13,15,17,19,-1,-1,-1,-1,-1,-1,-1,-1,-1,-1],"loss_changes":[1.3071413E0,1.1741333E0,6.171856E-1,9.622407E-1,9.413886E-1,0E0,6.866604E-3,9.390116E-2,1.5406406E-1,6.054349E-1,5.2601814E-1,0E0,0E0,0E0,0E0,0E0,0E0,0E0,0E0,0E0,0E0],"parents":[2147483647,0,0,1,1,2,2,3,3,4,4,6,6,7,7,8,8,9,9,10,10],"right_children":[2,4,6,8,10,-1,12,14,16,18,20,-1,-1,-1,-1,-1,-1,-1,-1,-1,-1],"split_conditions":[3.33751E-2,-3.952681E-3,3.0088551E-2,6.2418953E-3,5.9023285E-3,3.49657E-2,-1.5095875E-2,8.524237E-3,-9.338016E-3,-3.3661388E-2,7.921547E-3,1.0387017E-2,2.2656024E-3,3.6451932E-2,1.5644362E-2,3.364992E-3,1.6129624E-2,2.8033173E-2,1.2427997E-2,1.7006093E-3,1.121357E-2],"split_indices":[1275,842,1084,95,538,0,13,362,189,890,789,0,0,0,0,0,0,0,0,0,0],"split_type":[0,0,0,0,0,0,0,0,0,0,0,0,0,0,0,0,0,0,0,0,0],"sum_hessian":[1.31E2,1.16E2,1.5E1,2.2E1,9.4E1,1.1E1,4E0,1.2E1,1E1,3.6E1,5.8E1,3E0,1E0,9E0,3E0,5E0,5E0,9E0,2.7E1,2.9E1,2.9E1],"tree_param":{"num_deleted":"0","num_feature":"1536","num_nodes":"21","size_leaf_vector":"0"}},{"base_weights":[2.9285282E-1,2.5436983E-1,5.559566E-1,4.5255724E-1,2.0371003E-1,6.672622E-1,1.7763177E-1,8.4559165E-2,5.500812E-1,2.7181548E-1,5.4336976E-2,4.41792E-2,1.999501E-1,2.102977E-2,1.4107864E-1,6.864733E-1,2.9378188E-1,3.85269E-2,3.2390863E-1,-2.515781E-2,1.304357E-1],"categories":[],"categories_nodes":[],"categories_segments":[],"categories_sizes":[],"default_left":[1,1,1,1,1,0,1,1,1,1,1,0,0,0,0,0,0,0,0,0,0],"id":46,"left_children":[1,3,5,7,9,-1,11,13,15,17,19,-1,-1,-1,-1,-1,-1,-1,-1,-1,-1],"loss_changes":[1.1950846E0,1.0825052E0,5.5522823E-1,7.78924E-1,9.516771E-1,0E0,6.058559E-3,1.8577032E-2,4.2755604E-1,7.7744865E-1,1.9081448E-1,0E0,0E0,0E0,0E0,0E0,0E0,0E0,0E0,0E0,0E0],"parents":[2147483647,0,0,1,1,2,2,3,3,4,4,6,6,7,7,8,8,9,9,10,10],"right_children":[2,4,6,8,10,-1,12,14,16,18,20,-1,-1,-1,-1,-1,-1,-1,-1,-1,-1],"split_conditions":[3.33751E-2,-3.952681E-3,3.0088551E-2,1.9761184E-3,-1.5210677E-2,3.336311E-2,-3.4215055E-2,-5.6604818E-3,2.7914943E-2,-2.9245459E-2,-8.064149E-3,2.20896E-3,9.997505E-3,1.0514886E-3,7.0539317E-3,3.4323666E-2,1.4689094E-2,1.926345E-3,1.6195431E-2,-1.2578905E-3,6.521785E-3],"split_indices":[1275,842,1084,25,1141,0,8,21,1228,887,230,0,0,0,0,0,0,0,0,0,0],"split_type":[0,0,0,0,0,0,0,0,0,0,0,0,0,0,0,0,0,0,0,0,0],"sum_hessian":[1.31E2,1.16E2,1.5E1,2.2E1,9.4E1,1.1E1,4E0,5E0,1.7E1,6.4E1,3E1,1E0,3E0,3E0,2E0,1E1,7E0,1.2E1,5.2E1,1.5E1,1.5E1],"tree_param":{"num_deleted":"0","num_feature":"1536","num_nodes":"21","size_leaf_vector":"0"}},{"base_weights":[2.7916527E-1,2.4233937E-1,5.3100675E-1,4.6229017E-1,2.0032483E-1,6.3667923E-1,1.7119142E-1,2.1499347E-2,5.866947E-1,3.3948022E-1,1.2984759E-1,1.9245192E-1,4.3074727E-2,1.02572285E-1,-6.6740036E-2,6.431078E-1,2.848851E-1,4.9616718E-1,2.3858368E-1,5.851647E-1,1.0718397E-1],"categories":[],"categories_nodes":[],"categories_segments":[],"categories_sizes":[],"default_left":[1,1,1,1,1,0,1,1,1,1,1,0,0,0,0,0,0,0,0,0,0],"id":47,"left_children":[1,3,5,7,9,-1,11,13,15,17,19,-1,-1,-1,-1,-1,-1,-1,-1,-1,-1],"loss_changes":[1.0955219E0,9.8860407E-1,4.9936724E-1,9.744413E-1,9.366479E-1,0E0,5.329311E-3,4.2614806E-2,5.515194E-2,4.0332556E-1,6.38981E-1,0E0,0E0,0E0,0E0,0E0,0E0,0E0,0E0,0E0,0E0],"parents":[2147483647,0,0,1,1,2,2,3,3,4,4,6,6,7,7,8,8,9,9,10,10],"right_children":[2,4,6,8,10,-1,12,14,16,18,20,-1,-1,-1,-1,-1,-1,-1,-1,-1,-1],"split_conditions":[3.33751E-2,6.369868E-4,3.0088551E-2,-8.771159E-3,-1.3152674E-2,3.183396E-2,-1.5095875E-2,-1.5259281E-2,-6.290776E-3,-1.7458504E-2,-1.3447229E-2,9.622596E-3,2.1537363E-3,5.128614E-3,-3.337002E-3,3.215539E-2,1.4244256E-2,2.480836E-2,1.1929184E-2,2.9258236E-2,5.3591984E-3],"split_indices":[1275,892,1084,1250,1466,0,13,14,185,351,804,0,0,0,0,0,0,0,0,0,0],"split_type":[0,0,0,0,0,0,0,0,0,0,0,0,0,0,0,0,0,0,0,0,0],"sum_hessian":[1.31E2,1.16E2,1.5E1,1.7E1,9.9E1,1.1E1,4E0,4E0,1.3E1,3.2E1,6.7E1,3E0,1E0,2E0,2E0,1E1,3E0,1.1E1,2.1E1,2E0,6.5E1],"tree_param":{"num_deleted":"0","num_feature":"1536","num_nodes":"21","size_leaf_vector":"0"}},{"base_weights":[2.66443E-1,3.945034E-1,2.0229812E-1,4.636482E-1,8.177322E-2,2.9887417E-1,9.453964E-2,5.1062006E-1,1.5151423E-1,1.8700936E-1,-2.0130773E-3,1.6639209E-1,4.6940538E-1,1.9727516E-1,3.4597985E-2,3.130152E-1,6.085484E-1,-5.424559E-3,1.839869E-1,2.947842E-2,-7.973528E-2,2.1639876E-2,3.3174926E-1,5.4384255E-1,1.3732538E-1,2.2338721E-1,9.660562E-3,7.070896E-2,-8.899493E-2],"categories":[],"categories_nodes":[],"categories_segments":[],"categories_sizes":[],"default_left":[1,1,1,1,1,1,1,1,1,0,1,1,1,1,1,0,0,0,0,0,0,0,0,0,0,0,0,0,0],"id":48,"left_children":[1,3,5,7,9,11,13,15,17,-1,19,21,23,25,27,-1,-1,-1,-1,-1,-1,-1,-1,-1,-1,-1,-1,-1,-1],"loss_changes":[1.0044966E0,8.919039E-1,9.083643E-1,4.3578625E-1,7.97326E-2,9.8373413E-1,2.6413277E-1,3.9004898E-1,3.1575367E-2,0E0,1.7036E-2,6.6302395E-1,4.1969824E-1,7.6225996E-2,1.357215E-1,0E0,0E0,0E0,0E0,0E0,0E0,0E0,0E0,0E0,0E0,0E0,0E0,0E0,0E0],"parents":[2147483647,0,0,1,1,2,2,3,3,4,4,5,5,6,6,7,7,8,8,10,10,11,11,12,12,13,13,14,14],"right_children":[2,4,6,8,10,12,14,16,18,-1,20,22,24,26,28,-1,-1,-1,-1,-1,-1,-1,-1,-1,-1,-1,-1,-1,-1],"split_conditions":[2.1245875E-3,3.5307955E-2,1.2616285E-3,-7.1380584E-4,-2.992113E-2,-2.4273037E-3,1.5504552E-2,3.6521584E-3,-7.567675E-3,9.350468E-3,-7.545746E-3,-7.7512977E-3,-7.6491097E-3,-2.8962013E-3,-6.2705036E-3,1.565076E-2,3.042742E-2,-2.7122797E-4,9.1993455E-3,1.473921E-3,-3.9867642E-3,1.0819938E-3,1.6587464E-2,2.7192129E-2,6.866269E-3,1.1169361E-2,4.830281E-4,3.535448E-3,-4.4497466E-3],"split_indices":[718,191,504,88,88,894,367,1135,4,0,4,1469,1335,34,246,0,0,0,0,0,0,0,0,0,0,0,0,0,0],"split_type":[0,0,0,0,0,0,0,0,0,0,0,0,0,0,0,0,0,0,0,0,0,0,0,0,0,0,0,0,0],"sum_hessian":[1.31E2,4.2E1,8.9E1,3.4E1,8E0,4.6E1,4.3E1,2.9E1,5E0,3E0,5E0,2.7E1,1.9E1,1.5E1,2.8E1,1.1E1,1.8E1,1E0,4E0,4E0,1E0,1.5E1,1.2E1,1.5E1,4E0,1.3E1,2E0,2.2E1,6E0],"tree_param":{"num_deleted":"0","num_feature":"1536","num_nodes":"29","size_leaf_vector":"0"}},{"base_weights":[2.540626E-1,2.1968518E-1,4.8956853E-1,3.4453875E-1,1.4779657E-1,5.867112E-1,1.5851228E-1,1.5369904E-1,4.5606706E-1,2.7492276E-1,6.350758E-2,3.370416E-2,1.8128827E-1,2.1517588E-1,5.1288307E-3,1.8592413E-1,5.2781373E-1,1.6887881E-1,5.0359434E-1,1.2244632E-2,2.1200413E-1],"categories":[],"categories_nodes":[],"categories_segments":[],"categories_sizes":[],"default_left":[1,1,1,1,1,0,1,1,1,1,1,0,0,0,0,0,0,0,0,0,0],"id":49,"left_children":[1,3,5,7,9,-1,11,13,15,17,19,-1,-1,-1,-1,-1,-1,-1,-1,-1,-1],"loss_changes":[9.6113205E-1,9.99218E-1,4.2155457E-1,8.2383204E-1,7.9690576E-1,0E0,8.102983E-3,1.541681E-1,4.0579462E-1,6.42431E-1,3.551855E-1,0E0,0E0,0E0,0E0,0E0,0E0,0E0,0E0,0E0,0E0],"parents":[2147483647,0,0,1,1,2,2,3,3,4,4,6,6,7,7,8,8,9,9,10,10],"right_children":[2,4,6,8,10,-1,12,14,16,18,20,-1,-1,-1,-1,-1,-1,-1,-1,-1,-1],"split_conditions":[3.33751E-2,2.6063079E-3,3.0088551E-2,1.262983E-2,-2.0345247E-3,2.9335562E-2,-7.1501127E-3,6.67057E-3,1.7138489E-2,1.8051885E-2,9.931251E-3,1.6852081E-3,9.064414E-3,1.0758794E-2,2.5644153E-4,9.296207E-3,2.6390687E-2,8.44394E-3,2.5179718E-2,6.122316E-4,1.0600206E-2],"split_indices":[1275,718,1084,427,504,0,17,596,1121,801,22,0,0,0,0,0,0,0,0,0,0],"split_type":[0,0,0,0,0,0,0,0,0,0,0,0,0,0,0,0,0,0,0,0,0],"sum_hessian":[1.31E2,1.16E2,1.5E1,4.1E1,7.5E1,1.1E1,4E0,1.6E1,2.5E1,2.9E1,4.6E1,1E0,3E0,1.1E1,5E0,6E0,1.9E1,2.1E1,8E0,3.5E1,1.1E1],"tree_param":{"num_deleted":"0","num_feature":"1536","num_nodes":"21","size_leaf_vector":"0"}},{"base_weights":[2.4235663E-1,3.6899003E-1,1.8723898E-1,6.130453E-1,2.7533862E-1,1.4106035E-1,4.2104235E-1,3.934309E-1,1.3101763E-1,1.0644075E-1,2.9666415E-1,5.452247E-1,6.3632585E-2,2.2315715E-1,5.3581E-1,2.2911447E-1,1.6543567E-2,4.8292913E-2,1.96278E-1,7.288953E-2,3.278858E-1,5.98556E-1,2.0348947E-1,1.6459632E-1,-5.8542013E-2],"categories":[],"categories_nodes":[],"categories_segments":[],"categories_sizes":[],"default_left":[1,1,1,0,1,1,1,1,1,1,1,1,1,0,0,0,0,0,0,0,0,0,0,0,0],"id":50,"left_children":[1,3,5,-1,7,9,11,13,15,17,19,21,23,-1,-1,-1,-1,-1,-1,-1,-1,-1,-1,-1,-1],"loss_changes":[8.522358E-1,7.225938E-1,9.5549893E-1,0E0,4.5974922E-1,3.993783E-1,6.3106585E-1,2.6832485E-1,1.646528E-1,3.4051853E-1,7.391322E-2,7.867718E-2,7.131182E-2,0E0,0E0,0E0,0E0,0E0,0E0,0E0,0E0,0E0,0E0,0E0,0E0],"parents":[2147483647,0,0,1,1,2,2,4,4,5,5,6,6,7,7,8,8,9,9,10,10,11,11,12,12],"right_children":[2,4,6,-1,8,10,12,14,16,18,20,22,24,-1,-1,-1,-1,-1,-1,-1,-1,-1,-1,-1,-1],"split_conditions":[-1.6829975E-2,-2.7882005E-3,1.8464658E-2,3.0652264E-2,1.4797512E-2,1.1068381E-2,-4.9108667E-3,-5.1683993E-3,-2.3031817E-3,-2.0952053E-2,-5.3219096E-4,-9.428412E-3,5.4708407E-3,1.1157858E-2,2.67905E-2,1.1455724E-2,8.2717836E-4,2.4146456E-3,9.8139E-3,3.6444764E-3,1.6394291E-2,2.99278E-2,1.0174474E-2,8.229816E-3,-2.9271008E-3],"split_indices":[479,795,132,0,38,616,1242,884,941,9,116,64,0,0,0,0,0,0,0,0,0,0,0,0,0],"split_type":[0,0,0,0,0,0,0,0,0,0,0,0,0,0,0,0,0,0,0,0,0,0,0,0,0],"sum_hessian":[1.31E2,3.8E1,9.3E1,9E0,2.9E1,7.9E1,1.4E1,1.5E1,1.4E1,6.6E1,1.3E1,1E1,4E0,8E0,7E0,7E0,7E0,4.1E1,2.5E1,2E0,1.1E1,8E0,2E0,2E0,2E0],"tree_param":{"num_deleted":"0","num_feature":"1536","num_nodes":"25","size_leaf_vector":"0"}},{"base_weights":[2.3144E-1,3.4402403E-1,1.7507829E-1,4.0444863E-1,7.081466E-2,3.1049374E-1,1.0219567E-1,2.3181595E-1,4.844389E-1,-6.5125027E-3,1.6910174E-1,1.4007117E-1,4.4260225E-1,3.8302612E-1,7.52966E-2,3.330497E-2,2.6488113E-1,1.8833771E-1,5.3686345E-1,-7.907748E-2,2.381599E-2,4.5765027E-2,2.168684E-1,5.7496697E-1,1.7137162E-1,7.943964E-2,4.3906283E-1,-5.254984E-3,1.4042707E-1],"categories":[],"categories_nodes":[],"categories_segments":[],"categories_sizes":[],"default_left":[1,1,1,1,1,1,1,1,1,1,0,1,1,1,1,0,0,0,0,0,0,0,0,0,0,0,0,0,0],"id":51,"left_children":[1,3,5,7,9,11,13,15,17,19,-1,21,23,25,27,-1,-1,-1,-1,-1,-1,-1,-1,-1,-1,-1,-1,-1,-1],"loss_changes":[7.773652E-1,6.812277E-1,8.565178E-1,3.710122E-1,6.9503635E-2,6.359465E-1,4.2440403E-1,7.650757E-2,2.559166E-1,1.5088026E-2,0E0,9.871173E-2,5.117905E-1,5.0180912E-2,2.9453433E-1,0E0,0E0,0E0,0E0,0E0,0E0,0E0,0E0,0E0,0E0,0E0,0E0,0E0,0E0],"parents":[2147483647,0,0,1,1,2,2,3,3,4,4,5,5,6,6,7,7,8,8,9,9,11,11,12,12,13,13,14,14],"right_children":[2,4,6,8,10,12,14,16,18,20,-1,22,24,26,28,-1,-1,-1,-1,-1,-1,-1,-1,-1,-1,-1,-1,-1,-1],"split_conditions":[2.1245875E-3,3.5307955E-2,8.748246E-3,-8.521218E-4,1.8767366E-2,2.7684318E-2,-2.3220439E-2,-3.5399258E-2,-1.0850187E-2,-2.2773242E-3,8.455087E-3,-2.3170348E-2,1.5151568E-2,5.214433E-3,1.7573915E-2,1.6652485E-3,1.3244057E-2,9.416886E-3,2.6843173E-2,-3.953874E-3,1.1907995E-3,2.2882514E-3,1.084342E-2,2.8748348E-2,8.568581E-3,3.9719823E-3,2.1953141E-2,-2.627492E-4,7.0213536E-3],"split_indices":[718,191,691,1422,2,798,945,13,995,1,0,1191,718,2,1232,0,0,0,0,0,0,0,0,0,0,0,0,0,0],"split_type":[0,0,0,0,0,0,0,0,0,0,0,0,0,0,0,0,0,0,0,0,0,0,0,0,0,0,0,0,0],"sum_hessian":[1.31E2,4.2E1,8.9E1,3.4E1,8E0,3E1,5.9E1,1.2E1,2.2E1,5E0,3E0,1.4E1,1.6E1,4E0,5.5E1,2E0,1E1,4E0,1.8E1,1E0,4E0,7E0,7E0,1E1,6E0,1E0,3E0,2.5E1,3E1],"tree_param":{"num_deleted":"0","num_feature":"1536","num_nodes":"29","size_leaf_vector":"0"}},{"base_weights":[2.2092853E-1,2.5723514E-1,6.3015655E-2,1.4346589E-1,3.153208E-1,-3.195297E-2,1.9542314E-1,3.3642298E-1,6.253754E-2,3.6496964E-1,1.0894379E-1,-8.912496E-2,2.241691E-2,5.2618504E-2,2.0444176E-1,4.728771E-1,7.810263E-2,3.155623E-3,2.105979E-1,4.3027687E-1,2.1514623E-1,-5.9987647E-3,1.8623869E-1,-1.03612006E-1,-3.0442556E-2,-2.5293997E-3,7.315266E-2],"categories":[],"categories_nodes":[],"categories_segments":[],"categories_sizes":[],"default_left":[1,1,1,1,1,1,1,1,1,1,1,1,1,0,0,0,0,0,0,0,0,0,0,0,0,0,0],"id":52,"left_children":[1,3,5,7,9,11,13,15,17,19,21,23,25,-1,-1,-1,-1,-1,-1,-1,-1,-1,-1,-1,-1,-1,-1],"loss_changes":[7.405834E-1,6.6185665E-1,3.3318287E-1,5.723576E-1,6.7748547E-1,5.1732853E-2,3.409505E-3,3.5080457E-1,2.4551448E-1,4.5536232E-1,1.343843E-1,3.646873E-3,1.157606E-2,0E0,0E0,0E0,0E0,0E0,0E0,0E0,0E0,0E0,0E0,0E0,0E0,0E0,0E0],"parents":[2147483647,0,0,1,1,2,2,3,3,4,4,5,5,6,6,7,7,8,8,9,9,10,10,11,11,12,12],"right_children":[2,4,6,8,10,12,14,16,18,20,22,24,26,-1,-1,-1,-1,-1,-1,-1,-1,-1,-1,-1,-1,-1,-1],"split_conditions":[3.138092E-2,2.9461496E-2,-2.357068E-2,-5.754883E-3,-1.2517804E-2,-1.2542789E-2,-7.356276E-3,3.3038754E-2,1.1851316E-2,-1.0277347E-2,-4.1949388E-4,-1.6690109E-2,4.5140773E-2,2.6309253E-3,1.0222088E-2,2.3643855E-2,3.9051317E-3,1.5778116E-4,1.0529895E-2,2.1513844E-2,1.0757311E-2,-2.9993823E-4,9.311935E-3,-5.1806006E-3,-1.5221279E-3,-1.2646998E-4,3.6576332E-3],"split_indices":[70,383,1501,1076,756,975,0,191,1049,1041,995,8,70,0,0,0,0,0,0,0,0,0,0,0,0,0,0],"split_type":[0,0,0,0,0,0,0,0,0,0,0,0,0,0,0,0,0,0,0,0,0,0,0,0,0,0,0],"sum_hessian":[1.31E2,1.06E2,2.5E1,3.7E1,6.9E1,1.5E1,1E1,1E1,2.7E1,5.5E1,1.4E1,7E0,8E0,1E0,9E0,6E0,4E0,2E1,7E0,3.7E1,1.8E1,6E0,8E0,5E0,2E0,6E0,2E0],"tree_param":{"num_deleted":"0","num_feature":"1536","num_nodes":"27","size_leaf_vector":"0"}},{"base_weights":[2.1055783E-1,1.3598634E-1,2.9007286E-1,2.2827075E-1,7.626667E-2,1.2148694E-1,3.7147328E-1,2.9974955E-1,9.705163E-2,1.258101E-1,-5.1553067E-2,2.3110624E-1,-3.3166837E-2,5.313839E-1,2.4147874E-1,3.8439435E-1,1.8179923E-1,1.856181E-2,1.2416509E-1,7.740991E-2,2.876094E-1,-8.840506E-2,5.3465188E-2,1.2156448E-1,3.8206014E-1,-8.135958E-2,1.25215845E-2,1.7667048E-1,5.646812E-1,3.500677E-1,1.31154E-1],"categories":[],"categories_nodes":[],"categories_segments":[],"categories_sizes":[],"default_left":[1,1,1,1,1,1,1,1,1,1,1,1,1,1,1,0,0,0,0,0,0,0,0,0,0,0,0,0,0,0,0],"id":53,"left_children":[1,3,5,7,9,11,13,15,17,19,21,23,25,27,29,-1,-1,-1,-1,-1,-1,-1,-1,-1,-1,-1,-1,-1,-1,-1,-1],"loss_changes":[7.4325514E-1,3.6837423E-1,8.1941795E-1,2.241522E-1,2.851216E-1,3.806319E-1,7.447572E-1,9.98435E-2,2.11047E-2,2.2833198E-1,5.5038314E-2,1.6851985E-1,2.3037251E-2,1.1283541E-1,2.5358844E-1,0E0,0E0,0E0,0E0,0E0,0E0,0E0,0E0,0E0,0E0,0E0,0E0,0E0,0E0,0E0,0E0],"parents":[2147483647,0,0,1,1,2,2,3,3,4,4,5,5,6,6,7,7,8,8,9,9,10,10,11,11,12,12,13,13,14,14],"right_children":[2,4,6,8,10,12,14,16,18,20,22,24,26,28,30,-1,-1,-1,-1,-1,-1,-1,-1,-1,-1,-1,-1,-1,-1,-1,-1],"split_conditions":[3.3174656E-2,-1.3163993E-2,-1.4303334E-2,6.6095227E-3,2.8049484E-2,6.398443E-3,1.9149011E-2,1.6905308E-2,-1.0225367E-2,-8.188248E-3,2.3180477E-2,1.66545E-2,8.404881E-3,-7.526594E-3,-1.607918E-2,1.9219717E-2,9.089962E-3,9.2809054E-4,6.2082545E-3,3.8704954E-3,1.438047E-2,-4.420253E-3,2.6732595E-3,6.078224E-3,1.9103007E-2,-4.0679793E-3,6.260792E-4,8.833524E-3,2.8234059E-2,1.7503386E-2,6.5577E-3],"split_indices":[855,1466,1388,905,70,873,565,425,30,331,140,947,23,328,711,0,0,0,0,0,0,0,0,0,0,0,0,0,0,0,0],"split_type":[0,0,0,0,0,0,0,0,0,0,0,0,0,0,0,0,0,0,0,0,0,0,0,0,0,0,0,0,0,0,0],"sum_hessian":[1.31E2,6.9E1,6.2E1,2.6E1,4.3E1,2.1E1,4.1E1,1.6E1,1E1,3.1E1,1.2E1,1.2E1,9E0,1.7E1,2.4E1,8E0,8E0,3E0,7E0,2.5E1,6E0,9E0,3E0,8E0,4E0,4E0,5E0,2E0,1.5E1,1.1E1,1.3E1],"tree_param":{"num_deleted":"0","num_feature":"1536","num_nodes":"31","size_leaf_vector":"0"}},{"base_weights":[2.0105131E-1,2.3413602E-1,5.716227E-2,3.849058E-1,1.928445E-1,-2.2548275E-2,1.8695398E-1,1.1985258E-1,4.7680992E-1,9.546283E-2,2.546813E-1,-6.059283E-2,5.729888E-2,1.5093166E-1,5.8810353E-2,1.371538E-1,5.4464185E-1,3.1314597E-1,4.874411E-2,3.715538E-1,1.8187957E-1,-2.1920903E-2,-9.5611274E-2,1.471134E-2,7.491481E-2],"categories":[],"categories_nodes":[],"categories_segments":[],"categories_sizes":[],"default_left":[1,1,1,1,1,1,0,1,1,1,1,1,1,0,0,0,0,0,0,0,0,0,0,0,0],"id":54,"left_children":[1,3,5,7,9,11,-1,13,15,17,19,21,23,-1,-1,-1,-1,-1,-1,-1,-1,-1,-1,-1,-1],"loss_changes":[6.150055E-1,5.9190273E-1,2.7320543E-1,4.7876215E-1,4.9355984E-1,5.511364E-2,0E0,4.403606E-3,2.9393244E-1,3.4068164E-1,3.7486506E-1,1.4154881E-2,3.3992175E-3,0E0,0E0,0E0,0E0,0E0,0E0,0E0,0E0,0E0,0E0,0E0,0E0],"parents":[2147483647,0,0,1,1,2,2,3,3,4,4,5,5,7,7,8,8,9,9,10,10,11,11,12,12],"right_children":[2,4,6,8,10,12,-1,14,16,18,20,22,24,-1,-1,-1,-1,-1,-1,-1,-1,-1,-1,-1,-1],"split_conditions":[3.138092E-2,-1.5722666E-2,-2.1085834E-2,-2.6167273E-3,2.9461496E-2,-8.773479E-3,9.347699E-3,9.931881E-3,5.5579776E-3,2.0277621E-2,6.2514255E-3,-1.8150527E-2,-1.4418615E-2,7.5465827E-3,2.9405176E-3,6.8576904E-3,2.7232094E-2,1.5657298E-2,2.4372055E-3,1.8577691E-2,9.093978E-3,-1.0960451E-3,-4.780564E-3,7.35567E-4,3.7457407E-3],"split_indices":[70,1091,617,1502,383,989,0,12,68,383,609,1245,20,0,0,0,0,0,0,0,0,0,0,0,0],"split_type":[0,0,0,0,0,0,0,0,0,0,0,0,0,0,0,0,0,0,0,0,0,0,0,0,0],"sum_hessian":[1.31E2,1.06E2,2.5E1,2.1E1,8.5E1,1.6E1,9E0,6E0,1.5E1,3.4E1,5.1E1,1.1E1,5E0,3E0,3E0,3E0,1.2E1,5E0,2.9E1,1.8E1,3.3E1,6E0,5E0,2E0,3E0],"tree_param":{"num_deleted":"0","num_feature":"1536","num_nodes":"25","size_leaf_vector":"0"}},{"base_weights":[1.9174342E-1,2.97108E-1,1.4598851E-1,1.1781383E-1,4.0425795E-1,6.1734963E-2,2.1889691E-1,2.8770879E-2,1.838727E-1,1.4649096E-1,4.820419E-1,1.4006764E-1,-1.9281838E-2,9.751918E-2,3.2718715E-1,-8.793831E-3,5.306847E-2,2.4233651E-1,1.4022678E-2,5.000904E-1,8.7608695E-2,2.2075032E-1,4.7712658E-2,5.3255655E-2,-7.91765E-2,1.2744226E-1,-9.143755E-2,1.613659E-1,4.0548277E-1],"categories":[],"categories_nodes":[],"categories_segments":[],"categories_sizes":[],"default_left":[1,1,1,1,1,1,1,1,0,1,1,1,1,1,1,0,0,0,0,0,0,0,0,0,0,0,0,0,0],"id":55,"left_children":[1,3,5,7,9,11,13,15,-1,17,19,21,23,25,27,-1,-1,-1,-1,-1,-1,-1,-1,-1,-1,-1,-1,-1,-1],"loss_changes":[5.929909E-1,7.016158E-1,5.639088E-1,8.8823065E-2,4.1058826E-1,2.8828257E-1,6.2529445E-1,7.7685304E-3,0E0,8.547726E-2,8.432865E-2,1.6085073E-1,1.041426E-1,1.5300718E-1,2.7212882E-1,0E0,0E0,0E0,0E0,0E0,0E0,0E0,0E0,0E0,0E0,0E0,0E0,0E0,0E0],"parents":[2147483647,0,0,1,1,2,2,3,3,4,4,5,5,6,6,7,7,9,9,10,10,11,11,12,12,13,13,14,14],"right_children":[2,4,6,8,10,12,14,16,-1,18,20,22,24,26,28,-1,-1,-1,-1,-1,-1,-1,-1,-1,-1,-1,-1,-1,-1],"split_conditions":[-1.6829975E-2,1.5693214E-2,1.27911875E-2,9.251535E-3,1.0309452E-2,2.3869327E-3,5.845558E-3,2.6562437E-4,9.193636E-3,-3.0983973E-2,-1.3901041E-2,2.1540567E-2,-2.4151955E-2,-1.3763858E-2,2.2510033E-2,-4.3969156E-4,2.6534235E-3,1.2116826E-2,7.011339E-4,2.5004521E-2,4.3804348E-3,1.1037516E-2,2.3856328E-3,2.6627828E-3,-3.958825E-3,6.372113E-3,-4.5718774E-3,8.068295E-3,2.0274138E-2],"split_indices":[479,930,772,1321,297,382,751,7,0,19,8,166,327,664,999,0,0,0,0,0,0,0,0,0,0,0,0,0,0],"split_type":[0,0,0,0,0,0,0,0,0,0,0,0,0,0,0,0,0,0,0,0,0,0,0,0,0,0,0,0,0],"sum_hessian":[1.31E2,3.8E1,9.3E1,1.5E1,2.3E1,4.4E1,4.9E1,7E0,8E0,6E0,1.7E1,2.2E1,2.2E1,2.4E1,2.5E1,3E0,4E0,3E0,3E0,1.6E1,1E0,1.1E1,1.1E1,1E1,1.2E1,2.1E1,3E0,9E0,1.6E1],"tree_param":{"num_deleted":"0","num_feature":"1536","num_nodes":"29","size_leaf_vector":"0"}},{"base_weights":[1.828826E-1,2.8231686E-1,1.3968241E-1,4.8385745E-1,2.0572609E-1,2.8964958E-1,1.0035269E-1,6.51556E-2,2.6286793E-1,2.653214E-2,4.0904748E-1,2.2030097E-2,1.6323216E-1,1.0091217E-1,-5.191378E-2,3.1504357E-1,1.387021E-1,8.395916E-2,-3.752792E-2,2.1238776E-1,5.054113E-1,-3.433627E-2,8.373191E-2,6.384306E-2,2.2193919E-1],"categories":[],"categories_nodes":[],"categories_segments":[],"categories_sizes":[],"default_left":[1,1,1,0,1,1,1,1,1,1,1,1,1,0,0,0,0,0,0,0,0,0,0,0,0],"id":56,"left_children":[1,3,5,-1,7,9,11,13,15,17,19,21,23,-1,-1,-1,-1,-1,-1,-1,-1,-1,-1,-1,-1],"loss_changes":[5.275817E-1,5.0246763E-1,5.253608E-1,0E0,2.2384644E-1,5.8604455E-1,3.706951E-1,4.7098726E-2,9.234977E-2,2.8902262E-2,1.3901854E-1,1.2460179E-1,2.3089397E-1,0E0,0E0,0E0,0E0,0E0,0E0,0E0,0E0,0E0,0E0,0E0,0E0],"parents":[2147483647,0,0,1,1,2,2,4,4,5,5,6,6,7,7,8,8,9,9,10,10,11,11,12,12],"right_children":[2,4,6,-1,8,10,12,14,16,18,20,22,24,-1,-1,-1,-1,-1,-1,-1,-1,-1,-1,-1,-1],"split_conditions":[-7.982065E-3,-2.609925E-2,-3.0872081E-3,2.4192873E-2,-1.3097307E-2,3.3492416E-2,3.6616832E-2,1.1031689E-3,-1.8665448E-2,-2.4971382E-3,-1.7222624E-2,-2.9842195E-3,-4.1222613E-2,5.0456086E-3,-2.595689E-3,1.575218E-2,6.9351047E-3,4.1979584E-3,-1.876396E-3,1.0619388E-2,2.5270566E-2,-1.7168134E-3,4.186596E-3,3.1921528E-3,1.109696E-2],"split_indices":[922,449,442,0,230,1385,1359,238,1292,12,365,653,1374,0,0,0,0,0,0,0,0,0,0,0,0],"split_type":[0,0,0,0,0,0,0,0,0,0,0,0,0,0,0,0,0,0,0,0,0,0,0,0,0],"sum_hessian":[1.31E2,3.8E1,9.3E1,9E0,2.9E1,1.8E1,7.5E1,9E0,2E1,6E0,1.2E1,3.4E1,4.1E1,7E0,2E0,1.3E1,7E0,3E0,3E0,5E0,7E0,1.8E1,1.6E1,1.6E1,2.5E1],"tree_param":{"num_deleted":"0","num_feature":"1536","num_nodes":"25","size_leaf_vector":"0"}},{"base_weights":[1.7452863E-1,1.1096372E-1,2.4238601E-1,1.871645E-1,4.9134012E-2,5.300369E-2,3.0046374E-1,2.215291E-1,7.0571504E-3,1.5912041E-1,7.167868E-3,-8.806477E-3,1.9074735E-1,3.8898805E-1,1.4487465E-1,1.6518754E-1,3.5085797E-1,5.311963E-2,-5.671187E-2,2.1493673E-1,7.6784015E-2,5.8386467E-2,-4.7943164E-2,3.4755725E-2,-4.4887442E-2,1.9305578E-1,4.6376586E-1,-3.5691906E-2,1.954052E-1],"categories":[],"categories_nodes":[],"categories_segments":[],"categories_sizes":[],"default_left":[1,1,1,1,1,1,1,1,1,1,1,1,0,1,1,0,0,0,0,0,0,0,0,0,0,0,0,0,0],"id":57,"left_children":[1,3,5,7,9,11,13,15,17,19,21,23,-1,25,27,-1,-1,-1,-1,-1,-1,-1,-1,-1,-1,-1,-1,-1,-1],"loss_changes":[5.424657E-1,3.20607E-1,6.770048E-1,1.9030547E-1,1.8348765E-1,1.3790315E-1,6.047697E-1,1.3149393E-1,2.063667E-2,3.4049124E-2,8.748053E-2,2.042129E-2,0E0,3.5000896E-1,1.8033278E-1,0E0,0E0,0E0,0E0,0E0,0E0,0E0,0E0,0E0,0E0,0E0,0E0,0E0,0E0],"parents":[2147483647,0,0,1,1,2,2,3,3,4,4,5,5,6,6,7,7,8,8,9,9,10,10,11,11,13,13,14,14],"right_children":[2,4,6,8,10,12,14,16,18,20,22,24,-1,26,28,-1,-1,-1,-1,-1,-1,-1,-1,-1,-1,-1,-1,-1,-1],"split_conditions":[3.3174656E-2,-1.223382E-2,-1.2511911E-2,3.965686E-3,-2.5376737E-2,-7.258475E-3,-2.1827696E-2,-1.1829073E-2,1.3901661E-2,-3.253381E-2,1.0752989E-2,-1.5700799E-3,9.537368E-3,-1.16686355E-2,-2.3038559E-2,8.259377E-3,1.7542899E-2,2.6559816E-3,-2.8355937E-3,1.0746837E-2,3.8392008E-3,2.9193235E-3,-2.3971582E-3,1.7377863E-3,-2.2443722E-3,9.652789E-3,2.3188293E-2,-1.7845953E-3,9.77026E-3],"split_indices":[855,1123,993,53,1141,204,808,110,12,52,1182,63,0,897,27,0,0,0,0,0,0,0,0,0,0,0,0,0,0],"split_type":[0,0,0,0,0,0,0,0,0,0,0,0,0,0,0,0,0,0,0,0,0,0,0,0,0,0,0,0,0],"sum_hessian":[1.31E2,6.9E1,6.2E1,3E1,3.9E1,1.5E1,4.7E1,2.5E1,5E0,1E1,2.9E1,1.1E1,4E0,2.9E1,1.8E1,1.9E1,6E0,3E0,2E0,5E0,5E0,1.5E1,1.4E1,5E0,6E0,9E0,2E1,4E0,1.4E1],"tree_param":{"num_deleted":"0","num_feature":"1536","num_nodes":"29","size_leaf_vector":"0"}},{"base_weights":[1.664885E-1,2.6037583E-1,1.2576409E-1,1.0209337E-1,3.5504848E-1,5.2407626E-2,1.8926962E-1,2.6013057E-3,1.4708056E-1,-1.614956E-2,3.8952783E-1,3.0216503E-1,3.3763908E-2,8.766163E-3,2.3417632E-1,1.9397616E-2,-2.0660877E-2,1.6684416E-1,7.07832E-2,7.840705E-2,4.1671956E-1,-4.598937E-2,7.385133E-2,-6.758E-2,1.1389756E-1,1.5222763E-1,3.4758514E-1],"categories":[],"categories_nodes":[],"categories_segments":[],"categories_sizes":[],"default_left":[1,1,1,1,1,1,1,1,1,0,1,0,1,1,1,0,0,0,0,0,0,0,0,0,0,0,0],"id":58,"left_children":[1,3,5,7,9,11,13,15,17,-1,19,-1,21,23,25,-1,-1,-1,-1,-1,-1,-1,-1,-1,-1,-1,-1],"loss_changes":[4.719565E-1,5.481677E-1,4.2798376E-1,7.123129E-2,3.1345892E-1,1.99336E-1,4.032377E-1,2.745085E-3,4.7772527E-3,0E0,1.5344429E-1,0E0,1.4087182E-1,9.5987365E-2,3.188362E-1,0E0,0E0,0E0,0E0,0E0,0E0,0E0,0E0,0E0,0E0,0E0,0E0],"parents":[2147483647,0,0,1,1,2,2,3,3,4,4,5,5,6,6,7,7,8,8,10,10,12,12,13,13,14,14],"right_children":[2,4,6,8,10,12,14,16,18,-1,20,-1,22,24,26,-1,-1,-1,-1,-1,-1,-1,-1,-1,-1,-1,-1],"split_conditions":[-1.6829975E-2,1.5693214E-2,1.27911875E-2,8.251104E-3,-2.2681398E-2,-1.6549902E-2,1.7587313E-2,-2.2735177E-3,8.43068E-3,-8.0747803E-4,2.0438703E-3,1.5108252E-2,1.8579175E-3,-2.0446846E-2,1.3981632E-2,9.6988084E-4,-1.0330438E-3,8.342208E-3,3.53916E-3,3.9203526E-3,2.0835979E-2,-2.2994687E-3,3.6925666E-3,-3.3790001E-3,5.6948783E-3,7.6113814E-3,1.7379258E-2],"split_indices":[479,930,772,572,184,276,540,15,15,0,562,0,776,126,1006,0,0,0,0,0,0,0,0,0,0,0,0],"split_type":[0,0,0,0,0,0,0,0,0,0,0,0,0,0,0,0,0,0,0,0,0,0,0,0,0,0,0],"sum_hessian":[1.31E2,3.8E1,9.3E1,1.5E1,2.3E1,4.4E1,4.9E1,5E0,1E1,2E0,2.1E1,2E0,4.2E1,1E1,3.9E1,3E0,2E0,7E0,3E0,2E0,1.9E1,1.4E1,2.8E1,6E0,4E0,2.4E1,1.5E1],"tree_param":{"num_deleted":"0","num_feature":"1536","num_nodes":"27","size_leaf_vector":"0"}},{"base_weights":[1.5876694E-1,1.0061347E-1,2.208618E-1,5.5611737E-2,1.7022319E-1,3.235768E-1,1.23734966E-1,2.3784213E-2,2.2044519E-1,4.9301386E-2,2.2794513E-1,5.8617253E-2,3.873743E-1,5.464819E-2,2.4584003E-1,1.0665285E-1,-9.620758E-3,7.4296474E-2,-3.378598E-2,2.929606E-1,1.3037845E-1,1.04444884E-1,-3.7301224E-2,4.239416E-1,9.8552525E-2,-4.438454E-2,1.00749046E-1,3.616201E-1,1.1147996E-1],"categories":[],"categories_nodes":[],"categories_segments":[],"categories_sizes":[],"default_left":[1,1,1,1,1,1,1,1,0,1,1,1,1,1,1,0,0,0,0,0,0,0,0,0,0,0,0,0,0],"id":59,"left_children":[1,3,5,7,9,11,13,15,-1,17,19,21,23,25,27,-1,-1,-1,-1,-1,-1,-1,-1,-1,-1,-1,-1,-1,-1],"loss_changes":[4.544344E-1,2.098127E-1,5.884745E-1,2.2559147E-1,1.7721772E-1,4.84406E-1,2.7338403E-1,1.06218606E-1,0E0,2.327794E-2,7.598436E-2,3.4665935E-2,2.1169353E-1,1.0947805E-1,1.4636123E-1,0E0,0E0,0E0,0E0,0E0,0E0,0E0,0E0,0E0,0E0,0E0,0E0,0E0,0E0],"parents":[2147483647,0,0,1,1,2,2,3,3,4,4,5,5,